3.927218019962310791e-01,8.777060508728027344e-01,-7.140732407569885254e-01,-5.688799023628234863e-01,-2.752477169036865234e+00,1.252233743667602539e+00,2.708615958690643311e-01,4.928684830665588379e-01,-1.249438598752021790e-01,1.410295665264129639e-01,1.275777816772460938e-01,2.815670073032379150e-01,-6.239010691642761230e-01,-4.746878445148468018e-01,-1.214415952563285828e-01,-3.883551061153411865e-02,-2.089445143938064575e-01,-9.598007798194885254e-01,4.951314628124237061e-01,4.998632967472076416e-01,9.446699023246765137e-01,5.346409678459167480e-01,3.914047777652740479e-01,9.356285333633422852e-01,-2.287984490394592285e-01,-5.047202110290527344e-01,8.896462917327880859e-01,1.173931211233139038e-01,6.847792863845825195e-01,-1.989592671394348145e+00,7.059898376464843750e-01,-1.609983682632446289e+00,3.907755762338638306e-02,3.359557092189788818e-01,4.064421951770782471e-01,3.775543272495269775e-01,5.317482948303222656e-01,-3.035119771957397461e-01,-8.735616803169250488e-01,2.130144983530044556e-01,-1.073010087013244629e+00,3.451880812644958496e-01,1.000621080398559570e+00,9.961293339729309082e-01,4.637991487979888916e-01,3.678663074970245361e-01,3.911497592926025391e-01,-3.849781751632690430e-01,-2.279576063156127930e-01,1.842671751976013184e+00,4.824651181697845459e-01,9.648868441581726074e-01,-1.067427694797515869e-01,1.321457386016845703e+00,-1.194382071495056152e+00,7.116736769676208496e-01,-6.619522571563720703e-01,6.354877352714538574e-01,1.921512335538864136e-01,4.219305813312530518e-01,-5.781773328781127930e-01,1.095945477485656738e+00,-4.277508556842803955e-01,-1.799704670906066895e+00,9.636889696121215820e-01,3.519082367420196533e-01,-4.958899319171905518e-02,7.795998454093933105e-01,-1.576387137174606323e-01,-1.746050119400024414e+00,5.182538628578186035e-01,7.105758786201477051e-01,1.066468596458435059e+00,1.145322203636169434e+00,-6.135109663009643555e-01,7.614761590957641602e-01,-1.444623470306396484e+00,3.132295906543731689e-01,1.051868915557861328e+00,5.708245635032653809e-01,6.739237308502197266e-01,-9.478387832641601562e-01,-6.820175647735595703e-01,-5.965937972068786621e-01,8.637754321098327637e-01,-4.058447480201721191e-01,1.099013566970825195e+00,1.700442582368850708e-01,9.614588320255279541e-02,-9.172753095626831055e-01,8.825215697288513184e-01,-4.743677675724029541e-01,8.466907143592834473e-01,-6.189991906285285950e-02,1.472014904022216797e+00,-9.878910779953002930e-01,-8.707265257835388184e-01,1.313618302345275879e+00,1.089913025498390198e-01,2.031353712081909180e-01
-1.907368749380111694e-01,1.469613909721374512e-01,-1.331834912300109863e+00,-8.203173875808715820e-01,6.940054297447204590e-01,-1.824294179677963257e-01,2.885026335716247559e-01,2.623248994350433350e-01,-6.004766002297401428e-02,4.412069618701934814e-01,8.348486572504043579e-02,6.688742041587829590e-01,-5.287647247314453125e-01,-5.116437096148729324e-03,1.373861134052276611e-01,-7.791273593902587891e-01,3.175694346427917480e-01,6.365316510200500488e-01,-1.027642935514450073e-01,1.871361732482910156e+00,3.099511563777923584e-01,2.246743589639663696e-01,7.961541414260864258e-01,-4.617522656917572021e-01,1.101666927337646484e+00,-1.669276833534240723e+00,-3.498888909816741943e-01,-9.934301972389221191e-01,-2.354380190372467041e-01,-1.002980947494506836e+00,1.198348924517631531e-01,-1.122606396675109863e+00,3.590777218341827393e-01,-9.482893347740173340e-01,3.088560402393341064e-01,5.451894998550415039e-01,1.103727221488952637e+00,7.555555701255798340e-01,-8.534913659095764160e-01,1.049939393997192383e+00,1.502960771322250366e-01,1.464989632368087769e-01,1.084093570709228516e+00,6.171442866325378418e-01,9.785003066062927246e-01,8.767277002334594727e-02,4.266639053821563721e-01,-1.697379708290100098e+00,3.457759916782379150e-01,7.449766397476196289e-01,-9.632304906845092773e-01,1.842949688434600830e-01,1.386393308639526367e+00,2.383143454790115356e-01,-1.142968416213989258e+00,7.859243750572204590e-01,7.779286503791809082e-01,7.688173651695251465e-01,-1.171497330069541931e-01,1.109492421150207520e+00,1.622588038444519043e-01,4.923299849033355713e-01,-7.025411725044250488e-02,1.124027848243713379e+00,-4.990159571170806885e-01,-5.046743750572204590e-01,-1.582056403160095215e+00,-6.664172410964965820e-01,1.150756239891052246e+00,7.460840344429016113e-01,-8.634422421455383301e-01,-1.526378281414508820e-02,-1.724082082509994507e-01,-1.634350657463073730e+00,-3.416689634323120117e-01,-1.045764759182929993e-01,7.803062349557876587e-02,4.641565978527069092e-01,-2.439286947250366211e+00,7.390730381011962891e-01,2.187795341014862061e-01,5.837546288967132568e-02,-2.113851547241210938e+00,-1.152828931808471680e-01,2.164217084646224976e-01,2.695085406303405762e-01,-1.339782357215881348e+00,-1.461991786956787109e+00,-7.930243611335754395e-01,5.648789554834365845e-02,2.168931961059570312e+00,-5.119426250457763672e-01,-8.315367698669433594e-01,1.050103187561035156e+00,-3.764798343181610107e-01,3.410743772983551025e-01,-7.031127810478210449e-01,7.901205420494079590e-01,-4.217945039272308350e-01,3.563630878925323486e-01
-1.127671971917152405e-01,-2.190481185913085938e+00,5.627159960567951202e-03,4.235824942588806152e-01,-1.046501919627189636e-01,-5.915024876594543457e-01,7.198634743690490723e-01,-9.302984923124313354e-02,4.930966198444366455e-01,7.954531311988830566e-01,1.116835832595825195e+00,6.717033386230468750e-01,-2.866611480712890625e-01,3.841161131858825684e-01,6.754820942878723145e-01,6.932796835899353027e-01,-1.326931118965148926e+00,-1.142833471298217773e+00,5.655258297920227051e-01,-3.160643875598907471e-01,6.106465458869934082e-01,6.451453566551208496e-01,1.867358386516571045e-01,-3.919952809810638428e-01,2.843053638935089111e-01,9.293197393417358398e-01,-8.721258640289306641e-01,-1.056171655654907227e+00,1.799743324518203735e-01,-2.345905452966690063e-01,-2.120744585990905762e-01,-2.278854511678218842e-02,3.088861107826232910e-01,-4.508197605609893799e-01,1.215903282165527344e+00,1.313299536705017090e-01,-3.377226591110229492e-01,-7.186097651720046997e-02,4.649148583412170410e-01,1.106780529022216797e+00,6.297564506530761719e-01,1.984400302171707153e-01,3.705060109496116638e-02,-7.097426056861877441e-01,-5.000820755958557129e-01,-3.130409121513366699e-01,-4.195609316229820251e-02,7.479605078697204590e-02,-1.135419964790344238e+00,4.257406890392303467e-01,-9.308933615684509277e-01,6.153782010078430176e-01,-1.449239373207092285e+00,7.712399363517761230e-01,-1.335137784481048584e-01,-5.215451717376708984e-01,-1.580773591995239258e-01,-1.215221405029296875e+00,-1.564231157302856445e+00,4.222729802131652832e-01,-2.896889150142669678e-01,3.803336024284362793e-01,-5.487923622131347656e-01,3.908709585666656494e-01,5.247056484222412109e-01,7.287368923425674438e-02,1.425069719552993774e-01,3.555026650428771973e-01,-3.706115484237670898e-01,8.513708114624023438e-01,4.048000648617744446e-02,2.369825243949890137e-01,-2.270798981189727783e-01,-2.978894673287868500e-02,6.800087690353393555e-01,7.535115480422973633e-01,-5.684877038002014160e-01,-1.892837762832641602e+00,5.620095729827880859e-01,1.896812558174133301e+00,6.022825837135314941e-02,5.930135250091552734e-01,-5.797972679138183594e-01,3.845784664154052734e-01,-1.575505882501602173e-01,1.183254957199096680e+00,1.153881996870040894e-01,-8.347823619842529297e-01,8.729964494705200195e-01,-2.420978307723999023e+00,3.444632589817047119e-01,-7.328552603721618652e-01,-3.331070542335510254e-01,-2.549427449703216553e-01,5.983594655990600586e-01,-2.607094943523406982e-01,-4.581657648086547852e-01,7.223449349403381348e-01,1.051781177520751953e+00,5.737084746360778809e-01
2.206776142120361328e-01,-4.917852282524108887e-01,-3.608328700065612793e-01,1.264163851737976074e+00,-1.202131628990173340e+00,-8.309900760650634766e-01,-7.767950296401977539e-01,1.950296014547348022e-01,1.213454604148864746e+00,4.025824666023254395e-01,-3.335801064968109131e-01,5.612512826919555664e-01,-3.628566563129425049e-01,2.024416327476501465e-01,-9.782566428184509277e-01,-4.592764675617218018e-01,-1.068642258644104004e+00,-1.360662341117858887e+00,-2.905588150024414062e-01,-1.007083952426910400e-01,1.051706671714782715e+00,8.393036723136901855e-01,4.192683100700378418e-01,-2.340395748615264893e-01,3.681614249944686890e-02,4.613321721553802490e-01,-1.460506200790405273e+00,1.432182788848876953e+00,1.908828020095825195e-01,2.043428570032119751e-01,9.692719578742980957e-01,-2.007283270359039307e-01,3.342333436012268066e-01,-1.133251190185546875e+00,4.243990182876586914e-01,2.361180260777473450e-02,1.814762651920318604e-01,-1.079486250877380371e+00,1.011771857738494873e-01,9.599358439445495605e-01,-2.257852554321289062e+00,3.930080533027648926e-01,-6.904079914093017578e-01,-5.765847563743591309e-01,9.032948613166809082e-01,5.981450080871582031e-01,1.558433055877685547e+00,1.598896682262420654e-01,-1.917170047760009766e+00,8.733292818069458008e-01,2.499035000801086426e-02,5.443147420883178711e-01,2.578899860382080078e-01,1.260846614837646484e+00,-1.457354426383972168e+00,-2.577998340129852295e-01,9.311846494674682617e-01,4.279683232307434082e-01,6.093206405639648438e-01,6.454949378967285156e-01,3.039244115352630615e-01,1.117242813110351562e+00,-4.184718728065490723e-01,-5.962248444557189941e-01,1.001574516296386719e+00,1.245578169822692871e+00,3.256946504116058350e-01,1.509226709604263306e-01,-1.205904930830001831e-01,-8.316701650619506836e-01,7.017664611339569092e-02,4.966268688440322876e-02,-6.856341361999511719e-01,-1.317238807678222656e+00,-1.990603283047676086e-02,1.887515485286712646e-01,-7.115655392408370972e-02,-2.857372462749481201e-01,1.366418719291687012e+00,1.080962181091308594e+00,-4.402379691600799561e-01,4.944860935211181641e-01,3.870801329612731934e-01,8.234367370605468750e-01,6.459450721740722656e-01,3.963158726692199707e-01,3.553065061569213867e-01,-2.276366949081420898e-01,-1.884152293205261230e-01,9.574392437934875488e-02,-1.055653840303421021e-01,-1.715422123670578003e-01,-7.879945635795593262e-01,1.012483716011047363e+00,-2.983227744698524475e-02,-5.775028467178344727e-01,-1.371996045112609863e+00,-1.197184562683105469e+00,-3.814465999603271484e+00,9.306295961141586304e-02
4.100432991981506348e-01,-5.269727110862731934e-01,2.163597643375396729e-01,-3.634663522243499756e-01,1.837144047021865845e-01,1.693369030952453613e+00,-1.307895541191101074e+00,-2.382839620113372803e-01,5.686703324317932129e-01,1.065291643142700195e+00,-1.599035620689392090e+00,1.321720600128173828e+00,3.269779980182647705e-01,4.742159545421600342e-01,3.039143979549407959e-01,2.067930847406387329e-01,5.670458823442459106e-02,7.983534932136535645e-01,-1.782631129026412964e-01,7.487757802009582520e-01,4.188566505908966064e-01,8.526334166526794434e-01,-2.794355154037475586e-01,-9.702120423316955566e-01,1.024474501609802246e+00,-3.888663649559020996e-02,-1.966418325901031494e-01,-4.842990040779113770e-01,8.464127779006958008e-01,-1.135967612266540527e+00,5.568382889032363892e-02,1.492209136486053467e-01,2.370587885379791260e-01,7.804606556892395020e-01,-7.097796350717544556e-02,4.680652022361755371e-01,-1.269785881042480469e+00,-1.584278106689453125e+00,-1.012151911854743958e-01,3.688357174396514893e-01,2.608362026512622833e-02,-1.053462475538253784e-01,-2.210425436496734619e-01,-3.071275353431701660e-01,8.068994432687759399e-02,5.576882362365722656e-01,-4.784685969352722168e-01,6.257452368736267090e-01,3.386577963829040527e-01,1.042737662792205811e-01,-3.333591520786285400e-01,4.233079552650451660e-01,-2.616606354713439941e-01,1.002322807908058167e-01,2.573762834072113037e-01,8.538689464330673218e-02,-5.846309065818786621e-01,-5.680943727493286133e-01,-5.361294746398925781e-01,7.242529392242431641e-01,-6.295357346534729004e-01,9.831008911132812500e-01,-5.941623449325561523e-01,1.426962018013000488e-01,-1.160359233617782593e-01,-9.792689979076385498e-02,7.389318943023681641e-01,-1.180610656738281250e+00,-4.459376633167266846e-01,-3.448635041713714600e-01,5.441461801528930664e-01,5.938616991043090820e-01,-2.122787237167358398e+00,-1.519348144531250000e+00,-1.517149060964584351e-01,2.579914331436157227e-01,-6.516112480312585831e-03,-1.891864836215972900e-01,-7.313139438629150391e-01,5.658740401268005371e-01,-1.540009737014770508e+00,8.622942566871643066e-01,-4.955677092075347900e-01,1.095653772354125977e+00,-2.055649012327194214e-01,2.456154525279998779e-01,-8.709433674812316895e-01,6.026792526245117188e-01,-1.087100356817245483e-01,-3.299446702003479004e-01,-8.001019805669784546e-02,1.010076045989990234e+00,-8.967188596725463867e-01,-9.441647678613662720e-02,1.443465501070022583e-01,5.484389513731002808e-02,-2.184071242809295654e-01,-3.449554145336151123e-01,3.112005293369293213e-01,-1.213227733969688416e-01
-7.486714720726013184e-01,9.633231163024902344e-02,1.972153335809707642e-01,-4.944492578506469727e-01,6.415624618530273438e-01,6.361589431762695312e-01,-3.629568815231323242e-01,-1.101097941398620605e+00,-6.099837422370910645e-01,-4.788940250873565674e-01,-3.405079543590545654e-01,1.059930205345153809e+00,-3.093783855438232422e-01,1.060278415679931641e+00,1.235506296157836914e+00,7.681655883789062500e-01,-1.420315146446228027e+00,3.705549240112304688e-01,1.091698050498962402e+00,5.083494186401367188e-01,-6.504216790199279785e-01,6.903963685035705566e-01,-5.655421614646911621e-01,-5.922656059265136719e-01,-4.185195267200469971e-01,-8.656733036041259766e-01,-8.726290464401245117e-01,8.764712810516357422e-01,-1.876552104949951172e-01,7.545619010925292969e-01,-1.055025696754455566e+00,-1.044036507606506348e+00,2.981240153312683105e-01,-8.460574597120285034e-02,-1.905144602060317993e-01,-2.418143600225448608e-01,-1.336898088455200195e+00,5.732906460762023926e-01,3.709801435470581055e-01,1.859310269355773926e+00,1.427116274833679199e+00,1.205312728881835938e+00,-1.653801351785659790e-01,5.937414169311523438e-01,3.837341666221618652e-01,7.417323589324951172e-01,-8.931617140769958496e-01,1.203892529010772705e-01,6.132147908210754395e-01,8.653160929679870605e-01,1.832944005727767944e-01,2.212610691785812378e-01,5.369488596916198730e-01,7.752171158790588379e-01,4.907514899969100952e-02,-2.058520317077636719e+00,-3.281411886215209961e+00,-1.941193193197250366e-01,-5.323632359504699707e-01,4.874768555164337158e-01,-2.646245718002319336e+00,-3.209561407566070557e-01,-4.503530263900756836e-01,1.094710469245910645e+00,-6.422828435897827148e-01,4.491887092590332031e-01,1.928400993347167969e-01,9.858629666268825531e-03,7.658561468124389648e-01,-3.208270072937011719e-01,-5.013172626495361328e-01,9.280247092247009277e-01,-7.766188681125640869e-02,-4.610366523265838623e-01,-3.043404817581176758e-01,4.924147129058837891e-01,-2.065577268600463867e+00,2.776452898979187012e-01,6.216157078742980957e-01,8.415795564651489258e-01,1.720325469970703125e+00,7.793251425027847290e-02,1.120825052261352539e+00,8.544178307056427002e-02,-3.659376800060272217e-01,-1.287642002105712891e+00,1.568535417318344116e-01,-4.938017725944519043e-01,-1.166185975074768066e+00,-8.892735093832015991e-02,-1.461515784263610840e+00,4.547224342823028564e-01,-3.880741894245147705e-01,2.530838549137115479e-01,-7.658891081809997559e-01,-7.086135745048522949e-01,-1.564068913459777832e+00,6.395675539970397949e-01,-7.925623059272766113e-01,1.358115434646606445e+00
-8.843707442283630371e-01,-5.503304481506347656e+00,3.484302997589111328e+00,-2.051611661911010742e+00,-4.873742103576660156e+00,-3.941564321517944336e+00,1.886302351951599121e+00,6.512108802795410156e+00,-1.814303755760192871e+00,-1.370141953229904175e-01,2.564500331878662109e+00,5.164915084838867188e+00,3.272218704223632812e+00,-2.769870281219482422e+00,2.454066753387451172e+00,-4.630899906158447266e+00,1.924143791198730469e+00,2.414990663528442383e+00,-4.452133178710937500e+00,3.298537254333496094e+00,-4.216676235198974609e+00,-1.268152475357055664e+00,6.314065456390380859e+00,5.431378841400146484e+00,-6.011277437210083008e-01,7.545539379119873047e+00,-1.211191558837890625e+01,1.802892208099365234e+00,-3.766732692718505859e+00,-3.579678833484649658e-01,-1.698745369911193848e+00,1.352540254592895508e+00,7.049178600311279297e+00,-2.765242576599121094e+00,-8.853571414947509766e-01,-8.097874641418457031e+00,6.228989601135253906e+00,1.035495400428771973e+00,1.322727680206298828e+00,1.126872420310974121e+00,-4.334331154823303223e-01,8.204223632812500000e+00,-4.423098087310791016e+00,3.602507829666137695e+00,1.609388232231140137e+00,-2.825342893600463867e+00,-1.532870650291442871e+00,3.530540704727172852e+00,2.086197614669799805e+00,-4.181975841522216797e+00,-5.494419336318969727e-01,-5.224759101867675781e+00,-1.021376132965087891e+01,-1.652422189712524414e+00,-5.597854137420654297e+00,2.790246963500976562e+00,-2.630376577377319336e+00,1.542512655258178711e+00,2.758760213851928711e+00,-4.526762008666992188e+00,-8.574270009994506836e-01,-1.013135623931884766e+01,2.393845796585083008e+00,-2.267056107521057129e-01,-6.285392761230468750e+00,1.565540432929992676e+00,-1.790577650070190430e+00,4.376646995544433594e+00,1.001656204462051392e-01,1.981371268630027771e-02,-1.705300927162170410e+00,-4.592742443084716797e+00,-6.868649721145629883e-01,-4.518817663192749023e-01,-2.924945354461669922e+00,5.582301020622253418e-01,3.918992519378662109e+00,4.920270442962646484e+00,2.559228241443634033e-01,7.063713669776916504e-01,4.698487758636474609e+00,-6.597269535064697266e+00,3.438456296920776367e+00,2.120514392852783203e+00,-6.063810825347900391e+00,4.158645153045654297e+00,2.927909851074218750e+00,-5.976996421813964844e+00,2.583380699157714844e+00,4.395911216735839844e+00,-1.369356155395507812e+00,-1.019348239898681641e+01,-4.678635597229003906e+00,3.032394886016845703e+00,-5.653388977050781250e+00,2.273451089859008789e+00,-3.045143127441406250e+00,-1.319862008094787598e+00,3.992713987827301025e-01,-6.444126605987548828e+00
4.075570404529571533e-01,-1.421348750591278076e-01,-9.269164800643920898e-01,-1.520437151193618774e-01,2.533904612064361572e-01,8.528504520654678345e-03,1.198568008840084076e-02,7.170536518096923828e-01,1.279692947864532471e-01,9.276839345693588257e-02,-9.312246739864349365e-02,5.703071951866149902e-01,-1.228465080261230469e+00,7.706289887428283691e-01,-2.884882688522338867e-01,1.645866334438323975e-01,2.233028858900070190e-01,2.343846410512924194e-01,1.539985686540603638e-01,-2.494180053472518921e-01,1.346100926399230957e+00,5.421078801155090332e-01,-1.834711283445358276e-01,8.800008893013000488e-01,1.234822750091552734e+00,-1.225392103195190430e+00,8.301169872283935547e-01,4.415738582611083984e-01,1.439859271049499512e+00,7.113311886787414551e-01,-8.193005919456481934e-01,-1.683337092399597168e-01,7.721320390701293945e-01,2.643038928508758545e-01,4.582945704460144043e-01,1.106208562850952148e+00,-4.535442590713500977e-01,5.743395686149597168e-01,1.605530738830566406e+00,-5.028880238533020020e-01,-6.203880906105041504e-01,-1.578534245491027832e-01,-2.658617973327636719e+00,-7.128348946571350098e-01,4.546553194522857666e-01,4.349382519721984863e-01,4.971937537193298340e-01,-7.039750367403030396e-02,4.026082456111907959e-01,-1.040999770164489746e+00,-3.426537513732910156e-01,-6.307060718536376953e-01,9.894438385963439941e-01,5.419291257858276367e-01,-2.183642834424972534e-01,7.768889665603637695e-01,-4.888488948345184326e-01,4.463963210582733154e-01,6.398553252220153809e-01,3.020125925540924072e-01,2.332998365163803101e-01,9.214244037866592407e-02,9.264440089464187622e-02,5.163822174072265625e-01,-8.593155145645141602e-01,5.914277434349060059e-01,5.507804155349731445e-01,-7.869748026132583618e-02,-3.750982880592346191e-01,-4.074999690055847168e-01,-8.470212668180465698e-02,6.695517301559448242e-01,2.067327797412872314e-01,-2.403023242950439453e+00,1.681415915489196777e+00,5.155890583992004395e-01,5.309128016233444214e-02,-1.072140038013458252e-01,-2.849826216697692871e-01,3.746595084667205811e-01,1.846179813146591187e-01,5.299239754676818848e-01,-8.253098279237747192e-02,-1.320237636566162109e+00,-1.449525117874145508e+00,-8.222482800483703613e-01,-5.730749964714050293e-01,3.064632117748260498e-01,1.108215451240539551e+00,-3.691465556621551514e-01,-3.523033261299133301e-01,1.969101130962371826e-01,-2.730357646942138672e-01,1.846459507942199707e+00,-3.154801130294799805e-01,9.592474251985549927e-02,-4.844793379306793213e-01,9.581208825111389160e-01,-1.014566540718078613e+00,-2.593833506107330322e-01
1.280078738927841187e-01,1.328917145729064941e-01,3.643323108553886414e-02,-8.014214038848876953e-01,-2.040351152420043945e+00,6.471966207027435303e-02,-8.282383084297180176e-01,-2.084239244461059570e+00,1.058061793446540833e-01,7.394197583198547363e-01,1.340484380722045898e+00,7.543067932128906250e-01,-4.462329298257827759e-02,1.721281260251998901e-01,2.689999341964721680e-01,-2.553699910640716553e-01,-4.084510803222656250e-01,-2.856334686279296875e+00,-1.548344850540161133e+00,-4.389566928148269653e-02,2.845824360847473145e-01,-1.399427652359008789e-01,-2.330740243196487427e-01,1.760905832052230835e-01,-3.461482524871826172e-01,3.849371373653411865e-01,1.483316123485565186e-01,-6.859247088432312012e-01,-9.644988179206848145e-01,-1.113077282905578613e+00,-2.722787261009216309e-01,3.626613318920135498e-01,1.165450215339660645e+00,-1.052053049206733704e-01,1.585669279098510742e+00,-2.508391141891479492e-01,3.251833915710449219e-01,-9.830081462860107422e-02,1.046635434031486511e-01,-1.234479993581771851e-01,-5.383916497230529785e-01,1.375445604324340820e+00,-3.245550394058227539e-01,-2.097126282751560211e-02,3.397106528282165527e-01,1.123312786221504211e-01,-1.882129162549972534e-01,-2.191548109054565430e+00,-1.355394840240478516e+00,-7.966852188110351562e-02,-1.271141171455383301e-01,-1.703859269618988037e-01,-7.617350220680236816e-01,9.144906401634216309e-01,3.013593256473541260e-01,7.197387218475341797e-01,-3.423499464988708496e-01,-1.619917869567871094e+00,-1.028502583503723145e+00,6.638501882553100586e-01,4.255253076553344727e-01,-2.446334362030029297e-01,-7.254169583320617676e-01,-5.115237832069396973e-01,-8.200103640556335449e-01,8.143994212150573730e-01,1.324357628822326660e+00,-2.364762872457504272e-01,-1.559360742568969727e+00,6.127660274505615234e-01,-3.565083146095275879e-01,-8.713451772928237915e-02,-4.575754404067993164e-01,2.304847240447998047e-01,3.785296678543090820e-01,7.716500014066696167e-02,2.601837217807769775e-01,2.053899765014648438e+00,1.362854957580566406e+00,5.066362395882606506e-02,8.515682220458984375e-01,1.155248761177062988e+00,-1.102403521537780762e+00,5.387408658862113953e-02,-3.053469955921173096e-01,-7.828433513641357422e-01,-3.885347843170166016e-01,-2.809350490570068359e-01,-4.446211457252502441e-01,-1.316424012184143066e+00,-1.877464354038238525e-01,8.673182129859924316e-02,-7.208314538002014160e-02,7.176640629768371582e-01,-3.631568849086761475e-01,-1.618812799453735352e+00,-4.142059683799743652e-01,-5.095362663269042969e-01,-2.097479999065399170e-01,-1.085383743047714233e-01
5.951443314552307129e-01,3.741563856601715088e-01,2.887663841247558594e-01,-3.566740751266479492e-01,1.290193051099777222e-01,8.023626804351806641e-01,6.208686232566833496e-01,-6.962617039680480957e-01,2.062713950872421265e-01,8.479766845703125000e-01,-1.165072247385978699e-01,4.516564905643463135e-01,6.059086322784423828e-01,-6.090825200080871582e-01,5.710017085075378418e-01,-1.321896672248840332e+00,-8.195793628692626953e-01,-9.693480134010314941e-01,-1.042804941534996033e-01,3.237164616584777832e-01,-1.200846880674362183e-01,2.004377730190753937e-02,9.741711020469665527e-01,6.298683285713195801e-01,-3.259159326553344727e-01,-1.720222085714340210e-01,5.000559985637664795e-02,3.674377799034118652e-01,-1.115717530250549316e+00,-1.028217434883117676e+00,3.149991929531097412e-01,7.073491215705871582e-01,6.952367424964904785e-01,4.196038544178009033e-01,-5.061964392662048340e-01,7.646755576133728027e-01,-1.433399170637130737e-01,-9.841353297233581543e-01,-1.655842781066894531e+00,-2.814610302448272705e-01,9.756721258163452148e-01,-2.233152687549591064e-01,-2.597690224647521973e-01,-2.668475806713104248e-01,2.235781550407409668e-01,-1.499551415443420410e+00,-3.899337351322174072e-01,-2.978368103504180908e-01,5.619818568229675293e-01,5.429337024688720703e-01,-4.017879366874694824e-01,1.284050047397613525e-01,3.997121751308441162e-01,-1.074755191802978516e-01,3.176821172237396240e-01,4.985108971595764160e-01,6.403124332427978516e-01,-2.490640282630920410e-01,-1.604279875755310059e+00,6.671690344810485840e-01,1.188912630081176758e+00,9.149900823831558228e-02,8.274578452110290527e-01,-2.289399355649948120e-01,5.166406631469726562e-01,3.946954011917114258e-01,8.911441564559936523e-01,-9.204881787300109863e-01,-2.657165527343750000e+00,4.794275388121604919e-02,-3.560797572135925293e-01,2.485127449035644531e-01,7.651942223310470581e-02,-9.158449172973632812e-01,8.612221479415893555e-02,4.567390382289886475e-01,1.053932756185531616e-01,-2.258186191320419312e-01,2.414090186357498169e-01,6.503082513809204102e-01,-5.809443593025207520e-01,9.928083419799804688e-01,-2.873195335268974304e-02,6.869484186172485352e-01,-1.139088749885559082e+00,4.047284424304962158e-01,5.666871368885040283e-02,-1.323938965797424316e+00,7.558887600898742676e-01,2.785198688507080078e-01,-1.046452283859252930e+00,-4.144923388957977295e-01,-7.052601128816604614e-02,-2.375988960266113281e-01,-1.848366111516952515e-02,7.020789384841918945e-01,-6.992267966270446777e-01,-2.607094049453735352e-01,-1.825324177742004395e+00,8.221535086631774902e-01
2.426459044218063354e-01,-4.952180683612823486e-01,7.066532969474792480e-02,-3.531562630087137222e-03,7.298688888549804688e-01,2.723188400268554688e-01,-5.466294288635253906e-01,-2.577695846557617188e+00,-8.086597919464111328e-01,7.563166022300720215e-01,-4.940716922283172607e-02,1.503199934959411621e+00,-3.303003311157226562e-01,7.962706089019775391e-01,5.053250193595886230e-01,1.067149758338928223e+00,-6.181171536445617676e-01,5.406022667884826660e-01,-2.208305835723876953e+00,-4.874535501003265381e-01,3.688282966613769531e-01,-4.251772165298461914e-01,-3.904635459184646606e-02,6.436267495155334473e-01,2.418208867311477661e-01,-4.035092890262603760e-01,-6.186894178390502930e-01,-4.244945198297500610e-02,1.184442415833473206e-01,-1.845247000455856323e-01,-2.102861166000366211e+00,1.173853993415832520e+00,8.524491786956787109e-01,1.858073621988296509e-01,-1.001268386840820312e+00,3.965608179569244385e-01,7.694245576858520508e-01,-2.377137094736099243e-01,-1.618404239416122437e-01,2.692068219184875488e-01,1.015851378440856934e+00,-7.055305838584899902e-01,7.699969410896301270e-01,-2.828745543956756592e-01,1.774615406990051270e+00,-1.124084115028381348e+00,4.216411709785461426e-01,1.062125086784362793e+00,4.532830417156219482e-01,-1.921362876892089844e-01,-1.059866547584533691e+00,4.247380420565605164e-02,-1.650059580802917480e+00,3.904418349266052246e-01,8.201031088829040527e-01,5.525890588760375977e-01,7.074965238571166992e-01,-1.945416569709777832e+00,3.690116107463836670e-01,1.285689920186996460e-01,3.018021881580352783e-01,8.641697764396667480e-01,7.398442625999450684e-01,-1.319830417633056641e+00,-1.160752922296524048e-01,2.099913917481899261e-02,1.578396916389465332e+00,-2.892752885818481445e-01,-2.617766618728637695e+00,-1.925151646137237549e-01,-5.114230886101722717e-02,-2.170280069112777710e-01,-6.232542395591735840e-01,1.621459841728210449e+00,1.619268208742141724e-02,8.762346506118774414e-01,1.936151087284088135e-01,3.462491929531097412e-01,4.834215641021728516e-01,-1.200968027114868164e+00,-1.602845072746276855e+00,-2.464647591114044189e-01,-1.164682269096374512e+00,-2.648226022720336914e-01,-8.896226435899734497e-02,-4.709607958793640137e-01,-1.325355887413024902e+00,-3.177371621131896973e-01,6.210710406303405762e-01,3.007196784019470215e-01,4.778508543968200684e-01,8.915247917175292969e-01,4.278719127178192139e-01,1.325142860412597656e+00,1.108390450477600098e+00,-8.132954835891723633e-01,-6.820565462112426758e-01,5.383656620979309082e-01,6.502811610698699951e-02,-2.448694407939910889e-01
7.335549592971801758e-01,1.775886416435241699e+00,1.505870968103408813e-01,-7.885113358497619629e-01,9.189264476299285889e-02,1.740553259849548340e+00,-7.548938989639282227e-01,1.783623546361923218e-01,1.342916488647460938e-01,-1.761921048164367676e-01,4.402253925800323486e-01,7.762752175331115723e-01,-6.625004112720489502e-02,-1.299696445465087891e+00,4.010241925716400146e-01,2.355126850306987762e-02,3.154111802577972412e-01,1.781463474035263062e-01,6.762726306915283203e-01,1.149020075798034668e+00,1.063635826110839844e+00,-1.817721873521804810e-01,-1.565253853797912598e+00,-5.957950949668884277e-01,-7.514023780822753906e-02,-5.122537016868591309e-01,-7.571630924940109253e-02,-7.731806039810180664e-01,-1.429735124111175537e-01,-1.849524229764938354e-01,-9.179493188858032227e-01,-4.145086556673049927e-02,1.210524082183837891e+00,6.125889420509338379e-01,9.849290549755096436e-02,-5.473318099975585938e-01,3.918570876121520996e-01,5.043385624885559082e-01,-5.294230580329895020e-01,-6.875626444816589355e-01,-9.971148371696472168e-01,9.591844677925109863e-01,2.630519568920135498e-01,3.755647540092468262e-01,1.432193160057067871e+00,-4.530122280120849609e-01,6.108752489089965820e-01,-8.843997716903686523e-01,-4.873244464397430420e-01,-6.525974273681640625e-01,-2.392592281103134155e-01,-9.488139748573303223e-01,-4.614300727844238281e-01,-6.729690432548522949e-01,5.482799410820007324e-01,4.504505097866058350e-01,-5.120320916175842285e-01,-6.225460171699523926e-01,-8.317447304725646973e-01,-4.145664628595113754e-03,1.097376704216003418e+00,-2.992489561438560486e-02,2.943494729697704315e-02,-8.459642529487609863e-01,7.225612550973892212e-02,-3.594692349433898926e-01,9.095480442047119141e-01,-6.306874752044677734e-02,6.825488805770874023e-01,-1.695111542940139771e-01,-4.428117871284484863e-01,-4.574358835816383362e-02,-6.866003274917602539e-01,8.999475836753845215e-01,3.356092423200607300e-02,5.187877416610717773e-01,9.277130365371704102e-01,6.378848552703857422e-01,1.226611375808715820e+00,-7.484047859907150269e-02,1.324418187141418457e+00,7.275988813489675522e-03,-2.145487666130065918e-01,-2.080094516277313232e-01,1.594271278008818626e-03,-1.274375200271606445e+00,-2.817260622978210449e-01,-2.570666372776031494e-01,1.734184473752975464e-01,-1.245009660720825195e+00,-1.437181532382965088e-01,-1.294704556465148926e+00,1.720311194658279419e-01,3.556366562843322754e-01,-6.148195862770080566e-01,-4.682620167732238770e-01,-6.273298859596252441e-01,1.867400854825973511e-01,6.879296153783798218e-02,5.106399059295654297e-01
-3.392585515975952148e-01,-4.740288853645324707e-01,-3.212010860443115234e-02,9.392429143190383911e-02,-8.295947313308715820e-01,-8.522371053695678711e-01,7.840011715888977051e-01,2.408833652734756470e-01,1.332595944404602051e-01,5.597819685935974121e-01,-2.431774139404296875e+00,1.639095395803451538e-01,-8.634716868400573730e-01,4.024000093340873718e-02,8.243251442909240723e-01,-8.486768603324890137e-02,-2.307424068450927734e+00,-1.024276852607727051e+00,2.135296314954757690e-01,8.110592961311340332e-01,1.514459848403930664e+00,1.578984856605529785e-01,1.310976386070251465e+00,-1.825331211090087891e+00,2.395132184028625488e-01,1.026079058647155762e+00,5.121927261352539062e-01,-8.427556753158569336e-01,4.685355424880981445e-01,1.783028364181518555e+00,-3.007199168205261230e-01,-8.670724034309387207e-01,6.208307743072509766e-01,3.074910640716552734e-01,-2.070290297269821167e-01,-1.660578608512878418e+00,2.589345574378967285e-01,-4.354147315025329590e-01,-2.169536203145980835e-01,5.081509351730346680e-01,-3.988067507743835449e-01,-1.027294874191284180e+00,1.589018464088439941e+00,-2.850707620382308960e-02,1.021405935287475586e+00,5.565078929066658020e-02,7.325577735900878906e-01,-7.486418485641479492e-01,1.429145187139511108e-01,-1.494708508253097534e-01,1.735619068145751953e+00,3.164938390254974365e-01,1.394927263259887695e+00,-1.076715439558029175e-02,1.693464159965515137e+00,8.751953244209289551e-01,-2.673267722129821777e-01,6.215686798095703125e-01,1.435816645622253418e+00,1.495238095521926880e-01,-4.072475135326385498e-01,9.206312894821166992e-01,-2.151753604412078857e-01,5.719922110438346863e-02,3.873604536056518555e-01,7.605155706405639648e-01,1.781900167465209961e+00,1.061629652976989746e+00,2.019089162349700928e-01,-6.351088881492614746e-01,-2.019126415252685547e-01,-3.159886458888649940e-03,8.454978466033935547e-01,1.242311596870422363e+00,7.154231667518615723e-01,-2.669923007488250732e-01,1.133813619613647461e+00,1.873672157526016235e-01,2.583784461021423340e-01,8.375009894371032715e-01,1.852549463510513306e-01,2.722438871860504150e-01,1.575969696044921875e+00,8.409428000450134277e-01,-3.028381168842315674e-01,8.066084980964660645e-01,1.404688715934753418e+00,-8.305108547210693359e-01,7.976485043764114380e-02,-1.279242992401123047e+00,-3.313643634319305420e-01,-2.787234187126159668e-01,-2.286128327250480652e-02,1.193653345108032227e-01,-8.689142018556594849e-02,-2.636249363422393799e-01,9.337224364280700684e-01,6.782476305961608887e-01,-1.894339442253112793e+00,4.361361563205718994e-01
-1.376731395721435547e+00,3.288632035255432129e-01,-1.161680594086647034e-01,7.301281690597534180e-01,-2.701885461807250977e+00,7.547101974487304688e-01,2.869655489921569824e-01,1.924823373556137085e-01,-2.412697821855545044e-01,-1.517924815416336060e-01,8.821073919534683228e-02,2.841473221778869629e-01,-1.042345404624938965e+00,1.291895806789398193e-01,3.957460522651672363e-01,-6.864300966262817383e-01,5.315827131271362305e-01,3.089806437492370605e-01,5.908947587013244629e-01,5.642610788345336914e-02,-3.248361051082611084e-01,9.922769665718078613e-01,2.550509870052337646e-01,-6.257817745208740234e-01,1.893324136734008789e+00,-1.936328172683715820e+00,1.972826868295669556e-01,-2.561568319797515869e-01,4.548769295215606689e-01,-2.634662091732025146e-01,-5.356962680816650391e-01,5.854387879371643066e-01,4.428936541080474854e-01,2.405836105346679688e+00,3.835408687591552734e-01,1.187047213315963745e-01,1.933408826589584351e-01,-1.640451312065124512e+00,-3.329218924045562744e-01,8.483039587736129761e-02,1.323218643665313721e-01,2.969015538692474365e-01,8.140289783477783203e-01,5.567823071032762527e-03,3.946008682250976562e-01,-1.601721346378326416e-01,-8.351685106754302979e-02,-1.812430322170257568e-01,9.163595438003540039e-01,-1.432121634483337402e+00,-1.387591242790222168e+00,2.700895965099334717e-01,-5.491769686341285706e-02,1.924708038568496704e-01,1.682019591331481934e+00,1.819590926170349121e-01,-6.402555108070373535e-01,5.473322272300720215e-01,-2.138190120458602905e-01,1.314272433519363403e-01,-6.069242358207702637e-01,-4.154269695281982422e-01,-4.246955215930938721e-01,-7.985058426856994629e-01,2.854580581188201904e-01,8.245498538017272949e-01,-3.473394811153411865e-01,-3.170854151248931885e-01,9.272972941398620605e-01,1.279343247413635254e+00,9.519712328910827637e-01,-2.053955078125000000e+00,-6.722825765609741211e-01,2.799391746520996094e-01,5.211636424064636230e-01,1.553377509117126465e-01,-7.396214604377746582e-01,4.596109092235565186e-01,-2.357093393802642822e-01,2.234451174736022949e-01,5.041818618774414062e-01,-3.842656612396240234e-01,6.977886557579040527e-01,1.008243918418884277e+00,4.760212600231170654e-01,-7.784333825111389160e-01,3.842652440071105957e-01,-4.800823926925659180e-01,-3.891558051109313965e-01,5.355297923088073730e-01,-9.685685634613037109e-01,-2.026870399713516235e-01,6.605578064918518066e-01,-9.618209674954414368e-03,8.295285701751708984e-01,3.340598344802856445e-01,-1.168537735939025879e+00,-3.453708589076995850e-01,2.171369045972824097e-01,1.846140474081039429e-01
7.344680428504943848e-01,-5.940592288970947266e-01,-4.424702525138854980e-01,6.662197411060333252e-02,6.095617413520812988e-01,5.375773310661315918e-01,6.101315617561340332e-01,-3.152911067008972168e-01,-1.263550519943237305e-01,8.748527765274047852e-01,1.225120782852172852e+00,5.768057107925415039e-01,-2.131718583405017853e-02,8.338518142700195312e-01,7.821486890316009521e-02,3.777829110622406006e-01,-9.478425979614257812e-02,2.792244553565979004e-01,-2.812904715538024902e-01,-3.252101838588714600e-01,7.023131847381591797e-01,3.880265355110168457e-01,-1.591289401054382324e+00,-1.145732283592224121e+00,1.433819413185119629e+00,3.555938899517059326e-01,1.350351423025131226e-02,4.701644480228424072e-01,8.079060912132263184e-01,-4.296066164970397949e-01,1.850802153348922729e-01,1.828513890504837036e-01,-5.725597217679023743e-02,-8.638084530830383301e-01,-7.206053286790847778e-02,-1.672657579183578491e-01,-5.072953552007675171e-02,1.846102774143218994e-01,-3.044894337654113770e-02,5.332893133163452148e-01,1.608759164810180664e+00,7.887248992919921875e-01,-7.935422658920288086e-01,-8.572141528129577637e-01,-8.816675096750259399e-02,-3.758637905120849609e-01,9.396043419837951660e-01,2.260216623544692993e-01,5.408443808555603027e-01,-5.637512207031250000e-01,-4.708472266793251038e-02,1.048296213150024414e+00,3.056105375289916992e-01,5.747805815190076828e-03,6.587658822536468506e-02,-7.432138323783874512e-01,-5.222982168197631836e-01,-5.124982595443725586e-01,-9.897693991661071777e-01,4.618909955024719238e-01,-1.903721690177917480e+00,3.778031170368194580e-01,3.768001124262809753e-02,2.445068657398223877e-01,3.690064549446105957e-01,-1.046404018998146057e-01,8.560461997985839844e-01,-2.473265379667282104e-01,-9.090793132781982422e-01,-5.760751366615295410e-01,-5.042195916175842285e-01,-7.332230210304260254e-01,-1.045231103897094727e+00,-7.390065789222717285e-01,-3.864091336727142334e-01,4.712759256362915039e-01,-5.840529203414916992e-01,-2.560491561889648438e-01,5.141090154647827148e-01,2.564685046672821045e-01,3.213787823915481567e-02,-2.203731834888458252e-01,7.535805702209472656e-01,7.493399381637573242e-01,4.531161859631538391e-03,3.346761763095855713e-01,7.076307535171508789e-01,-7.642432451248168945e-01,-5.992137640714645386e-02,-1.057272672653198242e+00,-1.057120680809020996e+00,1.404327630996704102e+00,-3.343697190284729004e-01,2.059791982173919678e-01,1.617030262947082520e+00,5.000772699713706970e-02,4.505076706409454346e-01,5.506658181548118591e-02,2.029960304498672485e-01,6.747603416442871094e-01
-1.085695385932922363e+00,2.522785663604736328e-01,-3.509987145662307739e-02,-9.035525918006896973e-01,1.119019687175750732e-01,6.515095829963684082e-01,2.908646762371063232e-01,5.881927013397216797e-01,-1.168803930282592773e+00,7.604398131370544434e-01,1.744986623525619507e-01,3.782332539558410645e-01,-2.120774030685424805e+00,4.407739341259002686e-01,1.115912720561027527e-01,9.270443767309188843e-02,-5.404443144798278809e-01,-9.984999299049377441e-01,1.477391958236694336e+00,8.634026646614074707e-01,2.765010595321655273e-01,-1.738825440406799316e-01,7.003811597824096680e-01,9.958642721176147461e-01,3.092958331108093262e-01,-3.164234757423400879e-01,-9.323799014091491699e-01,-1.645395532250404358e-02,-5.713304281234741211e-01,1.510088890790939331e-01,-3.566317260265350342e-01,-1.677369117736816406e+00,1.580623686313629150e-01,5.019791126251220703e-01,2.959622144699096680e-01,-3.335379362106323242e-01,-5.879684686660766602e-01,-1.600837409496307373e-01,1.198364853858947754e+00,-2.504187822341918945e-01,7.048250734806060791e-02,9.747641533613204956e-02,1.659368909895420074e-02,4.544716179370880127e-01,4.920282959938049316e-01,-6.266767382621765137e-01,8.870639204978942871e-01,-3.930110037326812744e-01,2.591387331485748291e-01,-9.831096231937408447e-02,-2.101464509963989258e+00,-6.653087139129638672e-01,3.442328274250030518e-01,5.622006207704544067e-02,-1.160671353340148926e+00,-3.398041427135467529e-01,-8.890448212623596191e-01,6.263547539710998535e-01,8.940652757883071899e-02,4.174463450908660889e-01,-1.126590013504028320e+00,-2.429333031177520752e-01,4.590855166316032410e-02,1.733952164649963379e+00,-1.529456853866577148e+00,2.517224252223968506e-01,7.148008793592453003e-02,-1.312183618545532227e+00,4.333764314651489258e-01,-7.525280863046646118e-02,-1.020849347114562988e+00,-1.458614617586135864e-01,5.792827606201171875e-01,7.750960439443588257e-02,2.581260800361633301e-01,5.533725023269653320e-01,-6.619287133216857910e-01,4.038631618022918701e-01,2.546937465667724609e-01,4.091373383998870850e-01,4.097107052803039551e-01,8.294017910957336426e-01,9.289784729480743408e-02,7.170774936676025391e-01,-1.375313758850097656e+00,1.175673842430114746e+00,4.271637499332427979e-01,5.350449085235595703e-01,1.279168725013732910e+00,-4.890586063265800476e-02,-1.320508599281311035e+00,-1.143394112586975098e+00,6.525806784629821777e-01,7.486145496368408203e-01,5.796359777450561523e-01,5.359102487564086914e-01,-8.036128878593444824e-01,8.503785133361816406e-01,3.998575508594512939e-01,5.566220283508300781e-01
-4.334743320941925049e-02,-2.318316221237182617e+00,-1.379226684570312500e+00,-1.428279161453247070e+00,1.988156586885452271e-01,6.276092529296875000e-01,4.159413874149322510e-01,-3.322389423847198486e-01,5.186801552772521973e-01,1.120012760162353516e+00,5.913023948669433594e-01,9.375986456871032715e-01,-6.107532978057861328e-01,3.616710305213928223e-01,2.114875912666320801e-01,3.278651237487792969e-01,-2.950809717178344727e+00,7.106711864471435547e-01,-2.107924699783325195e+00,4.515176638960838318e-02,-1.353333890438079834e-01,-3.235787898302078247e-02,1.055727839469909668e+00,8.000533580780029297e-01,-6.089145541191101074e-01,8.895125240087509155e-03,-5.604204535484313965e-01,-6.231979727745056152e-01,1.086576461791992188e+00,-2.313778162002563477e+00,-7.817204594612121582e-01,-7.999817132949829102e-01,5.648465156555175781e-01,-1.612589359283447266e-01,1.219668745994567871e+00,-8.368056416511535645e-01,2.401473224163055420e-01,6.975980401039123535e-01,2.101831912994384766e+00,2.254860252141952515e-01,-1.533738821744918823e-01,3.138081133365631104e-01,-7.900232076644897461e-02,-2.029320746660232544e-01,9.851807355880737305e-01,-5.314923450350761414e-02,8.674454092979431152e-01,1.052593827247619629e+00,-4.014106392860412598e-01,1.162068009376525879e+00,4.036317393183708191e-02,1.438609719276428223e+00,-1.962764739990234375e+00,1.685987114906311035e+00,2.705314755439758301e-01,2.379041910171508789e-01,6.886038184165954590e-02,-1.717507123947143555e+00,6.926540732383728027e-01,3.865866363048553467e-01,2.889361679553985596e-01,5.091235041618347168e-01,-8.217816948890686035e-01,-2.083634883165359497e-01,-6.486309170722961426e-01,1.229508996009826660e+00,4.389766752719879150e-01,-3.501865565776824951e-01,5.986037477850914001e-02,9.980855584144592285e-01,-6.288306713104248047e-01,1.018165349960327148e+00,-5.207061767578125000e-01,5.927853584289550781e-01,8.405498862266540527e-01,1.147325396537780762e+00,1.149385213851928711e+00,-1.406924426555633545e-01,4.635631740093231201e-01,5.490980744361877441e-01,-3.964296877384185791e-01,-6.918537616729736328e-02,1.058364868164062500e+00,3.137704432010650635e-01,-5.095238089561462402e-01,-3.133684396743774414e-01,1.365783929824829102e+00,-1.286563873291015625e-01,8.992450833320617676e-01,5.086293071508407593e-02,-1.100405573844909668e+00,5.882071852684020996e-01,4.360483884811401367e-01,9.453983604907989502e-02,1.827406406402587891e+00,-1.080763697624206543e+00,-3.915241062641143799e-01,1.000173687934875488e+00,2.519765198230743408e-01,2.467771172523498535e-01
-9.441074728965759277e-01,-5.038992166519165039e-01,-2.275474309921264648e+00,2.143397480249404907e-01,-6.796524673700332642e-02,3.552103042602539062e-01,1.250315070152282715e+00,5.584257245063781738e-01,-1.344967931509017944e-01,4.623327255249023438e-01,8.413350582122802734e-01,1.861750707030296326e-02,-3.268919512629508972e-02,-1.017779186367988586e-01,-3.267548084259033203e-01,-2.534972727298736572e-01,-3.061073720455169678e-01,6.850795745849609375e-01,2.381877005100250244e-01,4.064703583717346191e-01,3.943763375282287598e-01,-9.336657524108886719e-01,4.832932651042938232e-01,8.204002976417541504e-01,-1.879431903362274170e-01,-1.421095490455627441e+00,6.821602582931518555e-02,7.332940101623535156e-01,-6.101297140121459961e-01,5.970953702926635742e-01,5.211535692214965820e-01,-7.906932234764099121e-01,-1.816015690565109253e-01,5.557336807250976562e-01,6.244569420814514160e-01,-4.263022840023040771e-01,2.530683279037475586e-01,7.148379087448120117e-02,9.230524897575378418e-01,-2.549292147159576416e-01,-2.591283321380615234e-01,-3.042824268341064453e-01,-1.706916451454162598e+00,-4.391215145587921143e-01,7.389174103736877441e-01,2.978169023990631104e-01,3.115607202053070068e-01,-3.905235826969146729e-01,2.686735689640045166e-01,-1.275538682937622070e+00,1.787835508584976196e-01,-5.584528297185897827e-02,2.810996472835540771e-01,2.809329926967620850e-01,-4.486798346042633057e-01,-3.001091480255126953e-01,1.123638823628425598e-01,-1.901643514633178711e+00,1.308796256780624390e-01,-1.878030449151992798e-01,1.123062670230865479e-01,7.320067286491394043e-02,-2.149617820978164673e-01,1.155343532562255859e+00,3.670243173837661743e-02,1.178529143333435059e+00,-1.522710472345352173e-01,2.173758447170257568e-01,2.895227968692779541e-01,3.104774951934814453e-01,-2.171683311462402344e+00,1.029447436332702637e+00,1.961249858140945435e-01,7.678294777870178223e-01,-3.425839245319366455e-01,7.718154788017272949e-01,6.831758022308349609e-01,2.466643452644348145e-01,-2.580763772130012512e-02,-3.870776593685150146e-01,2.616432607173919678e-01,5.893132463097572327e-02,-4.729858040809631348e-01,-5.374883413314819336e-01,-7.317277789115905762e-01,-1.054273962974548340e+00,1.291239410638809204e-01,3.679074347019195557e-01,1.093342423439025879e+00,-5.848748683929443359e-01,1.695261359214782715e+00,-6.024015545845031738e-01,1.078960180282592773e+00,1.816162586212158203e+00,-5.441220998764038086e-01,2.552163004875183105e-01,1.969248056411743164e-01,9.844032526016235352e-01,2.565543055534362793e-01,2.381999939680099487e-01
-7.650986313819885254e-01,2.998530268669128418e-01,2.576250731945037842e-01,-4.529683887958526611e-01,1.910200566053390503e-01,-1.230857610702514648e+00,-1.746122360229492188e+00,-1.507293581962585449e+00,1.057587146759033203e+00,5.370199680328369141e-01,-7.314270734786987305e-01,1.145573854446411133e+00,3.312886953353881836e-01,1.078251600265502930e+00,-6.048567295074462891e-01,-7.581207156181335449e-01,1.089223265647888184e+00,1.137557148933410645e+00,7.677171230316162109e-01,5.030291676521301270e-01,-1.648229509592056274e-01,7.354548573493957520e-01,1.093299508094787598e+00,2.398117929697036743e-01,9.600663185119628906e-01,-7.112115025520324707e-01,-8.724682927131652832e-01,5.575386881828308105e-01,-6.478933691978454590e-01,3.428743183612823486e-01,7.189441472291946411e-02,9.006718993186950684e-01,1.125055909156799316e+00,9.910993576049804688e-01,1.211185753345489502e-01,1.987232565879821777e-01,-1.311300873756408691e+00,-1.723630309104919434e+00,3.984837532043457031e-01,-1.745249927043914795e-01,4.301503300666809082e-01,9.937229752540588379e-02,-6.768372654914855957e-01,5.746864676475524902e-01,8.192888498306274414e-01,-9.610705375671386719e-01,5.226348042488098145e-01,1.901917815208435059e+00,-2.182876110076904297e+00,-1.477841436862945557e-01,-6.891039013862609863e-01,1.326667815446853638e-01,6.901296377182006836e-01,-2.235323041677474976e-01,-4.007844924926757812e-01,5.171658396720886230e-01,-1.817559301853179932e-01,6.921011805534362793e-01,4.307666122913360596e-01,4.043138325214385986e-01,-1.103147029876708984e+00,2.478796541690826416e-01,-3.885852694511413574e-01,1.408656239509582520e-01,4.780238568782806396e-01,1.953425705432891846e-01,-5.529174953699111938e-02,2.691285610198974609e-01,-6.109030544757843018e-02,-1.140130758285522461e+00,-1.445061326026916504e+00,2.728933990001678467e-01,4.194250404834747314e-01,3.495744466781616211e-01,-3.022193349897861481e-02,-5.404257029294967651e-02,-1.142112731933593750e+00,3.770412206649780273e-01,6.667810678482055664e-01,1.051359772682189941e+00,-6.792207956314086914e-01,-8.542257547378540039e-01,-2.305794954299926758e-01,-2.718629240989685059e-01,7.258047461509704590e-01,8.140166997909545898e-01,1.686959743499755859e+00,2.033114433288574219e-01,7.928857207298278809e-02,1.419274508953094482e-01,5.685568228363990784e-02,6.823005527257919312e-02,6.346532106399536133e-01,7.053553462028503418e-01,-7.472971677780151367e-01,-3.237823545932769775e-01,-8.416486382484436035e-01,-1.198969721794128418e+00,6.619609892368316650e-02,-3.991127759218215942e-02
4.816009998321533203e-01,-7.613649964332580566e-01,-5.558926463127136230e-01,6.823124289512634277e-01,-8.165605664253234863e-01,5.176912546157836914e-01,7.005262970924377441e-01,4.225777387619018555e-01,1.378984212875366211e+00,3.865063488483428955e-01,2.651740610599517822e-01,2.238205522298812866e-01,-1.611129522323608398e+00,8.412497043609619141e-01,-3.104856014251708984e-01,3.814901113510131836e-01,-1.586744070053100586e+00,7.009490132331848145e-01,-3.155102968215942383e+00,9.230490326881408691e-01,-2.046058028936386108e-01,7.625325322151184082e-01,-7.650632262229919434e-01,7.854204773902893066e-01,6.911546587944030762e-01,4.498666524887084961e-02,-5.625946819782257080e-02,4.389967322349548340e-01,-1.658901691436767578e+00,3.689669668674468994e-01,9.061546921730041504e-01,1.184412837028503418e+00,1.179675221443176270e+00,-3.130083205178380013e-04,6.960228681564331055e-01,-1.146324425935745239e-01,4.126718044281005859e-01,-5.668307095766067505e-02,3.566990047693252563e-02,3.362749516963958740e-01,9.253132939338684082e-01,4.642211198806762695e-01,-6.253449320793151855e-01,1.429609417915344238e+00,-1.970139145851135254e-02,-8.294163346290588379e-01,-4.588226974010467529e-02,-5.088407993316650391e-01,5.613163709640502930e-01,8.297135829925537109e-01,-1.377385139465332031e+00,1.063045978546142578e+00,4.156631529331207275e-01,-4.578825086355209351e-02,-1.357757896184921265e-01,-6.608084440231323242e-01,4.960362315177917480e-01,-3.755440115928649902e-01,-1.365314960479736328e+00,6.931366771459579468e-02,-8.879429697990417480e-01,5.421428680419921875e-01,-6.445392370223999023e-01,7.715589404106140137e-01,8.327622413635253906e-01,4.272011220455169678e-01,3.670885562896728516e-01,1.382875919342041016e+00,-7.278493046760559082e-02,-5.369185209274291992e-01,6.975347399711608887e-01,1.387183904647827148e+00,-1.353258967399597168e+00,-1.076294660568237305e+00,1.543785333633422852e-01,4.385213851928710938e-01,-4.541343823075294495e-02,1.081103563308715820e+00,-9.332956075668334961e-01,8.460623025894165039e-01,1.049799799919128418e+00,5.147238373756408691e-01,8.098559379577636719e-01,-8.045457005500793457e-01,5.950203537940979004e-01,-1.857894361019134521e-01,1.105895757675170898e+00,-1.472491621971130371e+00,-3.296648740768432617e+00,-3.259106278419494629e-01,-2.004253625869750977e+00,4.582159221172332764e-01,-2.582161426544189453e-01,1.606855034828186035e+00,8.209277391433715820e-01,2.520098686218261719e-01,-8.390073180198669434e-01,-1.489636301994323730e-01,-2.115858316421508789e+00,-1.996069103479385376e-01
-7.157204747200012207e-01,3.696465194225311279e-01,5.101491808891296387e-01,2.080399245023727417e-01,-3.447200953960418701e-01,-1.117261767387390137e+00,1.166758775711059570e+00,4.631783068180084229e-01,-3.010945022106170654e-01,-6.341069005429744720e-03,-2.934339046478271484e-01,-4.219484031200408936e-01,6.828969717025756836e-02,-4.176367223262786865e-01,-1.277325391769409180e+00,2.189047932624816895e-01,-4.588054716587066650e-01,1.365154862403869629e+00,-7.937393337488174438e-02,1.476678848266601562e-01,-4.449733719229698181e-02,5.272042155265808105e-01,-1.927359998226165771e-01,-1.254728913307189941e+00,5.812088027596473694e-02,-5.932313799858093262e-01,-5.958161950111389160e-01,1.129974842071533203e+00,-1.860866785049438477e+00,1.056932210922241211e+00,3.621195256710052490e-01,-3.366660773754119873e-01,-3.065348863601684570e-01,-3.630095124244689941e-01,1.145611524581909180e+00,2.449326813220977783e-01,1.201553940773010254e+00,1.104455113410949707e+00,-7.106618881225585938e-01,8.262910246849060059e-01,-3.477455973625183105e-01,2.933855950832366943e-01,-1.422296881675720215e+00,3.699450790882110596e-01,1.238965153694152832e+00,-7.134632468223571777e-01,5.346424579620361328e-01,-3.243787288665771484e-01,2.781241834163665771e-01,-4.124661684036254883e-01,6.918933987617492676e-01,6.418752074241638184e-01,-4.775016903877258301e-01,8.556842803955078125e-02,-5.609963536262512207e-01,-7.970442175865173340e-01,-6.735733747482299805e-01,1.294045448303222656e+00,-1.208646655082702637e+00,4.325845837593078613e-02,-3.421962261199951172e-01,2.501331642270088196e-02,-5.240460634231567383e-01,-1.373288482427597046e-01,3.829995542764663696e-02,1.542155146598815918e-01,9.688182920217514038e-02,1.475766181945800781e+00,-7.852409034967422485e-02,-2.182876169681549072e-01,-4.069210886955261230e-01,-5.382346510887145996e-01,1.261142790317535400e-01,4.461725652217864990e-01,-6.539447307586669922e-01,2.741522789001464844e-01,-1.288420055061578751e-03,-2.956530079245567322e-02,3.275844752788543701e-01,8.426042199134826660e-01,-1.277469992637634277e-01,1.871849745512008667e-01,4.174792468547821045e-01,-2.976638972759246826e-01,9.957568049430847168e-01,-1.242116168141365051e-01,1.391177892684936523e+00,-8.871365189552307129e-01,-1.207816898822784424e-01,-2.152855098247528076e-01,-1.362981677055358887e+00,-6.505190134048461914e-01,3.275595903396606445e-01,1.571983218193054199e+00,7.479040026664733887e-01,4.146123826503753662e-01,-4.492661356925964355e-01,7.318359017372131348e-01,5.405741930007934570e-01,1.015892028808593750e+00
-3.406440913677215576e-01,6.996598839759826660e-01,-3.409749865531921387e-01,5.625738948583602905e-02,6.998670697212219238e-01,-5.195425823330879211e-02,1.906843036413192749e-01,-2.781680345535278320e+00,-1.141355276107788086e+00,3.855126798152923584e-01,-1.350141525268554688e+00,5.463483333587646484e-01,3.972272574901580811e-01,5.843272805213928223e-01,-3.838787972927093506e-01,5.530785322189331055e-01,-5.213605612516403198e-02,-2.917486727237701416e-01,-5.304812192916870117e-01,6.203519701957702637e-01,3.157949149608612061e-01,-7.687946408987045288e-02,-3.321155905723571777e-01,-1.629617437720298767e-02,8.200423717498779297e-01,6.183307152241468430e-03,-8.730158209800720215e-01,-9.007251262664794922e-02,-6.936071515083312988e-01,2.400510162115097046e-01,-1.652037739753723145e+00,-2.172401994466781616e-01,7.789893746376037598e-01,1.081358194351196289e+00,2.438895255327224731e-01,-6.466860175132751465e-01,1.620551347732543945e-01,1.010132789611816406e+00,-2.005584090948104858e-01,-1.684929281473159790e-01,6.032705307006835938e-01,1.334341466426849365e-01,-7.879700064659118652e-01,1.372761726379394531e+00,3.408453166484832764e-01,6.184290647506713867e-01,1.594289898872375488e+00,-7.690098285675048828e-01,-1.814967155456542969e+00,-1.780445873737335205e-01,5.156121850013732910e-01,5.094470977783203125e-01,-1.461503863334655762e+00,-1.132081985473632812e+00,-4.830009937286376953e-01,-3.318912088871002197e-01,1.550731778144836426e+00,9.336063861846923828e-01,1.441717296838760376e-01,7.346638441085815430e-01,-1.086093902587890625e+00,7.816212773323059082e-01,-1.721025109291076660e+00,5.789183378219604492e-01,-1.305479407310485840e+00,1.215841650962829590e+00,-1.848468780517578125e-01,-2.029749304056167603e-01,-2.958049476146697998e-01,-1.121074795722961426e+00,-2.215997457504272461e+00,6.722424030303955078e-01,3.520220890641212463e-02,2.160186879336833954e-02,-1.071335196495056152e+00,4.023593068122863770e-01,1.374669522047042847e-01,4.785578846931457520e-01,9.925689101219177246e-01,7.136952877044677734e-01,1.717448979616165161e-02,-1.822834968566894531e+00,1.637849062681198120e-01,-2.401129007339477539e-01,6.081917285919189453e-01,1.616981029510498047e-01,-3.761735856533050537e-01,-3.983788192272186279e-01,-1.607962012290954590e+00,-1.390493273735046387e+00,1.353951394557952881e-01,3.823041617870330811e-01,7.472399473190307617e-01,7.142919301986694336e-01,-5.140230059623718262e-01,-1.169276237487792969e+00,7.167742252349853516e-01,9.509469270706176758e-01,7.830059528350830078e-01,5.735749006271362305e-02
-2.157541662454605103e-01,1.630130857229232788e-01,-9.191731810569763184e-01,-2.081234753131866455e-01,-8.060767054557800293e-01,1.727144718170166016e+00,3.580598533153533936e-01,3.229356110095977783e-01,1.355063676834106445e+00,4.198003411293029785e-01,-1.205925464630126953e+00,-1.111490577459335327e-01,-7.961276173591613770e-01,1.320662856101989746e+00,-1.281123161315917969e+00,8.465160727500915527e-01,-2.618065834045410156e+00,-2.252593517303466797e+00,1.412302494049072266e+00,4.904236495494842529e-01,-1.140609145164489746e+00,-2.467322051525115967e-01,-5.525959134101867676e-01,-3.622369170188903809e-01,1.659427881240844727e-01,-9.471891075372695923e-02,1.705969572067260742e-01,1.064694002270698547e-01,1.344386219978332520e+00,-2.926126420497894287e-01,5.454783439636230469e-01,5.922770500183105469e-01,1.221905350685119629e-01,-8.410026431083679199e-01,3.455649614334106445e-01,1.083192944526672363e+00,6.629472374916076660e-01,-1.623648554086685181e-01,4.887685179710388184e-02,-7.328137159347534180e-01,6.384165287017822266e-01,-3.547462224960327148e-01,3.957045450806617737e-02,1.301089078187942505e-01,7.596160173416137695e-01,-1.660714745521545410e+00,-1.267486810684204102e-01,-7.749941945075988770e-01,8.930326253175735474e-02,-8.349683880805969238e-01,-5.713551044464111328e-01,5.025963783264160156e-01,-1.301825344562530518e-01,-1.239226683974266052e-01,5.024362802505493164e-01,-8.090651035308837891e-01,2.011395841836929321e-01,7.021087408065795898e-01,2.561294734477996826e-01,4.821868240833282471e-01,6.517891287803649902e-01,2.810428440570831299e-01,-8.675264716148376465e-01,8.887348175048828125e-01,-7.739834189414978027e-01,2.705573439598083496e-01,5.129036307334899902e-02,1.008990883827209473e+00,7.105349302291870117e-01,4.769868776202201843e-02,6.223598867654800415e-02,4.665542840957641602e-01,-1.904982089996337891e+00,3.180403709411621094e-01,-9.673669934272766113e-01,1.176016211509704590e+00,6.201139688491821289e-01,1.507415026426315308e-01,1.268208026885986328e-01,3.586162626743316650e-01,-3.540238142013549805e-01,6.937295198440551758e-01,-1.444948673248291016e+00,6.556974053382873535e-01,-6.415385603904724121e-01,-6.332114338874816895e-01,-1.459744572639465332e+00,1.385080814361572266e+00,3.783707022666931152e-01,-2.387917518615722656e+00,-1.911716163158416748e-01,1.227866172790527344e+00,1.112410664558410645e+00,1.187555789947509766e+00,-6.517832279205322266e-01,3.669282793998718262e-01,4.989185333251953125e-01,7.079108804464340210e-02,6.092063784599304199e-01,7.778144478797912598e-01
-9.388634003698825836e-03,-1.360796242952346802e-01,4.607316851615905762e-01,-2.118843555450439453e+00,5.569726824760437012e-01,-2.502826154232025146e-01,-7.340911626815795898e-01,-2.931758642196655273e+00,-8.298280835151672363e-01,1.468381285667419434e-01,7.818050384521484375e-01,4.592860639095306396e-01,4.762897491455078125e-01,-4.295401871204376221e-01,1.372038125991821289e+00,-5.331572890281677246e-01,-6.520391907542943954e-03,5.465340986847877502e-02,1.744160652160644531e-01,-6.650248169898986816e-01,-1.772564500570297241e-01,-1.772312998771667480e+00,1.698357164859771729e-01,9.300606846809387207e-01,5.221656560897827148e-01,-5.028071403503417969e-01,-5.922077894210815430e-01,-1.736670851707458496e+00,8.180816769599914551e-01,-5.132769346237182617e-01,-2.836218476295471191e-01,6.008378863334655762e-01,1.234784483909606934e+00,4.140548110008239746e-01,3.709573356900364161e-04,-4.093760848045349121e-01,3.937958776950836182e-01,-2.626217305660247803e-01,-1.499367237091064453e+00,2.427303493022918701e-01,-8.470732718706130981e-02,8.509091138839721680e-01,8.761238455772399902e-01,4.376567602157592773e-01,6.738696098327636719e-01,-4.341604709625244141e-01,4.836662113666534424e-01,-1.634859442710876465e+00,-4.104775190353393555e-02,-7.497484236955642700e-02,-6.786414980888366699e-01,5.308848619461059570e-01,7.850577682256698608e-02,-6.959338784217834473e-01,6.992568373680114746e-01,-6.713672280311584473e-01,3.946262001991271973e-01,6.418366432189941406e-01,2.283225506544113159e-01,6.034781932830810547e-01,-9.740554094314575195e-01,3.148215413093566895e-01,-6.909506320953369141e-01,3.239931762218475342e-01,-2.166356295347213745e-01,6.726450324058532715e-01,4.090346395969390869e-01,1.334777623414993286e-01,-7.268248796463012695e-01,-5.309849381446838379e-01,-1.500285625457763672e+00,6.752001047134399414e-01,-1.121456265449523926e+00,6.663414239883422852e-01,-3.105571679770946503e-02,-2.112513929605484009e-01,1.063071250915527344e+00,1.236505866050720215e+00,4.477736055850982666e-01,-9.614148139953613281e-01,1.154510021209716797e+00,8.859093785285949707e-01,-2.198269516229629517e-01,-1.570743173360824585e-01,1.262418031692504883e+00,-2.005413293838500977e+00,2.417002320289611816e-01,4.729175567626953125e-01,-3.130704760551452637e-01,-5.546453874558210373e-03,3.053995072841644287e-01,2.458572089672088623e-01,1.339035928249359131e-01,1.290664315223693848e+00,-5.288145504891872406e-03,-8.373246192932128906e-01,3.684674203395843506e-01,-1.235617280006408691e+00,-4.451522529125213623e-01,-7.373369336128234863e-01
-8.476572036743164062e-01,-2.288626283407211304e-01,2.588612586259841919e-02,2.343643903732299805e-01,3.361103534698486328e-01,-4.100117087364196777e-01,-4.648626148700714111e-01,1.690036654472351074e-01,4.973331093788146973e-01,1.706607043743133545e-01,-8.090796470642089844e-01,4.996142387390136719e-01,-5.808235406875610352e-01,-3.214739263057708740e-02,4.532936811447143555e-01,6.195532083511352539e-01,-6.655898690223693848e-02,-1.554690301418304443e-01,-4.415355324745178223e-01,-1.418424606323242188e+00,-1.309980273246765137e+00,2.514719963073730469e-01,-1.876040846109390259e-01,-3.964087069034576416e-01,1.050873398780822754e+00,5.649129301309585571e-02,-9.782459735870361328e-01,3.332149386405944824e-01,-4.392499327659606934e-01,-8.207114934921264648e-01,-1.392865031957626343e-01,1.267807781696319580e-01,2.681861519813537598e-01,7.181981801986694336e-01,9.581784605979919434e-01,7.235215902328491211e-01,1.392815589904785156e+00,1.162142276763916016e+00,5.493545532226562500e-01,6.067022681236267090e-01,-3.324684500694274902e-01,-1.003853082656860352e+00,-3.282601237297058105e-01,-1.539770841598510742e+00,3.531143367290496826e-01,-4.038536548614501953e-01,2.291828393936157227e+00,-3.023137748241424561e-01,1.732221543788909912e-01,1.206209778785705566e+00,-2.016635835170745850e-01,5.398623943328857422e-01,-6.186320185661315918e-01,-4.210291802883148193e-01,2.149159014225006104e-01,-7.993753552436828613e-01,-1.457593560218811035e+00,6.678957343101501465e-01,-2.529083728790283203e+00,-7.394821941852569580e-02,2.675114572048187256e-01,9.515447914600372314e-02,-8.144785761833190918e-01,1.283479690551757812e+00,6.583522558212280273e-01,1.005404233932495117e+00,9.271124005317687988e-01,1.441203206777572632e-01,7.791176438331604004e-01,3.882493078708648682e-01,6.531873941421508789e-01,6.833057105541229248e-02,2.518166899681091309e-01,-1.038094043731689453e+00,-3.370337784290313721e-01,8.342859745025634766e-01,-2.548654079437255859e-01,-2.566383779048919678e-01,2.132048904895782471e-01,-6.071830987930297852e-01,-8.289272189140319824e-01,-1.066922396421432495e-02,-6.206251978874206543e-01,-4.720928966999053955e-01,1.727128863334655762e+00,-8.101260662078857422e-01,-5.690464377403259277e-02,-8.548133820295333862e-02,6.825633347034454346e-02,-1.962530732154846191e+00,8.970603942871093750e-01,3.128166198730468750e-01,-4.001185595989227295e-01,-6.653307080268859863e-01,7.162635922431945801e-01,-4.965006411075592041e-01,3.292085230350494385e-01,9.413088560104370117e-01,-1.723034381866455078e-01,8.964057266712188721e-02
1.135891303420066833e-01,-1.906578063964843750e+00,-4.532138407230377197e-01,7.423658967018127441e-01,7.575539946556091309e-01,-1.320753097534179688e+00,-1.043652653694152832e+00,2.966285645961761475e-01,-1.184886842966079712e-01,6.213959455490112305e-01,1.039509534835815430e+00,1.849582791328430176e-02,-2.491192333400249481e-02,8.495929241180419922e-01,1.317796826362609863e+00,3.725069165229797363e-01,7.300298810005187988e-01,1.142347216606140137e+00,1.867706775665283203e-01,-2.210105508565902710e-01,8.220053315162658691e-01,1.261246681213378906e+00,1.569007277488708496e+00,2.781247794628143311e-01,8.904397487640380859e-01,-2.887098491191864014e-01,-8.367024064064025879e-01,4.802254438400268555e-01,1.153249815106391907e-01,9.206693172454833984e-01,1.884305775165557861e-01,-8.765519857406616211e-01,1.867666393518447876e-01,9.093437194824218750e-01,8.049288988113403320e-01,-1.710690557956695557e-01,4.625861048698425293e-01,-4.374409094452857971e-02,2.948170900344848633e-01,1.378291130065917969e+00,1.629902124404907227e-01,8.050372004508972168e-01,4.315899610519409180e-01,8.596398234367370605e-01,-1.510442376136779785e+00,6.645410656929016113e-01,-2.378226220607757568e-01,1.857476085424423218e-01,-6.351885795593261719e-01,4.026575982570648193e-01,-2.081255465745925903e-01,-1.986883208155632019e-02,-3.924335539340972900e-01,-1.114847540855407715e+00,-7.326844334602355957e-02,-1.644023180007934570e+00,-1.162798643112182617e+00,8.606402873992919922e-01,5.963414907455444336e-01,6.753615736961364746e-01,1.341847896575927734e+00,-6.907685399055480957e-01,-1.264334082603454590e+00,5.767421796917915344e-02,6.741115450859069824e-01,3.526380658149719238e-01,-3.700685203075408936e-01,-3.144588768482208252e-01,-9.403507411479949951e-02,3.374486863613128662e-01,2.166277961805462837e-03,7.955493032932281494e-02,-1.187909170985221863e-01,-7.834592461585998535e-01,-1.765621542930603027e+00,1.104630351066589355e+00,-1.387780785560607910e+00,-1.464563727378845215e+00,-1.561222672462463379e-01,-6.533233821392059326e-02,1.425077915191650391e+00,-1.120745301246643066e+00,-8.026617765426635742e-02,2.923197746276855469e-01,1.002263307571411133e+00,-4.680105745792388916e-01,-4.385303258895874023e-01,-1.213803052902221680e+00,7.085952162742614746e-01,-2.408033758401870728e-01,9.629037813283503056e-04,-1.062938928604125977e+00,-2.321271002292633057e-01,7.353007197380065918e-01,-1.272048592567443848e+00,-3.389053642749786377e-01,1.736988425254821777e-01,-3.242456018924713135e-01,1.010052919387817383e+00,-5.162121057510375977e-01
-7.958411588333547115e-04,5.899546742439270020e-01,3.845750689506530762e-01,-1.796505093574523926e+00,4.146749079227447510e-01,-1.566078782081604004e+00,-6.877630949020385742e-01,-4.968267679214477539e-01,2.886782288551330566e-01,5.482811331748962402e-01,1.606210827827453613e+00,-2.139121443033218384e-01,2.395811825990676880e-01,5.251485109329223633e-02,1.104649186134338379e+00,-2.258726358413696289e+00,-1.197238564491271973e+00,2.305532842874526978e-01,7.442415952682495117e-01,1.033898830413818359e+00,2.218351364135742188e-01,-6.762228161096572876e-02,1.488760232925415039e+00,-6.594775319099426270e-01,3.575819134712219238e-01,3.668617829680442810e-02,-1.045077200978994370e-02,1.611988186836242676e+00,-5.529208779335021973e-01,-1.588419318199157715e+00,7.124633789062500000e-01,8.306382894515991211e-01,1.315914750099182129e+00,-4.008744060993194580e-01,-6.524501442909240723e-01,-1.148322299122810364e-01,1.328950077295303345e-01,1.657139956951141357e-01,-4.215393662452697754e-01,-4.916344881057739258e-01,1.695755362510681152e+00,1.186644792556762695e+00,1.584133505821228027e-02,7.658935189247131348e-01,1.183817863464355469e+00,1.728705316781997681e-01,-3.825197815895080566e-01,4.822995141148567200e-02,-1.121795058250427246e+00,-9.022177010774612427e-02,-4.557307064533233643e-01,9.788045883178710938e-01,-9.588857889175415039e-01,5.247488021850585938e-01,6.779268980026245117e-01,-1.090952157974243164e+00,2.852434106171131134e-02,4.768483936786651611e-01,-1.305771470069885254e-01,-1.206887513399124146e-02,2.879008054733276367e-01,6.637795567512512207e-01,-3.026958368718624115e-02,-2.129909515380859375e+00,-6.199843883514404297e-01,9.568189978599548340e-01,1.884461522102355957e+00,-3.773598074913024902e-01,-4.783520400524139404e-01,8.041263222694396973e-01,9.918513894081115723e-01,1.045236706733703613e+00,1.869125068187713623e-01,-9.666549414396286011e-02,-1.420761346817016602e-01,1.506274342536926270e+00,7.102963924407958984e-01,1.150807976722717285e+00,4.129869043827056885e-01,1.347241520881652832e+00,8.188666701316833496e-01,8.650979399681091309e-01,-8.165661692619323730e-01,5.544983744621276855e-01,4.636565148830413818e-01,-1.545725584030151367e+00,1.292229294776916504e+00,-1.361238479614257812e+00,5.486198663711547852e-01,-5.316897630691528320e-01,-6.997842192649841309e-01,5.064432621002197266e-01,-1.646081060171127319e-01,-8.022340536117553711e-01,7.667307853698730469e-01,-4.268006682395935059e-01,-6.402766108512878418e-01,-7.177204489707946777e-01,-1.061588525772094727e+00,-3.497777506709098816e-02
-7.273014187812805176e-01,-3.094272315502166748e-01,2.358557432889938354e-01,1.131923556327819824e+00,-1.322695374488830566e+00,-3.613725677132606506e-02,1.612650305032730103e-01,-4.606305360794067383e-01,2.192334890365600586e+00,5.325541496276855469e-01,-1.295878648757934570e+00,3.945715427398681641e-01,-2.084145545959472656e-01,4.032199382781982422e-01,-3.588094711303710938e-01,3.367277085781097412e-01,-1.471482276916503906e+00,-1.494117379188537598e+00,6.361952424049377441e-01,-5.050568580627441406e-01,9.807652235031127930e-02,-6.882092952728271484e-01,-1.904501616954803467e-01,-7.712771892547607422e-01,-4.615241661667823792e-02,3.913944065570831299e-01,-6.290981173515319824e-01,3.312698900699615479e-01,2.014287859201431274e-01,6.684452295303344727e-01,-4.311493411660194397e-02,-1.249920845031738281e+00,1.417528986930847168e-01,-6.726584434509277344e-01,1.542242288589477539e+00,4.887199699878692627e-01,-2.723555862903594971e-01,1.364873945713043213e-01,-2.441997528076171875e+00,2.572070658206939697e-01,4.358187615871429443e-01,-6.863654255867004395e-01,2.148508280515670776e-01,4.581226706504821777e-01,-2.356650233268737793e-01,2.756708860397338867e-02,6.289116144180297852e-01,-6.417887806892395020e-01,7.510527968406677246e-01,3.941518664360046387e-01,1.145135462284088135e-01,9.772287607192993164e-01,2.225745618343353271e-01,-1.244674563407897949e+00,1.222921907901763916e-01,2.734493911266326904e-01,4.378517270088195801e-01,-2.041730642318725586e+00,-7.587028741836547852e-01,1.780908703804016113e+00,-1.729189634323120117e+00,7.100116014480590820e-01,-1.564677119255065918e+00,5.473684147000312805e-02,-2.821231782436370850e-01,5.100077986717224121e-01,-2.943534255027770996e-01,2.270042430609464645e-03,-1.063393950462341309e+00,6.386244297027587891e-01,-1.145658254623413086e+00,2.901360690593719482e-01,-5.605255365371704102e-01,2.575860023498535156e-01,-1.591173768043518066e+00,4.967682361602783203e-01,3.082821667194366455e-01,4.552735686302185059e-01,-1.775588631629943848e+00,-7.781240344047546387e-01,-7.234321236610412598e-01,1.986279189586639404e-01,-1.798714101314544678e-01,-7.343196868896484375e-02,-6.098198890686035156e-01,-2.767123281955718994e-01,-5.094600915908813477e-01,-7.377879619598388672e-01,-9.884080290794372559e-02,-1.686116337776184082e+00,3.835559189319610596e-01,1.539107441902160645e+00,-1.214715003967285156e+00,5.167492032051086426e-01,-7.709687352180480957e-01,-2.422704547643661499e-01,5.879068374633789062e-01,7.715864181518554688e-01,2.473240643739700317e-01,5.148624777793884277e-01
-1.401284486055374146e-01,6.645142287015914917e-02,4.028665721416473389e-01,8.910186886787414551e-01,-1.240837574005126953e+00,5.097749829292297363e-01,-2.801972627639770508e-01,2.408107370138168335e-01,9.191859960556030273e-01,8.494305610656738281e-01,-3.212814331054687500e-01,1.057338342070579529e-01,2.091156542301177979e-01,7.207525372505187988e-01,-1.022014379501342773e+00,-1.596257328987121582e+00,3.012857437133789062e-01,-2.185636997222900391e+00,1.295043230056762695e-01,1.427161812782287598e+00,1.336323022842407227e+00,-1.760236024856567383e+00,3.415543735027313232e-01,1.759821623563766479e-01,9.439187049865722656e-01,5.485873296856880188e-02,7.283194661140441895e-01,7.018293142318725586e-01,4.928881525993347168e-01,7.897805571556091309e-01,-2.008609026670455933e-01,-9.984108805656433105e-02,5.843545496463775635e-02,8.744116425514221191e-01,6.621181368827819824e-01,2.253138870000839233e-01,2.422567456960678101e-01,8.500766754150390625e-01,-5.892484784126281738e-01,-1.872967034578323364e-01,-2.202540874481201172e+00,4.335649907588958740e-01,-2.196866989135742188e+00,8.781537413597106934e-02,4.257395863533020020e-01,-1.705014854669570923e-01,-3.969385921955108643e-01,-9.809685945510864258e-01,-1.279815435409545898e-01,-4.701028019189834595e-02,3.980571329593658447e-01,7.101414203643798828e-01,1.461278796195983887e-01,5.930345654487609863e-01,-6.476989984512329102e-01,8.361251950263977051e-01,7.307997941970825195e-01,9.786019325256347656e-01,-5.713464617729187012e-01,2.454565465450286865e-01,-1.523007869720458984e+00,6.387000083923339844e-01,3.709049224853515625e-01,-1.385506033897399902e+00,-8.253523707389831543e-02,1.445442557334899902e+00,7.332382351160049438e-02,-1.442413687705993652e+00,-1.843598961830139160e+00,-2.102576017379760742e+00,-1.819622516632080078e-01,1.144316911697387695e+00,9.744752049446105957e-01,2.284761220216751099e-01,7.118326425552368164e-01,4.641872644424438477e-02,4.654544591903686523e-01,9.902484416961669922e-01,1.618088632822036743e-01,-5.207335352897644043e-01,8.367905765771865845e-02,-4.176087677478790283e-01,8.109065145254135132e-02,4.987076222896575928e-01,-1.408893108367919922e+00,6.198118254542350769e-02,9.553226828575134277e-01,-3.769695162773132324e-01,5.498466491699218750e-01,-2.358910292387008667e-01,-5.024629235267639160e-01,-1.415465772151947021e-01,1.333785176277160645e+00,1.085299372673034668e+00,2.761611342430114746e-01,-6.274579763412475586e-01,-1.942148447036743164e+00,1.234519958496093750e+00,-3.673059642314910889e-01,-7.674866914749145508e-01
-3.044488131999969482e-01,9.157011657953262329e-02,-9.448423981666564941e-01,6.861785650253295898e-01,-7.354749366641044617e-03,1.723406612873077393e-01,-1.446957588195800781e+00,-3.864760696887969971e-01,4.548897445201873779e-01,6.763490438461303711e-01,-2.523664236068725586e+00,1.435294508934020996e+00,-9.395102858543395996e-01,-1.339038163423538208e-01,-1.245028734207153320e+00,-5.600959658622741699e-01,-1.014565080404281616e-01,-1.532809376716613770e+00,7.912129759788513184e-01,2.545130550861358643e-01,-1.392570734024047852e-01,-1.786587685346603394e-01,7.817146182060241699e-01,1.210673213005065918e+00,2.351579070091247559e-01,6.456868648529052734e-01,9.532083757221698761e-03,2.520827353000640869e-01,-1.075258016586303711e+00,1.787779927253723145e+00,1.276631355285644531e+00,4.682273864746093750e-01,1.068132996559143066e+00,-9.726147651672363281e-01,2.930794358253479004e-01,-7.686625719070434570e-01,-8.331924676895141602e-01,8.457160741090774536e-02,9.828380346298217773e-01,-7.049095034599304199e-01,-6.083382964134216309e-01,-2.993967570364475250e-02,-2.890556573867797852e+00,7.791204452514648438e-01,1.046800851821899414e+00,7.599579095840454102e-01,5.862432122230529785e-01,1.898386050015687943e-03,8.014749288558959961e-01,-1.016746640205383301e+00,-3.821215033531188965e-01,1.895953059196472168e+00,-2.207971215248107910e-01,1.410465955734252930e+00,3.785972297191619873e-01,1.052789807319641113e+00,1.172790527343750000e+00,-6.455112695693969727e-01,6.336173415184020996e-01,1.773173213005065918e-01,8.680484890937805176e-01,1.005686283111572266e+00,1.204894110560417175e-01,7.327709197998046875e-01,-3.759077310562133789e+00,2.511243149638175964e-02,1.017201781272888184e+00,-8.204216957092285156e-01,-2.161931693553924561e-01,-6.800754666328430176e-01,-2.259454727172851562e-01,1.611061930656433105e+00,6.304666996002197266e-01,-1.084928035736083984e+00,9.324774891138076782e-02,-1.741095423698425293e+00,-2.579126060009002686e-01,7.495902776718139648e-01,2.184516042470932007e-01,4.141607880592346191e-01,-6.229750514030456543e-01,7.223161458969116211e-01,-2.459792047739028931e-01,1.023110628128051758e+00,-9.357640743255615234e-01,-2.362585961818695068e-01,-4.078082144260406494e-01,1.297896862030029297e+00,1.034822463989257812e+00,-9.273612499237060547e-01,-2.322657823562622070e+00,4.451776444911956787e-01,5.085396170616149902e-01,8.226450681686401367e-01,-4.394458234310150146e-02,3.479288816452026367e-01,4.337324798107147217e-01,4.251215159893035889e-01,6.344812512397766113e-01,1.241129755973815918e+00
2.752963900566101074e-01,8.345687389373779297e-01,-1.245936155319213867e+00,7.973485589027404785e-01,-7.789760231971740723e-01,8.862009048461914062e-01,5.415152311325073242e-01,-6.455419063568115234e-01,-8.938615322113037109e-01,-3.951816558837890625e-01,1.004801869392395020e+00,1.072590112686157227e+00,1.137880533933639526e-01,1.504926562309265137e+00,1.562293529510498047e+00,-1.608456015586853027e+00,-8.554325699806213379e-01,-4.461047947406768799e-01,1.207073569297790527e+00,2.621057815849781036e-02,-6.690116524696350098e-01,-1.153003454208374023e+00,1.258365154266357422e+00,-9.785321950912475586e-01,-4.001186490058898926e-01,5.661344528198242188e-01,2.443549036979675293e-01,8.712970018386840820e-01,-8.952561020851135254e-01,4.242210686206817627e-01,5.346262454986572266e-01,-1.614715814590454102e+00,-7.583165075629949570e-03,6.876884698867797852e-01,-6.695584654808044434e-01,-2.210660934448242188e+00,2.237434685230255127e-01,6.190032958984375000e-01,-7.234453558921813965e-01,1.025480985641479492e+00,7.880265712738037109e-01,-9.800582379102706909e-02,3.774049282073974609e-01,1.289284881204366684e-02,-7.076024413108825684e-01,-9.495781660079956055e-01,5.121364593505859375e-01,-1.049906849861145020e+00,-4.930712282657623291e-01,1.540404319763183594e+00,2.398452460765838623e-01,-9.882996082305908203e-01,-7.391469180583953857e-02,-6.471649408340454102e-01,8.459830880165100098e-01,-7.513545155525207520e-01,1.686248034238815308e-01,-1.821065992116928101e-01,-9.577723741531372070e-01,-3.317756056785583496e-01,-1.250031828880310059e+00,2.504405975341796875e-01,-2.328346967697143555e-01,-5.041383504867553711e-01,3.824765980243682861e-01,9.743330478668212891e-01,6.007290482521057129e-01,7.982953190803527832e-01,-1.134375333786010742e+00,6.549622416496276855e-01,-4.868973791599273682e-01,9.268674254417419434e-01,-9.586010575294494629e-01,-5.870578289031982422e-01,-4.932650923728942871e-01,-3.307192623615264893e-01,-6.562832593917846680e-01,3.520641624927520752e-01,4.007377028465270996e-01,-4.769778847694396973e-01,6.733493208885192871e-01,-1.075034141540527344e+00,-8.584865927696228027e-02,1.021570920944213867e+00,3.780717253684997559e-01,1.324079155921936035e+00,2.435698062181472778e-01,1.533458679914474487e-01,-3.897658316418528557e-03,-5.178634524345397949e-01,-1.044243454933166504e+00,3.539978265762329102e-01,2.591356933116912842e-01,-8.932635784149169922e-01,3.309297561645507812e-01,-8.455680012702941895e-01,8.144845962524414062e-01,2.542364597320556641e-01,-7.857627868652343750e-01,4.838094115257263184e-01
-1.576231718063354492e+00,5.637591481208801270e-01,-1.188355758786201477e-01,6.706669330596923828e-01,-8.352025747299194336e-01,9.044780731201171875e-01,-5.377405509352684021e-02,-6.457548737525939941e-01,8.298341631889343262e-01,3.996817469596862793e-01,-7.851667702198028564e-02,2.309837341308593750e-01,-2.732316017150878906e+00,4.966212511062622070e-01,2.826076149940490723e-01,6.369318962097167969e-01,-3.591332584619522095e-02,-4.765198230743408203e-01,-4.042445182800292969e+00,7.018825411796569824e-01,5.766416192054748535e-01,-1.775297284126281738e+00,-2.309906035661697388e-01,-2.881897687911987305e-01,1.143141627311706543e+00,-1.003974825143814087e-01,5.020601674914360046e-02,8.640792220830917358e-03,7.224693894386291504e-01,7.232339382171630859e-01,-5.100529789924621582e-01,-1.395054608583450317e-01,-6.477488875389099121e-01,-1.225364923477172852e+00,1.079828023910522461e+00,-5.675289630889892578e-01,-1.101082637906074524e-01,8.110457658767700195e-02,9.358459711074829102e-01,5.694351196289062500e-01,9.458938837051391602e-01,-9.583387374877929688e-01,4.484696090221405029e-01,9.216452836990356445e-01,5.676034465432167053e-02,1.248350143432617188e+00,-3.084898293018341064e-01,-1.421693682670593262e+00,-3.566232919692993164e-01,-7.424707412719726562e-01,-2.799538969993591309e-01,6.150861978530883789e-01,-5.193617343902587891e-01,-2.718171775341033936e-01,-6.512336134910583496e-01,1.398602314293384552e-02,3.531471192836761475e-01,-6.108244657516479492e-01,-1.458922401070594788e-02,2.683992683887481689e-01,-2.190824985504150391e+00,5.697442293167114258e-01,-1.977170467376708984e+00,-6.390508413314819336e-01,-1.014290452003479004e+00,1.251024007797241211e+00,-4.261190295219421387e-01,4.770623743534088135e-01,-3.491236269474029541e-02,1.834605038166046143e-01,-3.070830345153808594e+00,-1.384511590003967285e-01,-3.865982890129089355e-01,2.351303100585937500e-01,-2.284342765808105469e+00,1.931601166725158691e-01,-1.717190742492675781e-01,5.124645829200744629e-01,-2.062249183654785156e-01,-6.939234137535095215e-01,4.651342034339904785e-01,-1.854859143495559692e-01,2.146898657083511353e-01,1.843658536672592163e-01,5.453312993049621582e-01,-7.052871584892272949e-01,7.158779501914978027e-01,6.042590141296386719e-01,-3.625932931900024414e-01,-1.852943062782287598e+00,2.610758543014526367e-01,7.294491529464721680e-01,8.024737238883972168e-01,5.395241379737854004e-01,-2.919699549674987793e-01,-4.500410556793212891e-01,4.499547779560089111e-01,6.901978254318237305e-01,4.685322642326354980e-01,7.835085988044738770e-01
4.188689589500427246e-01,2.927508950233459473e-01,2.723365426063537598e-01,-1.441569805145263672e+00,7.345538139343261719e-01,1.452058076858520508e+00,1.874269396066665649e-01,4.361515492200851440e-02,9.731901884078979492e-01,8.875705599784851074e-01,8.977581262588500977e-01,1.090664386749267578e+00,-7.731772661209106445e-01,1.048362813889980316e-03,1.338697791099548340e+00,1.158126592636108398e+00,-1.310179471969604492e+00,2.931823730468750000e-01,-5.180785804986953735e-02,-1.197970360517501831e-01,1.333560198545455933e-01,9.996926188468933105e-01,1.302262544631958008e+00,-8.108602166175842285e-01,8.364435434341430664e-01,-8.558099865913391113e-01,4.513531923294067383e-01,3.472951054573059082e-01,-1.475720405578613281e+00,1.267422795295715332e+00,9.061893820762634277e-01,1.501738727092742920e-01,4.061081111431121826e-01,2.296402692794799805e+00,7.999969124794006348e-01,-7.444800734519958496e-01,-2.514015197753906250e+00,-1.425662517547607422e+00,4.365012049674987793e-01,1.983147621154785156e+00,8.311424851417541504e-01,7.303982973098754883e-01,-3.243039548397064209e-01,1.954301744699478149e-01,-1.798774123191833496e+00,2.434528023004531860e-01,9.446650743484497070e-01,4.833427667617797852e-01,6.145228743553161621e-01,3.695306479930877686e-01,-8.746896982192993164e-01,1.083996295928955078e+00,1.484630227088928223e+00,3.569060862064361572e-01,-6.531296968460083008e-01,-1.801605105400085449e+00,-8.221563696861267090e-01,3.172777295112609863e-01,-5.976059436798095703e-01,7.036500573158264160e-01,1.571705043315887451e-01,1.309460848569869995e-01,1.133552864193916321e-01,-1.415963172912597656e-01,1.537347584962844849e-01,8.187144994735717773e-01,5.885425209999084473e-01,-2.235723286867141724e-01,2.391934245824813843e-01,-2.123677253723144531e+00,5.802680850028991699e-01,-2.899189293384552002e-01,-9.279272556304931641e-01,-1.159554719924926758e+00,-8.572374582290649414e-01,5.097712874412536621e-01,-7.294942140579223633e-01,4.812246859073638916e-01,8.265827894210815430e-01,4.923321008682250977e-01,2.557082474231719971e-01,-6.994833052158355713e-02,4.773967862129211426e-01,9.824623167514801025e-02,1.000697016716003418e+00,1.534523606300354004e+00,7.066555619239807129e-01,-1.640632152557373047e+00,-9.165987372398376465e-01,2.420599162578582764e-01,1.315511167049407959e-01,2.796098887920379639e-01,7.741926908493041992e-01,-2.079926431179046631e-01,-2.802108228206634521e-01,8.479295372962951660e-01,-6.296939253807067871e-01,-2.858189940452575684e-01,-1.479919910430908203e+00,3.873762488365173340e-01
-7.719023525714874268e-02,1.253074169158935547e+00,7.647398114204406738e-01,8.545034527778625488e-01,2.677746675908565521e-02,-8.781334161758422852e-01,4.813755750656127930e-01,5.841777920722961426e-01,6.737658381462097168e-01,-1.085465922951698303e-01,2.904443144798278809e-01,-2.325252443552017212e-01,-7.181933522224426270e-02,8.674077689647674561e-02,-1.340453505516052246e+00,-9.707314968109130859e-01,6.231227517127990723e-01,-1.410057544708251953e+00,-1.746611714363098145e+00,1.717231392860412598e+00,1.240754798054695129e-01,-1.314774453639984131e-01,7.946252226829528809e-01,4.098386466503143311e-01,7.715597748756408691e-01,-7.981884479522705078e-02,6.985424757003784180e-01,9.864417314529418945e-01,4.511351287364959717e-01,1.103335499763488770e+00,-7.139373421669006348e-01,-2.085657417774200439e-01,-2.177846729755401611e-01,-7.242768406867980957e-01,-1.010478258132934570e+00,1.282289326190948486e-01,-5.045191645622253418e-01,-1.392774939537048340e+00,1.833471097052097321e-02,-8.247578740119934082e-01,-1.819626450538635254e+00,-6.811954975128173828e-01,1.239580754190683365e-02,1.631510257720947266e+00,5.731940269470214844e-01,1.674318760633468628e-01,2.869253158569335938e-01,-5.935748815536499023e-01,-1.528190970420837402e+00,-2.487639039754867554e-01,-1.183930560946464539e-01,5.059964060783386230e-01,3.330675140023231506e-02,6.653756499290466309e-01,-2.671427130699157715e-01,1.184548810124397278e-01,-1.206104636192321777e+00,-6.843337416648864746e-02,-1.275478482246398926e+00,2.292479127645492554e-01,-2.817579746246337891e+00,-1.531707495450973511e-01,-1.571950763463973999e-01,-7.174564599990844727e-01,-6.610944271087646484e-01,7.839749455451965332e-01,1.349066793918609619e-01,5.906536579132080078e-01,1.759727895259857178e-01,6.117540001869201660e-01,-3.803960382938385010e-01,8.416116237640380859e-01,1.440456628799438477e+00,3.898011445999145508e-01,4.040993750095367432e-01,-4.614887237548828125e-01,2.380176633596420288e-01,1.544792413711547852e+00,3.700051903724670410e-01,5.505773425102233887e-01,6.759038567543029785e-02,6.211821436882019043e-01,3.877732455730438232e-01,2.758920192718505859e-01,5.790232419967651367e-01,9.386276006698608398e-01,-2.525043487548828125e-01,-1.905890226364135742e+00,5.661674141883850098e-01,-1.334540009498596191e+00,-7.067287564277648926e-01,-7.667419314384460449e-02,3.723007738590240479e-01,-6.767945885658264160e-01,1.105697512626647949e+00,-6.738315224647521973e-01,7.920444011688232422e-01,5.254352688789367676e-01,1.593806445598602295e-01,-4.612688422203063965e-01
-1.052384376525878906e+00,1.323112368583679199e+00,5.922095775604248047e-01,1.747688174247741699e+00,6.370034217834472656e-01,-5.430406332015991211e-01,-5.789861083030700684e-01,-6.052417755126953125e-01,-3.169265091419219971e-01,9.012616276741027832e-01,-4.910064339637756348e-01,9.594751596450805664e-01,1.618657633662223816e-02,8.649954199790954590e-01,5.137614011764526367e-01,-1.788426876068115234e+00,1.980484724044799805e-01,-8.524657487869262695e-01,9.414622187614440918e-01,9.934858679771423340e-01,1.625023245811462402e+00,-6.409309059381484985e-02,1.531333088874816895e+00,-2.473316043615341187e-01,-3.153934376314282417e-04,5.767060518264770508e-01,2.019845098257064819e-01,7.817777395248413086e-01,-2.716072499752044678e-01,9.396646022796630859e-01,-1.027477860450744629e+00,-2.976050674915313721e-01,6.625788807868957520e-01,-4.128045737743377686e-01,-8.250313997268676758e-01,4.382316172122955322e-01,-8.129828423261642456e-02,1.518680334091186523e+00,-9.484969824552536011e-02,2.318319231271743774e-01,3.831921517848968506e-01,2.526956498622894287e-01,1.094324439764022827e-01,2.888119518756866455e-01,3.152601718902587891e-01,1.181327819824218750e+00,-9.394715428352355957e-01,-4.082018733024597168e-01,-2.311076641082763672e+00,-8.733352273702621460e-02,6.704370975494384766e-01,9.885332584381103516e-01,7.239351868629455566e-01,8.640148043632507324e-01,-1.225074052810668945e+00,-6.290084719657897949e-01,-1.376435160636901855e-01,7.829914093017578125e-01,5.784211680293083191e-02,3.860344886779785156e-01,7.036502957344055176e-01,1.650957107543945312e+00,9.222057461738586426e-02,-1.170699119567871094e+00,6.387832108885049820e-04,8.950163722038269043e-01,3.616883158683776855e-01,-1.793235689401626587e-01,3.113175034523010254e-01,-6.290167570114135742e-01,-7.717721462249755859e-01,2.696897983551025391e-01,8.533179163932800293e-01,-1.221927046775817871e+00,-3.604243993759155273e-01,-1.722249269485473633e+00,-2.439817190170288086e+00,2.571415603160858154e-01,1.346705108880996704e-01,-6.430291533470153809e-01,2.849516272544860840e-01,-1.232135295867919922e+00,-1.458446502685546875e+00,-9.155060648918151855e-01,-2.516279518604278564e-01,7.487440705299377441e-01,7.914900779724121094e-01,3.377180993556976318e-01,5.144669413566589355e-01,-7.044293284416198730e-01,4.036623537540435791e-01,1.233494877815246582e+00,1.681257367134094238e+00,-3.489627838134765625e-01,-8.166122436523437500e-01,-1.036882162094116211e+00,3.053007125854492188e-01,1.056961536407470703e+00,-6.803014874458312988e-01,-2.532430291175842285e-01
-4.838261008262634277e-01,5.073265433311462402e-01,2.783377766609191895e-01,-2.562514305114746094e+00,8.527261018753051758e-01,1.454574108123779297e+00,1.809243410825729370e-01,-1.121716260910034180e+00,1.311292767524719238e+00,2.754423581063747406e-02,2.020159661769866943e-01,3.548377454280853271e-01,-2.033490091562271118e-01,7.952765226364135742e-01,3.705055117607116699e-01,8.449999690055847168e-01,-1.130137205123901367e+00,-5.924847126007080078e-01,1.358820676803588867e+00,8.223403692245483398e-01,9.659101366996765137e-01,-4.527676999568939209e-01,-8.823329210281372070e-02,-8.037573844194412231e-02,5.541983842849731445e-01,8.727630972862243652e-01,-1.033536344766616821e-01,3.587830066680908203e-01,-2.404443025588989258e-01,-1.290160417556762695e-02,-1.440536737442016602e+00,1.100455895066261292e-01,-1.626595295965671539e-02,-1.433693885803222656e+00,-7.798376083374023438e-01,-2.790216207504272461e-01,2.892149388790130615e-01,3.401129245758056641e-01,-1.554844737052917480e+00,8.958339691162109375e-01,6.146016716957092285e-01,1.794360876083374023e-01,-5.276858806610107422e-01,1.412536621093750000e+00,8.356941342353820801e-01,1.528079956769943237e-01,7.675433158874511719e-01,-1.899967670440673828e+00,-6.529024839401245117e-01,-4.073691368103027344e-01,-4.556119740009307861e-01,4.871416389942169189e-01,-1.536980122327804565e-01,-5.777650475502014160e-01,5.671477690339088440e-02,-8.313431739807128906e-01,7.198796868324279785e-01,5.984526872634887695e-01,-5.352770686149597168e-01,2.712601125240325928e-01,9.722012281417846680e-01,4.225436747074127197e-01,-2.940837144851684570e+00,1.145844340324401855e+00,-1.461272954940795898e+00,2.461788058280944824e-01,-5.032581090927124023e-01,7.394838929176330566e-01,1.270314119756221771e-02,-8.688798546791076660e-01,-2.248783826828002930e+00,4.455442726612091064e-01,-6.719504594802856445e-01,-6.666238605976104736e-02,-8.927154541015625000e-01,-1.527226209640502930e+00,5.121096968650817871e-01,2.464528799057006836e+00,-2.103812396526336670e-01,-8.414199948310852051e-01,-1.805338412523269653e-01,-3.451754748821258545e-01,-2.861269414424896240e-01,-6.850528717041015625e-01,3.030890598893165588e-02,1.221794486045837402e+00,1.184474945068359375e+00,8.939718455076217651e-02,-3.022494077682495117e+00,-6.893644332885742188e-01,2.117344141006469727e-01,2.846002876758575439e-01,3.598255515098571777e-01,7.267163693904876709e-02,4.808767139911651611e-01,-3.593100309371948242e+00,1.371538877487182617e+00,4.132444262504577637e-01,-2.329152822494506836e+00,-7.027275562286376953e-01
-8.990839719772338867e-01,-2.700246572494506836e-01,-4.571997523307800293e-01,-1.116446614265441895e+00,-9.609455466270446777e-01,8.793408982455730438e-03,-2.406298816204071045e-01,-1.375872969627380371e+00,-8.963241577148437500e-01,1.159206628799438477e+00,-3.120400309562683105e-01,-8.760607987642288208e-02,3.695604205131530762e-01,-1.378892213106155396e-01,3.437519967555999756e-01,-3.672041893005371094e-01,-2.424750328063964844e+00,9.097382426261901855e-01,2.756907343864440918e-01,9.841775894165039062e-01,8.438930511474609375e-01,-7.929283380508422852e-01,-6.155505776405334473e-01,-1.551500111818313599e-01,2.280783951282501221e-01,-4.678150117397308350e-01,-1.148681342601776123e-01,-5.051528811454772949e-01,1.629728674888610840e+00,8.197876811027526855e-02,-3.279282152652740479e-01,-9.500641822814941406e-01,2.220086604356765747e-01,7.498738765716552734e-01,4.424128830432891846e-01,1.170579940080642700e-01,6.787400841712951660e-01,-4.840097725391387939e-01,-3.795613944530487061e-01,1.411211848258972168e+00,3.199148774147033691e-01,1.363205909729003906e-01,6.522100567817687988e-01,1.040450572967529297e+00,1.604241967201232910e+00,-4.210969507694244385e-01,1.209342777729034424e-01,4.382921755313873291e-01,-2.650615930557250977e+00,5.098242163658142090e-01,-1.679615378379821777e+00,-2.926881611347198486e-01,-1.709679007530212402e+00,2.262052774429321289e+00,-2.174725532531738281e-01,6.392516493797302246e-01,1.017320156097412109e+00,-3.339490890502929688e+00,-7.214560508728027344e-01,8.672788739204406738e-01,2.498078942298889160e-01,6.391878128051757812e-01,-1.196609288454055786e-01,-8.023551702499389648e-01,-4.844127595424652100e-02,-3.762998580932617188e-01,1.787214159965515137e+00,-7.346429824829101562e-01,5.466141104698181152e-01,2.748054265975952148e-01,9.427889436483383179e-02,9.867639541625976562e-01,9.056875854730606079e-02,8.177312016487121582e-01,2.883497178554534912e-01,5.300948023796081543e-01,-2.945229709148406982e-01,-3.307602405548095703e-01,3.883989751338958740e-01,-3.196132183074951172e-01,6.973044872283935547e-01,-3.874948620796203613e-01,-7.712875604629516602e-01,-1.489056825637817383e+00,-2.241457700729370117e-01,1.932297646999359131e-01,1.007264256477355957e+00,6.073001399636268616e-02,7.424452900886535645e-01,1.655334532260894775e-01,6.454818844795227051e-01,-9.109758585691452026e-02,9.199481606483459473e-01,1.035080477595329285e-02,-6.030036211013793945e-01,-1.241912841796875000e+00,-2.273106724023818970e-01,2.868701815605163574e-01,1.142816245555877686e-01,9.836153388023376465e-01
-1.502968788146972656e+00,2.551575303077697754e-01,-1.653544783592224121e+00,-7.258161306381225586e-01,4.597995281219482422e-01,1.602848291397094727e+00,-2.052083969116210938e+00,5.098852515220642090e-01,-3.233861923217773438e-01,6.704115867614746094e-01,1.613232791423797607e-01,-4.763575792312622070e-01,-1.261171340942382812e+00,3.574834465980529785e-01,-3.274479806423187256e-01,-5.158562064170837402e-01,9.010337591171264648e-01,-3.517269790172576904e-01,1.083625197410583496e+00,1.095125555992126465e+00,1.281101822853088379e+00,8.545109629631042480e-01,-1.184598281979560852e-01,4.986543953418731689e-01,-4.444231986999511719e-01,4.814004898071289062e-02,-5.224844217300415039e-01,-2.531412541866302490e-01,-4.041376113891601562e-01,7.082521319389343262e-01,-1.128431558609008789e+00,-9.235039353370666504e-01,8.590639233589172363e-01,-1.175482153892517090e+00,1.846643835306167603e-01,8.384824395179748535e-01,-4.573890268802642822e-01,1.098736763000488281e+00,3.096742033958435059e-01,7.352306274697184563e-04,-9.509286880493164062e-01,3.172599077224731445e-01,6.448903083801269531e-01,-9.952549934387207031e-01,7.691710591316223145e-01,4.095096886157989502e-01,1.070765614509582520e+00,2.471795678138732910e-01,9.595282673835754395e-01,-7.443667054176330566e-01,2.704005241394042969e-01,4.076778888702392578e-01,4.897091537714004517e-02,-1.805249899625778198e-01,2.895482182502746582e-01,1.937755942344665527e-01,-2.900499403476715088e-01,7.312329113483428955e-02,-6.440299749374389648e-02,1.539032101631164551e+00,-2.289692908525466919e-01,-2.096367776393890381e-01,-9.872242212295532227e-01,6.291217803955078125e-01,1.435799524188041687e-02,5.574283599853515625e-01,3.027270175516605377e-02,-6.168676614761352539e-01,-3.202194869518280029e-01,-5.103660821914672852e-01,-1.474733948707580566e+00,-3.333274722099304199e-01,9.505894780158996582e-01,-2.279741287231445312e+00,1.674740314483642578e+00,2.027941346168518066e-01,1.521147191524505615e-01,1.574394851922988892e-01,-6.804042458534240723e-01,1.246425390243530273e+00,-8.870400488376617432e-02,1.085645437240600586e+00,-6.945776343345642090e-01,1.281956791877746582e+00,5.158672332763671875e-01,-1.109580874443054199e+00,-8.923999220132827759e-02,7.223428487777709961e-01,1.359040737152099609e-01,-1.094194769859313965e+00,-7.242825031280517578e-01,-2.891506552696228027e-01,3.911062180995941162e-01,8.429250121116638184e-01,6.788869947195053101e-02,5.223937034606933594e-01,1.064697265625000000e+00,5.071914792060852051e-01,2.345334768295288086e+00,1.229268074035644531e+00
2.130232900381088257e-01,1.370818734169006348e+00,-7.100934535264968872e-02,2.189121395349502563e-02,1.254197239875793457e+00,1.278070211410522461e+00,4.346856474876403809e-01,-1.334994196891784668e+00,-6.982095073908567429e-04,7.143912911415100098e-01,1.730471998453140259e-01,7.265197038650512695e-01,-4.422379136085510254e-01,-1.248049378395080566e+00,-1.029245182871818542e-02,-1.997404336929321289e+00,-1.093907237052917480e+00,-9.064106345176696777e-01,7.210661172866821289e-01,-1.509432047605514526e-01,1.565623760223388672e+00,7.759016156196594238e-01,-6.645996570587158203e-01,4.437648952007293701e-01,7.252275347709655762e-01,-4.301502406597137451e-01,2.559276521205902100e-01,7.276173830032348633e-01,1.532404776662588120e-02,6.801929473876953125e-01,1.935420483350753784e-01,-1.341842889785766602e+00,2.319030284881591797e+00,8.922351002693176270e-01,1.551134735345840454e-01,3.006145954132080078e-01,7.761360406875610352e-01,-2.511124908924102783e-01,8.715195059776306152e-01,3.489485085010528564e-01,1.000657528638839722e-01,-4.289448559284210205e-01,5.318956375122070312e-01,8.925006389617919922e-01,6.643269658088684082e-01,5.030925273895263672e-01,4.995639622211456299e-01,-1.597737550735473633e+00,6.613121628761291504e-01,6.640220284461975098e-01,2.071405947208404541e-01,7.010825276374816895e-01,-8.956698328256607056e-02,5.938422083854675293e-01,9.596303105354309082e-01,1.529213309288024902e+00,5.470127463340759277e-01,-9.037159681320190430e-01,4.394669234752655029e-01,1.275630831718444824e+00,1.660882085561752319e-01,1.055858373641967773e+00,-1.999017298221588135e-01,-1.210769295692443848e+00,-1.516541093587875366e-01,6.124235391616821289e-01,5.040767192840576172e-01,2.600739896297454834e-01,-9.201657772064208984e-01,2.422229945659637451e-01,8.479878902435302734e-01,1.352860212326049805e+00,2.035444229841232300e-01,1.680347919464111328e-01,2.189396172761917114e-01,6.813637018203735352e-01,9.684669971466064453e-01,-1.411893814802169800e-01,1.182018995285034180e+00,1.606269478797912598e-01,-1.049854397773742676e+00,4.514111280441284180e-01,2.250354737043380737e-01,-2.576946616172790527e-01,-1.340255856513977051e+00,-1.494527935981750488e+00,1.626102924346923828e-01,-2.014146894216537476e-01,3.572506457567214966e-02,-8.729297518730163574e-01,1.075492143630981445e+00,-4.276145100593566895e-01,-1.050584554672241211e+00,4.086935520172119141e-01,5.426752567291259766e-01,-1.359542369842529297e+00,-1.366205960512161255e-01,1.689349561929702759e-01,-1.556401133537292480e+00,-3.386316299438476562e-01
