3.495814204216003418e-01,-2.590292096138000488e-01,-4.559118747711181641e-01,6.828506588935852051e-01,-3.070481121540069580e-01,3.495488464832305908e-01,-5.735540071327704936e-06,4.465787410736083984e-01,-3.041154444217681885e-01,3.043020963668823242e-01,4.164623320102691650e-01,2.828000485897064209e-01,-3.322094082832336426e-01,3.261621594429016113e-01,-2.795403301715850830e-01,-3.652292191982269287e-01,5.101426839828491211e-01,5.423691272735595703e-01,3.669021129608154297e-01,-4.319585859775543213e-01,3.208543658256530762e-01,6.204060316085815430e-01,-4.325965940952301025e-01,-2.821073830127716064e-01,3.447677195072174072e-01,-3.350539505481719971e-01,-4.364177286624908447e-01,6.158949136734008789e-01,-5.572087168693542480e-01,-9.650747776031494141e-01,4.612923264503479004e-01,8.884039521217346191e-01,-3.621646165847778320e-01,-3.212506771087646484e-01,4.947602152824401855e-01,3.055481314659118652e-01,4.673756361007690430e-01,-6.690039634704589844e-01,5.747691988945007324e-01,-4.771289527416229248e-01,-4.045070409774780273e-01,3.903410136699676514e-01,-6.643357276916503906e-01,-4.412572681903839111e-01,3.613485097885131836e-01,2.229110896587371826e-01,-3.826038539409637451e-01,-3.006314635276794434e-01,3.831979036331176758e-01,4.937940239906311035e-01,4.926753640174865723e-01,-5.239086747169494629e-01,-1.052797436714172363e+00,-4.239856600761413574e-01,2.882885932922363281e-01,-2.831954360008239746e-01,2.257950901985168457e-01,-6.416124105453491211e-01,-2.726111710071563721e-01,3.741183578968048096e-01,-4.007107615470886230e-01,-6.326118707656860352e-01,-5.978226661682128906e-01,2.652626037597656250e-01,8.220953941345214844e-01,4.342080354690551758e-01,2.751760184764862061e-01,-1.983365714550018311e-01,2.642358541488647461e-01,2.775277495384216309e-01,4.302715063095092773e-01,-4.998798370361328125e-01,-3.846542835235595703e-01,-5.039334893226623535e-01,4.240833222866058350e-01
