-8.992227911949157715e-02
-7.290626168251037598e-01
-2.425789684057235718e-01
8.174372464418411255e-02
-4.680607616901397705e-01
-5.850370526313781738e-01
-5.640476197004318237e-02
-6.245113015174865723e-01
1.056089028716087341e-01
1.666190847754478455e-02
-4.694190919399261475e-01
-6.183559820055961609e-02
-1.302192062139511108e-01
-4.735799133777618408e-01
-7.331757545471191406e-01
6.843520700931549072e-02
-4.623580873012542725e-01
-9.454535692930221558e-02
1.840362399816513062e-01
-4.050085693597793579e-02
1.170110926032066345e-01
1.577292531728744507e-01
4.106214344501495361e-01
-2.622679769992828369e-01
-6.439003944396972656e-01
-2.012646049261093140e-01
-6.646429300308227539e-01
-8.900976926088333130e-02
-1.055606678128242493e-01
2.735342457890510559e-02
-3.348932564258575439e-01
5.417044088244438171e-02
4.333714768290519714e-02
-6.700876355171203613e-01
1.701245307922363281e-01
-1.629038304090499878e-01
-2.449215054512023926e-01
-4.402342736721038818e-01
2.108518481254577637e-01
-2.631235420703887939e-01
-1.183430403470993042e-01
-3.163661062717437744e-01
-3.845619261264801025e-01
-4.628682136535644531e-02
-3.537187874317169189e-01
-6.337604522705078125e-01
4.375659674406051636e-02
-1.960914433002471924e-01
9.018047899007797241e-02
9.572042152285575867e-03
-6.902443170547485352e-01
-1.215524822473526001e-01
-7.435577511787414551e-01
-2.268818914890289307e-01
-3.411141335964202881e-01
-1.729145199060440063e-01
-4.341141581535339355e-01
-3.613944649696350098e-01
-1.695003509521484375e-01
2.785464525222778320e-01
-1.617420613765716553e-01
-2.522377073764801025e-01
-1.771888583898544312e-01
-5.158666372299194336e-01
-2.809693217277526855e-01
-3.905385136604309082e-01
-2.481099665164947510e-01
1.421026587486267090e-01
5.409863591194152832e-01
1.547353249043226242e-02
-2.078364044427871704e-01
-1.432600766420364380e-01
-7.254337072372436523e-01
-2.159044146537780762e-03
-5.454001948237419128e-02
7.384548336267471313e-02
-2.401532530784606934e-01
-6.717925518751144409e-02
-1.189352869987487793e-01
-3.653457164764404297e-01
1.740556061267852783e-01
1.395356804132461548e-01
-4.830694198608398438e-01
-2.721111178398132324e-01
-1.597429215908050537e-01
-1.240778639912605286e-01
-3.698363304138183594e-01
-7.774916887283325195e-01
3.145608901977539062e-01
-6.738184094429016113e-01
3.124067783355712891e-01
1.367587447166442871e-01
-2.998433113098144531e-01
-1.511093825101852417e-01
-1.247137337923049927e-01
-2.549550831317901611e-01
4.334058612585067749e-02
-8.541527390480041504e-02
2.111854404211044312e-01
-1.882126033306121826e-01
