-2.035993576049804688e+00,4.987483918666839600e-01,2.557824850082397461e-01,5.194696784019470215e-01,7.883363962173461914e-02,-7.104942202568054199e-01,1.136984559707343578e-03,1.791910640895366669e-02,7.776017189025878906e-01,7.480118870735168457e-01,4.308961629867553711e-01,1.364752054214477539e-01
3.387351334095001221e-01,-2.007384151220321655e-01,-3.380511328577995300e-02,4.347051978111267090e-01,-1.077248096466064453e+00,1.701332181692123413e-01,-6.975336074829101562e-01,-3.737733662128448486e-01,-4.773496985435485840e-01,-9.946565628051757812e-01,-4.946943372488021851e-02,-6.644501686096191406e-01
-6.576988697052001953e-01,-3.138748705387115479e-01,4.782776534557342529e-01,3.352085351943969727e-01,-3.944391310214996338e-01,7.069190740585327148e-01,9.327077120542526245e-02,1.529436856508255005e-01,-1.034114435315132141e-01,-1.833026707172393799e-01,2.112777084112167358e-01,-1.000698924064636230e+00
1.230721116065979004e+00,-4.261458814144134521e-01,1.466664671897888184e-01,-4.288873970508575439e-01,4.981311559677124023e-01,-1.004730463027954102e-01,3.966683894395828247e-02,3.661071509122848511e-02,9.175983667373657227e-01,1.509016901254653931e-01,9.785763174295425415e-02,-1.892212033271789551e-01
4.165145754814147949e-01,1.036738991737365723e+00,-8.647665381431579590e-01,1.016747593879699707e+00,-1.113790392875671387e+00,1.941765844821929932e-01,-8.945553004741668701e-02,-1.902992650866508484e-02,1.080769896507263184e+00,-1.085903763771057129e+00,8.911142945289611816e-01,-1.308646518737077713e-02
4.150431603193283081e-02,-2.506460845470428467e-01,-7.339624166488647461e-01,-1.055001094937324524e-01,-7.774114608764648438e-01,-3.686038255691528320e-01,-5.284271836280822754e-01,-7.951668649911880493e-02,4.877974092960357666e-02,-1.054438114166259766e+00,1.127232983708381653e-01,-9.759979844093322754e-01
1.995499879121780396e-01,-7.264673113822937012e-01,3.788347244262695312e-01,-8.753216266632080078e-01,-3.586236238479614258e-01,2.263704389333724976e-01,-1.134307235479354858e-01,-6.449890881776809692e-02,8.973703384399414062e-01,2.236999124288558960e-01,8.170551061630249023e-01,-8.111268281936645508e-01
-1.565902352333068848e+00,1.273214966058731079e-01,6.018816232681274414e-01,-6.030104756355285645e-01,-8.494947552680969238e-01,-2.841898798942565918e-01,3.537313342094421387e-01,3.330603539943695068e-01,7.103069424629211426e-01,-8.659517765045166016e-01,8.535225391387939453e-01,-3.619460389018058777e-02
-8.597742319107055664e-01,1.304730772972106934e+00,-6.625238656997680664e-01,1.048921823501586914e+00,-4.308099448680877686e-01,-9.406501054763793945e-02,7.257367670536041260e-02,-1.157976463437080383e-01,2.078235000371932983e-01,3.967327177524566650e-01,1.198132634162902832e+00,2.928483486175537109e-01
1.269933700561523438e+00,-8.634611368179321289e-01,1.370223462581634521e-01,-1.021056652069091797e+00,-2.872931659221649170e-01,3.776491284370422363e-01,4.513855874538421631e-01,-3.555616596713662148e-03,-3.235597014427185059e-01,-3.858339488506317139e-01,1.379855424165725708e-01,-4.489400982856750488e-01
-8.968457579612731934e-01,-6.072566509246826172e-01,-3.072682023048400879e-01,-6.668900847434997559e-01,-3.118065297603607178e-01,4.611743614077568054e-03,5.301148295402526855e-01,1.722173392772674561e-01,2.096593379974365234e-01,-1.123750925064086914e+00,8.510553836822509766e-02,1.147886872291564941e+00
-1.374723672866821289e+00,3.177776038646697998e-01,-1.649785786867141724e-01,1.244542241096496582e+00,-6.996673941612243652e-01,2.993391454219818115e-01,-5.472618341445922852e-02,9.989658370614051819e-03,3.382990136742591858e-02,9.644148871302604675e-03,-2.967092692852020264e-01,2.013675272464752197e-01
2.177107930183410645e-01,1.291910052299499512e+00,6.094673871994018555e-01,-2.587188780307769775e-01,2.325476258993148804e-01,1.794138103723526001e-01,-2.350865006446838379e-01,-6.046207994222640991e-02,-4.724959731101989746e-01,3.680281937122344971e-01,3.425390720367431641e-01,3.272580802440643311e-01
1.134191751480102539e+00,-1.285889893770217896e-01,5.270889401435852051e-02,7.525973021984100342e-02,-5.854877233505249023e-01,3.866666853427886963e-01,-1.501670330762863159e-01,-3.878347575664520264e-01,7.003351449966430664e-01,-1.819264590740203857e-01,-6.025688052177429199e-01,4.993837773799896240e-01
8.159228563308715820e-01,1.126209139823913574e+00,-1.140631511807441711e-01,1.286986112594604492e+00,-8.954378366470336914e-01,-1.915348619222640991e-01,-2.906148135662078857e-01,3.568902015686035156e-01,2.320566475391387939e-01,-1.094319820404052734e+00,-4.839848577976226807e-01,1.047271937131881714e-01
-1.089559078216552734e+00,6.398764252662658691e-01,-2.097258120775222778e-01,-9.800491929054260254e-01,3.813317120075225830e-01,-3.911553919315338135e-01,1.960038989782333374e-01,1.535968631505966187e-01,8.633922934532165527e-01,1.146646365523338318e-01,-7.084076106548309326e-02,-3.131118416786193848e-02
5.225079655647277832e-01,-7.127279043197631836e-01,-2.752357125282287598e-01,-3.907505869865417480e-01,8.932397961616516113e-01,8.220491409301757812e-01,1.714529246091842651e-01,6.860750913619995117e-02,2.913742065429687500e-01,-7.282951474189758301e-01,4.581247568130493164e-01,3.041614294052124023e-01
-5.985247492790222168e-01,-2.126573473215103149e-01,4.987370669841766357e-01,-6.252817511558532715e-01,-5.145894289016723633e-01,4.223453104496002197e-01,-1.557840500026941299e-02,1.116735860705375671e-01,1.669868826866149902e-01,-2.258193641901016235e-01,3.545078337192535400e-01,1.612824052572250366e-01
1.404283165931701660e+00,-1.374917626380920410e+00,-7.316106557846069336e-02,-1.750937253236770630e-01,2.026906237006187439e-02,4.116822779178619385e-01,-2.035983800888061523e-01,-1.254105418920516968e-01,3.408475220203399658e-01,3.846065104007720947e-01,3.374391421675682068e-02,3.932085335254669189e-01
-4.185968637466430664e-01,-1.285916090011596680e+00,-6.440327167510986328e-01,8.016557097434997559e-01,-1.515422463417053223e-01,1.586803197860717773e-01,-1.217046231031417847e-01,1.522889453917741776e-02,-1.313399970531463623e-01,-1.726846545934677124e-01,3.201302587985992432e-01,-4.863705039024353027e-01
-6.979870796203613281e-01,3.000175952911376953e-01,-1.680721044540405273e-01,-4.518558382987976074e-01,1.203482627868652344e+00,4.289943873882293701e-01,-1.211649179458618164e-01,4.366574808955192566e-02,-5.570762604475021362e-02,3.736771345138549805e-01,-1.180624067783355713e-01,4.638120532035827637e-01
9.441537857055664062e-01,9.901849031448364258e-01,4.664018154144287109e-01,-7.683492898941040039e-01,1.127616167068481445e+00,-2.033640444278717041e-01,4.129401594400405884e-02,9.866840392351150513e-02,-3.602286875247955322e-01,2.372829318046569824e-01,1.690856367349624634e-02,-2.374989241361618042e-01
9.735882282257080078e-01,-1.132044792175292969e+00,-6.734744906425476074e-01,-4.084081947803497314e-01,7.565698027610778809e-01,-1.686569303274154663e-01,4.206970334053039551e-02,6.840781122446060181e-02,3.777326047420501709e-01,5.415974855422973633e-01,2.058982551097869873e-01,-4.529182314872741699e-01
6.545584797859191895e-01,-2.076937198638916016e+00,5.443104505538940430e-01,6.644167900085449219e-01,-6.513892412185668945e-01,1.815107613801956177e-01,-2.009851634502410889e-01,-1.187752559781074524e-01,-3.000003695487976074e-01,4.311721026897430420e-01,1.983279734849929810e-01,2.420129813253879547e-02
-8.000283241271972656e-01,1.707914590835571289e+00,-1.526549458503723145e-01,-1.518208235502243042e-01,2.810386717319488525e-01,-1.012733697891235352e+00,3.557998538017272949e-01,1.207940727472305298e-01,3.852100670337677002e-01,-5.216991305351257324e-01,1.054359674453735352e-01,3.144439309835433960e-02
2.741302847862243652e-01,-3.979792594909667969e-01,-9.929099082946777344e-01,-7.469385266304016113e-01,-2.674389183521270752e-01,4.213275015354156494e-01,-5.019109845161437988e-01,7.572744041681289673e-02,2.861181199550628662e-01,-5.512951612472534180e-01,4.252527654170989990e-01,-5.658233165740966797e-01
-2.245007157325744629e-01,1.759193986654281616e-01,-5.161086916923522949e-01,1.622629642486572266e+00,-3.592082560062408447e-01,6.415905803442001343e-02,3.925410509109497070e-01,9.716343134641647339e-03,8.556535094976425171e-02,-1.298057436943054199e+00,-7.970133423805236816e-01,6.414287686347961426e-01
6.448429822921752930e-01,1.203965902328491211e+00,-4.050303995609283447e-01,9.827001690864562988e-01,4.849088490009307861e-01,1.090879201889038086e+00,-4.246755540370941162e-01,2.219673944637179375e-03,9.817148745059967041e-02,2.198248915374279022e-02,5.927982926368713379e-01,-2.675794064998626709e-01
1.736034274101257324e+00,-2.533371746540069580e-01,1.023997291922569275e-01,8.505501747131347656e-01,3.798738718032836914e-01,4.608307406306266785e-02,-2.911521792411804199e-01,1.450362056493759155e-01,2.692329883575439453e-01,-2.830405235290527344e-01,9.056206792593002319e-03,-4.714448750019073486e-02
2.284013628959655762e-01,-9.932828545570373535e-01,-2.200691103935241699e-01,1.451187252998352051e+00,1.146865963935852051e+00,-4.153930246829986572e-01,-3.054910898208618164e-01,-7.979672402143478394e-02,-8.967817425727844238e-01,-1.981903016567230225e-01,-2.699043452739715576e-01,-3.992419540882110596e-01
-1.020331621170043945e+00,9.010691642761230469e-01,-7.448034733533859253e-02,-4.569064080715179443e-01,8.157512545585632324e-02,6.775242686271667480e-01,4.888624325394630432e-02,2.335701286792755127e-01,1.913441568613052368e-01,-4.454208016395568848e-01,-1.075043231248855591e-01,6.300100684165954590e-01
9.159740060567855835e-02,4.219925776124000549e-02,-1.289791464805603027e+00,6.332398653030395508e-01,-3.759155869483947754e-01,4.558265507221221924e-01,-3.682751953601837158e-01,1.353691369295120239e-01,-3.426032364368438721e-01,-3.343952596187591553e-01,4.478596746921539307e-01,2.037176936864852905e-01
3.993342071771621704e-02,-3.363514840602874756e-01,-1.033298730850219727e+00,-1.157902956008911133e+00,1.267935872077941895e+00,5.809235572814941406e-01,-4.383444413542747498e-02,1.723884791135787964e-01,-4.085477814078330994e-02,-2.357042878866195679e-01,9.623481035232543945e-01,2.480878680944442749e-01
-8.069105446338653564e-02,2.993674948811531067e-02,-5.421979725360870361e-02,1.117622494697570801e+00,-4.649779796600341797e-01,-9.469813108444213867e-01,1.200693771243095398e-01,-1.475249975919723511e-01,1.133923605084419250e-01,-8.775779008865356445e-01,5.306302905082702637e-01,-6.685532629489898682e-02
1.184693336486816406e+00,2.158338129520416260e-01,-1.442686021327972412e-01,1.427631378173828125e+00,2.975503206253051758e-01,-2.187007218599319458e-01,-4.525725916028022766e-02,-8.369750529527664185e-02,1.522679179906845093e-01,4.143408238887786865e-01,-6.559415906667709351e-02,3.471740186214447021e-01
8.249254226684570312e-01,-7.130808234214782715e-01,-1.006127119064331055e+00,3.209594264626502991e-02,9.976313263177871704e-02,-4.437847808003425598e-02,7.601247727870941162e-02,-1.729959845542907715e-01,2.670059800148010254e-01,-4.076963663101196289e-02,-4.240228831768035889e-01,5.687215551733970642e-02
-1.058953881263732910e+00,-1.878719180822372437e-01,-9.824249744415283203e-01,5.980473756790161133e-01,1.032437235116958618e-01,9.951587319374084473e-01,-1.358058452606201172e-01,3.209363818168640137e-01,4.503857791423797607e-01,-7.002674341201782227e-01,-4.121941626071929932e-01,-3.556756377220153809e-01
-6.486058235168457031e-01,-8.331201225519180298e-02,-1.333534479141235352e+00,2.259566783905029297e-01,5.222972631454467773e-01,1.051854342222213745e-01,-3.310755491256713867e-01,1.879472285509109497e-01,6.879043579101562500e-01,-7.002074718475341797e-01,2.011513570323586464e-03,-6.162946224212646484e-01
3.472459316253662109e-01,-5.159168243408203125e-01,-5.449451208114624023e-01,1.729423254728317261e-01,-1.528012380003929138e-02,-6.416650414466857910e-01,-7.680807262659072876e-02,-2.265060786157846451e-03,3.183743655681610107e-01,1.346610337495803833e-01,-4.622059166431427002e-01,-3.499582111835479736e-01
-5.049818158149719238e-01,1.038565263152122498e-01,8.965848088264465332e-01,1.766377806663513184e+00,2.709122300148010254e-01,-4.142572879791259766e-01,3.180481195449829102e-01,1.118184328079223633e-01,1.536825150251388550e-01,-8.901237696409225464e-02,-6.050698086619377136e-02,3.497031927108764648e-01
4.447317719459533691e-01,-1.557178020477294922e+00,-5.866417288780212402e-01,-7.814233303070068359e-01,-3.467989265918731689e-01,4.352199733257293701e-01,-1.370245665311813354e-01,-1.441959291696548462e-01,7.062007188796997070e-01,-6.735047101974487305e-01,-5.923328399658203125e-01,4.492676556110382080e-01
-1.016115993261337280e-01,-1.207149386405944824e+00,-1.551123142242431641e+00,6.879175901412963867e-01,-5.188896656036376953e-01,-1.449143439531326294e-01,6.201317068189382553e-03,-4.300564527511596680e-02,7.070091962814331055e-01,-1.347394138574600220e-01,3.243905305862426758e-01,3.479879498481750488e-01
-1.656397461891174316e+00,6.200977563858032227e-01,2.567132115364074707e-01,8.851073682308197021e-02,-8.533785343170166016e-01,-4.328631460666656494e-01,-1.762042045593261719e-01,-1.215140894055366516e-01,1.628672033548355103e-01,-6.188396215438842773e-01,-2.216579765081405640e-01,1.636590212583541870e-01
-3.155410289764404297e-01,9.326041936874389648e-01,-1.364166498184204102e+00,-7.959312796592712402e-01,-8.914906978607177734e-01,-2.100707143545150757e-01,-9.963084012269973755e-02,4.845345020294189453e-02,-3.768699467182159424e-01,-9.450066834688186646e-02,9.186416864395141602e-01,-1.724650114774703979e-01
1.488659620285034180e+00,8.855277299880981445e-01,9.541195034980773926e-01,1.819094717502593994e-01,3.119713664054870605e-01,-9.790582060813903809e-01,-1.040010899305343628e-02,1.348837371915578842e-02,4.684564769268035889e-01,-1.567774564027786255e-01,-7.070770263671875000e-01,-5.161684751510620117e-01
1.168768882751464844e+00,6.626572459936141968e-02,-1.164674535393714905e-01,-1.045236110687255859e+00,-5.492544174194335938e-02,-2.567588686943054199e-01,1.939794719219207764e-01,1.546990312635898590e-02,-8.142709732055664062e-02,-9.800977706909179688e-01,4.200172424316406250e-01,1.572465151548385620e-01
5.564219355583190918e-01,-3.267074003815650940e-02,3.162642121315002441e-01,8.191431164741516113e-01,-1.174622654914855957e+00,2.012490853667259216e-02,5.819022655487060547e-01,3.761223852634429932e-01,1.469679623842239380e-01,-2.512793615460395813e-02,-3.095494210720062256e-01,-6.453109532594680786e-02
9.871540069580078125e-01,1.313631653785705566e+00,5.287117511034011841e-02,-3.419158756732940674e-01,-6.282611489295959473e-01,-2.598530650138854980e-01,1.960697025060653687e-01,2.237435877323150635e-01,-2.386854290962219238e-01,3.305637538433074951e-01,4.657807052135467529e-01,-1.126845628023147583e-01
8.571501970291137695e-01,-1.258423447608947754e+00,2.222568839788436890e-01,6.084334254264831543e-01,2.618055641651153564e-01,7.102003693580627441e-01,-7.892375588417053223e-01,-9.047917276620864868e-02,-1.157213151454925537e-01,3.440478146076202393e-01,2.781318426132202148e-01,-3.161740601062774658e-01
1.714265942573547363e+00,-3.525109589099884033e-01,-3.388543725013732910e-01,-2.716386020183563232e-01,-8.182894587516784668e-01,6.309945583343505859e-01,-6.422454118728637695e-01,-1.454024165868759155e-01,-2.366138249635696411e-01,-3.627164065837860107e-01,-6.322352588176727295e-02,7.589786052703857422e-01
-1.291774988174438477e+00,-2.466152161359786987e-01,7.013197541236877441e-01,1.328061670064926147e-01,-8.330726623535156250e-01,6.400299668312072754e-01,3.027896583080291748e-01,-1.085270494222640991e-01,6.201623082160949707e-01,-6.853430867195129395e-01,2.075540274381637573e-01,1.217853128910064697e-01
-1.168028593063354492e+00,1.047928690910339355e+00,3.321788609027862549e-01,-1.530968546867370605e-01,6.990077495574951172e-01,-1.520620733499526978e-01,1.083569884300231934e+00,3.109981417655944824e-01,5.702221989631652832e-01,-4.697325080633163452e-02,2.177654355764389038e-01,1.976902037858963013e-01
-1.062609910964965820e+00,1.311250180006027222e-01,1.429866403341293335e-01,-2.409967035055160522e-01,-4.690013527870178223e-01,-1.159747958183288574e+00,-4.545709788799285889e-01,5.268157124519348145e-01,1.973690390586853027e-01,-5.386460423469543457e-01,-5.927739739418029785e-01,-1.641298085451126099e-01
3.730053603649139404e-01,-1.985500693321228027e+00,8.999689482152462006e-03,2.140237390995025635e-01,2.058551758527755737e-01,1.999626755714416504e-01,4.157043695449829102e-01,2.956115305423736572e-01,1.201188921928405762e+00,-2.756460309028625488e-01,-8.200237751007080078e-01,-2.917053699493408203e-01
3.330033421516418457e-01,-5.595226287841796875e-01,2.506498396396636963e-01,1.357338547706604004e+00,-1.510034680366516113e+00,7.672349214553833008e-01,2.008004486560821533e-02,4.028412103652954102e-01,-1.476690173149108887e-01,-7.159894704818725586e-01,1.947480887174606323e-01,-3.954491317272186279e-01
-2.934842109680175781e-01,3.109071552753448486e-01,-6.517294645309448242e-01,-2.479443848133087158e-01,7.938088178634643555e-01,4.814654588699340820e-01,-2.936269044876098633e-01,1.025994028896093369e-02,3.315584063529968262e-01,3.273482248187065125e-02,-6.740874648094177246e-01,-1.315987944602966309e+00
6.193169355392456055e-01,-5.398691296577453613e-01,6.406032443046569824e-01,5.346373319625854492e-01,5.045092105865478516e-02,-6.028035283088684082e-01,5.819901227951049805e-01,-4.721115157008171082e-02,-2.773308455944061279e-01,-8.686565607786178589e-02,7.654040236957371235e-04,-8.902532607316970825e-02
-1.712502956390380859e+00,1.640901267528533936e-01,-3.662382662296295166e-01,-4.487484991550445557e-01,-6.527308374643325806e-02,9.378776550292968750e-01,-2.434648126363754272e-01,-9.161859750747680664e-02,-5.385949015617370605e-01,-1.680208146572113037e-01,-7.532946020364761353e-02,-4.882231652736663818e-01
7.819735407829284668e-01,9.619531035423278809e-01,-8.514274954795837402e-01,-3.999753296375274658e-02,-8.181115612387657166e-03,-1.117865890264511108e-01,-1.894938945770263672e-02,1.959327459335327148e-01,3.020909428596496582e-01,5.457499623298645020e-01,4.041926562786102295e-02,2.275859266519546509e-01
1.788743734359741211e+00,-3.733432153239846230e-03,2.001629918813705444e-01,8.915114402770996094e-02,-5.866165757179260254e-01,-4.616656899452209473e-01,1.809097677469253540e-01,9.065861813724040985e-03,2.800690829753875732e-01,3.591448962688446045e-01,-2.288431227207183838e-01,4.308967590332031250e-01
5.194326639175415039e-01,8.858488798141479492e-01,-6.038598418235778809e-01,-8.869202136993408203e-01,-5.238683223724365234e-01,-5.280531048774719238e-01,-1.855091750621795654e-01,-2.383677661418914795e-01,-3.375838696956634521e-01,-3.207062184810638428e-01,1.376982629299163818e-01,1.030600294470787048e-01
6.709510087966918945e-01,1.013895034790039062e+00,1.015294790267944336e+00,3.001419305801391602e-01,7.455673217773437500e-01,7.307994961738586426e-01,1.200514361262321472e-01,2.658516727387905121e-02,6.296033263206481934e-01,1.659432053565979004e-01,4.429292380809783936e-01,2.914920449256896973e-01
3.494810163974761963e-01,4.519087672233581543e-01,1.294934272766113281e+00,8.840810060501098633e-01,-1.619075536727905273e+00,-5.751193761825561523e-01,-1.228657811880111694e-01,-3.692475259304046631e-01,1.087761595845222473e-01,-6.759278178215026855e-01,-1.353976782411336899e-02,1.951982975006103516e-01
5.565987825393676758e-01,-3.204009532928466797e-01,1.076660037040710449e+00,5.947837233543395996e-01,1.457004249095916748e-01,-1.091132521629333496e+00,1.436379104852676392e-01,3.473151028156280518e-01,4.183321595191955566e-01,-8.200532793998718262e-01,4.536540072876960039e-04,-5.450229048728942871e-01
-8.600314855575561523e-01,1.900392889976501465e+00,2.775501310825347900e-01,2.143391817808151245e-01,6.513321399688720703e-01,1.238448619842529297e-01,-6.113305315375328064e-02,-6.326702423393726349e-03,-6.838226318359375000e-01,-1.497258692979812622e-01,-1.196605801582336426e+00,-2.800392210483551025e-01
7.937340140342712402e-01,1.933269053697586060e-01,1.724402308464050293e-01,1.138100326061248779e-01,-2.062159478664398193e-01,8.087077736854553223e-01,-1.106326878070831299e-01,4.017095565795898438e-01,-6.389962136745452881e-02,-4.062822163105010986e-01,-4.447244107723236084e-02,2.229067087173461914e-01
-4.972720146179199219e-01,-3.974873125553131104e-01,-7.138240337371826172e-01,4.592647254467010498e-01,-1.453432738780975342e-01,1.264970302581787109e+00,-2.417329698801040649e-02,-2.727534472942352295e-01,-2.099285721778869629e-01,-1.323837518692016602e+00,-1.776633560657501221e-01,-4.219619929790496826e-01
1.074538469314575195e+00,-8.972004055976867676e-01,6.443934142589569092e-02,-1.290675848722457886e-01,-1.429993152618408203e+00,1.544697731733322144e-01,-4.157044366002082825e-02,6.780153512954711914e-02,7.155047357082366943e-02,6.220048666000366211e-01,-5.189419388771057129e-01,6.402044296264648438e-01
1.774410307407379150e-01,3.992824852466583252e-01,3.533082902431488037e-01,-9.621716141700744629e-01,-1.042504668235778809e+00,-1.205354809761047363e+00,-2.050086855888366699e-01,8.382104337215423584e-03,3.906301259994506836e-01,1.058545470237731934e+00,-1.097654819488525391e+00,6.565528362989425659e-02
-8.233238011598587036e-02,-6.311415433883666992e-01,-6.478283405303955078e-01,8.553295731544494629e-01,6.422758102416992188e-01,-5.503118038177490234e-01,4.428042173385620117e-01,2.662479877471923828e-01,5.638568997383117676e-01,4.287580847740173340e-01,-4.002706408500671387e-01,-4.358247220516204834e-01
8.310351967811584473e-01,-1.775568872690200806e-01,-2.750980556011199951e-01,-4.697111248970031738e-01,1.765368103981018066e+00,-2.019255459308624268e-01,-1.280500441789627075e-01,-1.023079976439476013e-01,-4.054028093814849854e-01,4.477387964725494385e-01,2.624766528606414795e-01,-2.641166150569915771e-01
-9.698556661605834961e-01,3.828019499778747559e-01,-9.844747185707092285e-01,1.134277224540710449e+00,3.691420853137969971e-01,-3.457869291305541992e-01,6.793420910835266113e-01,1.703766360878944397e-02,-4.474408626556396484e-01,-6.482582092285156250e-01,7.318418622016906738e-01,1.395749747753143311e-01
-1.014994263648986816e+00,-5.862853303551673889e-02,-1.228132128715515137e+00,1.527431726455688477e+00,2.245399542152881622e-02,-3.861319422721862793e-01,7.067334055900573730e-01,3.807346820831298828e-01,2.809232771396636963e-01,-1.290537118911743164e+00,-7.887431979179382324e-01,7.709197700023651123e-02
1.704700946807861328e+00,5.526078864932060242e-02,-6.775498390197753906e-01,1.314079403877258301e+00,-1.098097786307334900e-01,-6.196354031562805176e-01,3.529945015907287598e-01,2.997853048145771027e-02,5.864061117172241211e-01,2.678788602352142334e-01,-7.654836177825927734e-01,-1.100494712591171265e-01
-8.459235429763793945e-01,-6.666429638862609863e-01,-5.998905301094055176e-01,-7.875064760446548462e-02,-1.118533253669738770e+00,2.347720041871070862e-02,-5.783043056726455688e-02,7.585380226373672485e-02,5.007119774818420410e-01,-2.189227752387523651e-02,1.552262902259826660e-01,7.409518118947744370e-03
3.976205289363861084e-01,1.686072111129760742e+00,-1.292955040931701660e+00,-6.423234343528747559e-01,3.048114478588104248e-01,-1.621801406145095825e-01,-9.154023602604866028e-03,-1.229320000857114792e-02,-7.195249944925308228e-02,-3.715040981769561768e-01,4.139849543571472168e-02,2.416589856147766113e-01
1.303137898445129395e+00,9.794296622276306152e-01,-6.248155236244201660e-01,-6.009331345558166504e-01,-2.316356450319290161e-01,2.823896706104278564e-01,1.907073259353637695e-01,1.515771299600601196e-01,3.745633363723754883e-01,5.557739734649658203e-01,-7.388406991958618164e-01,5.964571833610534668e-01
7.789502739906311035e-01,-7.276129722595214844e-01,5.444068908691406250e-01,2.197686349973082542e-03,-5.402088761329650879e-01,-5.086199641227722168e-01,2.495951391756534576e-02,-1.218095198273658752e-01,3.411180973052978516e-01,2.374018579721450806e-01,-1.719362586736679077e-01,6.883025169372558594e-02
-4.096285626292228699e-02,1.605439782142639160e+00,3.095191717147827148e-01,4.076871275901794434e-01,-6.505310535430908203e-01,2.554103434085845947e-01,-6.191710755228996277e-02,-4.133654013276100159e-02,-8.042388558387756348e-01,4.055805504322052002e-01,-4.389731884002685547e-01,1.872080713510513306e-01
9.535955190658569336e-01,2.104897424578666687e-02,-4.635691344738006592e-01,5.624836683273315430e-01,-8.986352086067199707e-01,-1.192051053047180176e+00,-8.803410083055496216e-02,-9.441035240888595581e-02,-1.116337180137634277e-01,-4.836275875568389893e-01,1.747624389827251434e-02,-3.473510444164276123e-01
-1.300883650779724121e+00,2.393102943897247314e-01,3.544229865074157715e-01,-1.357918143272399902e+00,2.009885311126708984e-01,1.614604294300079346e-01,-2.285696715116500854e-01,3.658442199230194092e-02,-2.482783943414688110e-01,-2.048471868038177490e-01,-2.716142237186431885e-01,-8.789256215095520020e-02
3.511723279953002930e-01,2.022467374801635742e+00,8.443768024444580078e-01,-1.986409574747085571e-01,-4.162139296531677246e-01,-1.568238623440265656e-02,-1.068195328116416931e-01,-2.141410708427429199e-01,-3.590176403522491455e-01,-5.554635524749755859e-01,6.720854043960571289e-01,-1.343321800231933594e-01
4.724094271659851074e-01,-2.896543443202972412e-01,1.510449528694152832e+00,1.731161117553710938e+00,-1.200467124581336975e-01,3.281587064266204834e-01,-7.686196565628051758e-01,-3.756135106086730957e-01,1.076549887657165527e+00,-4.839809536933898926e-01,-2.782899141311645508e-01,-5.178411602973937988e-01
1.925888061523437500e+00,-6.230834499001502991e-02,8.540637791156768799e-02,2.599130868911743164e-01,-1.144068956375122070e+00,1.137683868408203125e+00,-5.299149155616760254e-01,1.412852704524993896e-01,-3.341617435216903687e-02,1.004182454198598862e-02,1.236024424433708191e-01,1.040473729372024536e-01
-7.971539348363876343e-02,-1.162887930870056152e+00,-1.509448528289794922e+00,-7.115272879600524902e-01,1.755087524652481079e-01,-6.081600189208984375e-01,3.732213079929351807e-01,1.383233666419982910e-01,-6.981042027473449707e-01,-5.177527070045471191e-01,3.332366794347763062e-02,3.478541672229766846e-01
3.625469505786895752e-01,4.507094919681549072e-01,4.451999664306640625e-01,-1.223158091306686401e-01,-2.027158290147781372e-01,6.191963553428649902e-01,4.156109094619750977e-01,2.145913988351821899e-01,-4.846152365207672119e-01,1.059290468692779541e-01,-3.313818573951721191e-01,-1.701398938894271851e-01
1.614276051521301270e+00,-1.023054197430610657e-01,1.942042112350463867e-01,5.624116063117980957e-01,5.278860330581665039e-01,-2.116188257932662964e-01,4.571484923362731934e-01,2.356723099946975708e-01,-7.103512436151504517e-02,-5.867789983749389648e-01,1.213728934526443481e-01,-5.744424089789390564e-02
-7.832332700490951538e-02,5.261939167976379395e-01,2.642033807933330536e-02,6.725550293922424316e-01,-1.063963413238525391e+00,-1.515720486640930176e-01,3.890803158283233643e-01,4.412339627742767334e-01,-4.526025652885437012e-01,-6.014433503150939941e-01,-7.957693189382553101e-02,4.983583986759185791e-01
-1.421427726745605469e+00,-1.250298500061035156e+00,-6.113626062870025635e-02,1.897767782211303711e+00,9.959107637405395508e-01,-1.847799569368362427e-01,-5.370824411511421204e-02,6.717089563608169556e-02,-4.576962590217590332e-01,5.147011876106262207e-01,-5.940993428230285645e-01,6.053619980812072754e-01
-4.020133912563323975e-01,-9.869772791862487793e-01,2.588144540786743164e-01,7.001520395278930664e-01,-1.492924332618713379e+00,-6.909527182579040527e-01,1.298812329769134521e-01,-4.691505730152130127e-01,-3.166771307587623596e-02,-6.107580065727233887e-01,-7.280133962631225586e-01,-6.151993274688720703e-01
-2.581612765789031982e-01,4.055626988410949707e-01,-1.179019361734390259e-01,-4.665652513504028320e-01,1.554479122161865234e+00,-4.892844259738922119e-01,5.204703658819198608e-02,6.738346815109252930e-02,1.137318611145019531e+00,3.418769687414169312e-02,-4.494228661060333252e-01,4.980046451091766357e-01
1.410668492317199707e+00,6.575311422348022461e-01,8.334900438785552979e-02,1.551156997680664062e+00,-1.631689630448818207e-02,2.498222589492797852e-01,-3.780055046081542969e-01,2.919972836971282959e-01,1.411271560937166214e-02,7.439824938774108887e-02,-3.745502606034278870e-02,-1.711601912975311279e-01
2.209470987319946289e+00,2.519865930080413818e-01,-8.078263700008392334e-02,1.321405172348022461e+00,2.318724524229764938e-03,3.011430613696575165e-02,2.578823268413543701e-01,1.467356979846954346e-01,-1.027335822582244873e-01,3.580553829669952393e-01,6.005711555480957031e-01,2.567444741725921631e-01
1.076120257377624512e+00,3.229558467864990234e-01,5.127384662628173828e-01,1.363742232322692871e+00,-2.125541418790817261e-01,-9.624736309051513672e-01,-2.356611192226409912e-01,-1.045205965638160706e-01,7.255999445915222168e-01,-5.031948089599609375e-01,3.034884929656982422e-01,1.892777383327484131e-01
-1.562356650829315186e-01,-4.003031253814697266e-01,2.940071523189544678e-01,-5.210099220275878906e-01,2.007975010201334953e-03,6.193073391914367676e-01,2.273626327514648438e-01,3.148078024387359619e-01,3.599879099056124687e-03,-6.114908307790756226e-02,-9.938406944274902344e-02,1.066293716430664062e+00
-2.049680471420288086e+00,8.594032526016235352e-01,-6.040593981742858887e-02,6.625523567199707031e-01,6.675610542297363281e-01,-2.824831604957580566e-01,-2.402053177356719971e-01,-1.465200781822204590e-01,5.762278661131858826e-02,-3.641505837440490723e-01,-1.802783645689487457e-02,4.567689597606658936e-01
3.457637429237365723e-01,1.289556503295898438e+00,4.418639838695526123e-01,1.008574843406677246e+00,2.216323167085647583e-01,-3.178851008415222168e-01,3.573146164417266846e-01,1.752188205718994141e-01,-1.171322464942932129e+00,4.597145691514015198e-02,2.789111733436584473e-01,-5.607930421829223633e-01
-1.011150240898132324e+00,7.615623474121093750e-01,1.233452439308166504e+00,-4.632453322410583496e-01,-3.511732518672943115e-01,5.346656441688537598e-01,-1.577242463827133179e-02,2.924205064773559570e-01,7.587109804153442383e-01,4.532946646213531494e-01,-2.665868699550628662e-01,-1.006293818354606628e-01
-1.262152433395385742e+00,-1.052535176277160645e+00,2.894636392593383789e-01,-8.307231068611145020e-01,7.023358941078186035e-01,-5.905308723449707031e-01,6.913916766643524170e-02,4.082443565130233765e-02,5.187123268842697144e-02,-1.574732959270477295e-01,4.554086029529571533e-01,1.588917672634124756e-01
6.107743382453918457e-01,3.972198963165283203e-01,-1.404933035373687744e-01,4.671691358089447021e-01,9.357127547264099121e-01,9.480732083320617676e-01,4.234625771641731262e-02,8.850415796041488647e-02,-1.377156376838684082e-01,-8.431696891784667969e-02,6.439963579177856445e-01,3.368490040302276611e-01
