-6.330255866050720215e-01,1.827272623777389526e-01,4.958322346210479736e-01,6.249668598175048828e-01,3.834253847599029541e-01,8.102396130561828613e-02,-2.207963168621063232e-01,-8.503758907318115234e-02,1.232760027050971985e-01,-2.361480295658111572e-01,-7.698003947734832764e-02,1.045264899730682373e-01,-4.316010326147079468e-02,1.463297940790653229e-02,5.318941473960876465e-01,-3.432015180587768555e-01,1.997736841440200806e-01,3.172170221805572510e-01,3.020955920219421387e-01,-7.656208425760269165e-02,5.873445421457290649e-02,-7.414996623992919922e-02,-2.940001152455806732e-02,-5.278294533491134644e-02,9.188026189804077148e-02,1.254423260688781738e-01,5.229331851005554199e-01,2.805880904197692871e-01,3.219288289546966553e-01,-4.654137194156646729e-01,1.035802513360977173e-01,1.742317229509353638e-01,2.627461962401866913e-02,3.174075782299041748e-01,3.307370543479919434e-01,3.352051973342895508e-01,3.843927085399627686e-01,1.681212335824966431e-01,-2.542382776737213135e-01,8.350677490234375000e-01,-4.172898828983306885e-01,-8.821204900741577148e-01,1.558843106031417847e-01,7.610572129487991333e-02,1.310015171766281128e-01,2.297336608171463013e-01,3.945643454790115356e-02,1.743803359568119049e-02,-6.803878545761108398e-01,1.167903072200715542e-03,3.836213648319244385e-01,-2.201873660087585449e-01,2.700523734092712402e-01,2.782610356807708740e-01,-3.056168854236602783e-01,2.979974746704101562e-01,2.573651373386383057e-01,-3.093621134757995605e-01,1.304975990206003189e-02,9.445732459425926208e-03,-5.514014139771461487e-02,3.251163661479949951e-01,2.172833234071731567e-01,6.275909543037414551e-01,7.349658012390136719e-02,2.568713128566741943e-01,3.045045025646686554e-02,-5.437901616096496582e-01,-7.346715927124023438e-01,2.634621858596801758e-01,-3.433585166931152344e-01,1.485058069229125977e-01,3.051393926143646240e-01,1.920903474092483521e-01,-3.937643468379974365e-01,6.593182086944580078e-01,-2.223845273256301880e-01,2.541352249681949615e-02,2.071559280157089233e-01,-6.989354640245437622e-02,2.260533347725868225e-02,4.295915663242340088e-01,2.083030045032501221e-01,-2.380869537591934204e-01,4.438529312610626221e-01,-8.581545948982238770e-02,3.703225851058959961e-01,3.940335512161254883e-01,-4.163074195384979248e-01,-1.992365270853042603e-01,-1.724796891212463379e-01,2.030957862734794617e-02,3.331944346427917480e-01,2.627276778221130371e-01,-1.625184863805770874e-01,-2.310240566730499268e-01,5.042185783386230469e-01,-3.958817124366760254e-01,2.639679014682769775e-01,5.632075667381286621e-01
-1.751497536897659302e-01,1.615975350141525269e-01,2.200110554695129395e-01,5.837654471397399902e-01,-8.793804049491882324e-02,3.176576197147369385e-01,1.060235798358917236e-01,5.794193223118782043e-02,-2.029702663421630859e-01,-2.862077057361602783e-01,-1.327472031116485596e-01,-1.564689911901950836e-02,-3.636282384395599365e-01,-6.321894377470016479e-02,-4.392173588275909424e-01,1.943749487400054932e-01,-1.363237053155899048e-01,1.391631960868835449e-01,-4.853142797946929932e-02,5.830493569374084473e-01,3.004049658775329590e-01,3.062075078487396240e-01,3.535016179084777832e-01,4.691347107291221619e-02,4.288935363292694092e-01,7.495243847370147705e-02,3.504627943038940430e-01,-8.050203323364257812e-01,1.833779811859130859e-01,3.616526722908020020e-01,1.022377014160156250e-01,2.913197278976440430e-01,-1.452024877071380615e-01,-2.281163483858108521e-01,8.281624317169189453e-02,1.641335189342498779e-01,-3.421321511268615723e-01,-1.272729486227035522e-01,3.723364323377609253e-02,2.989983856678009033e-01,-2.660613954067230225e-01,1.251490861177444458e-01,-6.852158159017562866e-02,2.792103961110115051e-02,-6.480627506971359253e-02,2.703744769096374512e-01,5.500334873795509338e-02,4.761918634176254272e-02,4.839051887392997742e-02,-2.981443703174591064e-01,-1.482453942298889160e-01,-1.021463498473167419e-01,1.356402933597564697e-01,9.202414005994796753e-02,-2.340339720249176025e-01,2.829955816268920898e-01,7.026920467615127563e-02,-2.185911834239959717e-01,-7.385804504156112671e-02,-3.189813345670700073e-02,-3.444507122039794922e-01,-1.851206570863723755e-01,-2.350150793790817261e-01,-2.086814343929290771e-01,3.257246613502502441e-01,-3.320150971412658691e-01,-1.146345436573028564e-01,1.760999411344528198e-01,1.637664884328842163e-01,2.635537385940551758e-01,2.348857820034027100e-01,5.089812874794006348e-01,-6.447771191596984863e-01,-2.667004764080047607e-01,2.121980041265487671e-01,1.705163717269897461e-01,1.081303954124450684e-01,-2.037856280803680420e-01,-2.780100405216217041e-01,8.192469179630279541e-02,-1.204054281115531921e-01,8.551171980798244476e-03,-6.320588588714599609e-01,-2.742811292409896851e-02,2.125780880451202393e-01,-1.635777652263641357e-01,-1.128834843635559082e+00,-2.981237769126892090e-01,4.436122775077819824e-01,-1.602392345666885376e-01,2.892695963382720947e-01,-3.561421036720275879e-01,-1.413667351007461548e-01,-4.347260892391204834e-01,1.133073717355728149e-01,4.478378221392631531e-02,-9.447114914655685425e-02,2.472084015607833862e-01,5.904756784439086914e-01,-1.199394743889570236e-02
1.003743931651115417e-01,-3.439723551273345947e-01,2.598488330841064453e-01,-4.703617393970489502e-01,-5.399203300476074219e-02,5.002840757369995117e-01,3.404039144515991211e-01,2.955358028411865234e-01,-7.874818518757820129e-03,-3.643148764967918396e-02,-1.354794949293136597e-01,7.597459107637405396e-02,-1.607353389263153076e-01,5.950397998094558716e-02,3.780603781342506409e-02,1.510506123304367065e-01,-2.973580267280340195e-03,3.432555794715881348e-01,6.096637621521949768e-02,-4.567770659923553467e-02,1.058889478445053101e-01,-1.317162215709686279e-01,2.137725204229354858e-01,2.037100791931152344e-01,4.030469954013824463e-01,2.585023874416947365e-03,1.643536537885665894e-01,1.916750669479370117e-01,-4.416719973087310791e-01,1.036739572882652283e-01,1.249653622508049011e-01,1.210389956831932068e-01,3.582529723644256592e-01,1.898561604321002960e-02,-6.467800587415695190e-03,3.594885468482971191e-01,1.118359491229057312e-01,3.907091915607452393e-01,1.822340488433837891e-01,-2.918852865695953369e-01,6.815657019615173340e-02,-2.619376480579376221e-01,-5.860451608896255493e-02,3.087894022464752197e-01,-4.003684818744659424e-01,-1.440038066357374191e-02,-1.563645713031291962e-02,-3.002314567565917969e-01,-3.529689311981201172e-01,-5.589049458503723145e-01,-1.165922209620475769e-01,-7.455492764711380005e-02,3.460548445582389832e-02,-1.074261218309402466e-01,1.491607874631881714e-01,3.040999770164489746e-01,1.986230164766311646e-02,7.401246577501296997e-02,1.143465042114257812e-01,-2.583315372467041016e-01,1.567839980125427246e-01,-3.866095542907714844e-01,-8.950203657150268555e-02,-2.283114194869995117e-01,2.976901531219482422e-01,1.724781244993209839e-01,-2.478246837854385376e-01,5.205616727471351624e-02,-3.843717277050018311e-02,-1.273187845945358276e-01,2.617839872837066650e-01,-3.869130313396453857e-01,-2.315681129693984985e-01,-7.898965477943420410e-01,2.976714372634887695e-01,5.732845067977905273e-01,-2.750259041786193848e-01,-9.157648310065269470e-03,-4.331093430519104004e-01,3.341376185417175293e-01,6.462404131889343262e-02,1.290007680654525757e-01,-4.484096169471740723e-01,-6.620843708515167236e-02,-1.349087506532669067e-01,6.005602702498435974e-02,-5.626131296157836914e-01,8.210967481136322021e-02,-2.230542749166488647e-01,2.199001163244247437e-01,2.840721309185028076e-01,1.988504678010940552e-01,-4.715653657913208008e-01,-2.974632196128368378e-02,-2.107358165085315704e-02,2.104028910398483276e-01,-2.347325673326849937e-03,-2.318693548440933228e-01,3.628580868244171143e-01,-3.801673948764801025e-01
6.381330490112304688e-01,-2.361236065626144409e-01,3.132285475730895996e-01,4.209530651569366455e-01,4.912081658840179443e-01,1.625870466232299805e-01,1.807887456379830837e-04,2.525423169136047363e-01,-3.503253757953643799e-01,4.668472111225128174e-01,2.040839493274688721e-01,2.645085752010345459e-01,-5.446750521659851074e-01,-3.148561809211969376e-03,1.457651406526565552e-01,2.806611061096191406e-01,-2.403953969478607178e-01,5.251519680023193359e-01,7.826624810695648193e-02,-1.011114940047264099e-02,-7.655551284551620483e-02,-4.546308815479278564e-01,7.384405285120010376e-02,4.940392673015594482e-01,2.795566804707050323e-02,-6.236331164836883545e-02,-5.247223190963268280e-03,5.951456427574157715e-01,1.615308374166488647e-01,-5.641156062483787537e-02,-4.060457646846771240e-01,-5.396299958229064941e-01,5.144693329930305481e-02,2.727851867675781250e-01,1.721673160791397095e-01,5.295727252960205078e-01,-1.191092431545257568e-01,-4.327242076396942139e-02,-1.241521686315536499e-01,1.047873258590698242e+00,2.922743260860443115e-01,2.786666750907897949e-01,4.810726344585418701e-01,-1.597228944301605225e-01,6.264085322618484497e-02,3.098775148391723633e-01,1.126482039690017700e-01,-4.103524684906005859e-01,-8.599974215030670166e-02,2.788545787334442139e-01,4.477310180664062500e-01,-9.653756767511367798e-02,-3.524502515792846680e-01,-2.298799306154251099e-01,-9.014476090669631958e-02,6.395369023084640503e-02,-1.107548177242279053e-02,-6.052191853523254395e-01,-1.231600642204284668e-01,2.592350915074348450e-02,-8.340083956718444824e-01,1.721161007881164551e-01,3.012316823005676270e-01,-7.288416028022766113e-01,1.722937971353530884e-01,-1.625879257917404175e-01,6.805657595396041870e-02,5.153580307960510254e-01,1.268536895513534546e-01,-1.661995351314544678e-01,-2.120893299579620361e-01,-1.382747590541839600e-01,-1.099948763847351074e+00,-4.827915877103805542e-02,2.026900351047515869e-01,2.928690612316131592e-01,-3.540426194667816162e-01,3.994406461715698242e-01,-6.505103409290313721e-02,-3.597946465015411377e-01,-1.674120873212814331e-02,-3.665380775928497314e-01,5.605903267860412598e-02,-1.444277316331863403e-01,6.605305671691894531e-01,9.229873865842819214e-02,-4.331438988447189331e-02,2.359753549098968506e-01,5.529386401176452637e-01,1.427586227655410767e-01,1.837145984172821045e-01,-1.740195155143737793e-01,5.486938357353210449e-02,3.071763217449188232e-01,1.023881733417510986e-01,1.091419532895088196e-01,1.302191913127899170e-01,-1.876797527074813843e-01,4.635767340660095215e-01,5.102574229240417480e-01
3.113201558589935303e-01,4.678674042224884033e-01,5.469549074769020081e-02,2.836103141307830811e-01,5.090515017509460449e-01,1.118044480681419373e-01,-1.343357283622026443e-02,1.835078895092010498e-01,-3.120139837265014648e-01,-3.176055848598480225e-01,1.447313129901885986e-01,3.793450295925140381e-01,8.154094964265823364e-02,5.000818148255348206e-02,-1.006946712732315063e-01,-3.293027356266975403e-02,-2.603245079517364502e-01,9.140530228614807129e-02,1.645991653203964233e-01,5.666484311223030090e-02,-2.016631513833999634e-02,-3.539425507187843323e-02,-3.102819621562957764e-01,2.836005389690399170e-01,-6.960933655500411987e-02,1.879911124706268311e-01,1.140747740864753723e-01,4.018316268920898438e-01,-1.060785502195358276e-01,2.950282394886016846e-01,-1.017930451780557632e-02,-1.365099698305130005e-01,-1.457604616880416870e-01,-1.912134140729904175e-01,1.120428219437599182e-01,-4.646605625748634338e-02,-5.158967375755310059e-01,-2.549854516983032227e-01,-3.532530367374420166e-01,9.365182518959045410e-01,4.732552170753479004e-01,2.008165568113327026e-01,6.608446687459945679e-02,-6.633396446704864502e-02,2.689653635025024414e-02,1.591054350137710571e-01,1.625555753707885742e-01,1.626881361007690430e-01,5.393998622894287109e-01,2.004666924476623535e-01,-1.537230163812637329e-01,4.445978701114654541e-01,-3.383108377456665039e-01,3.962292075157165527e-01,-1.901153922080993652e-01,1.065983343869447708e-02,1.722753196954727173e-01,1.794784814119338989e-01,-2.862627208232879639e-01,-4.632251858711242676e-01,-7.560625672340393066e-02,3.192920684814453125e-01,1.586955785751342773e-02,2.692845165729522705e-01,-8.674000948667526245e-02,-3.849755227565765381e-01,2.468270957469940186e-01,-3.851694464683532715e-01,-7.007256746292114258e-01,3.645897209644317627e-01,-3.967490494251251221e-01,1.037054583430290222e-01,6.890904903411865234e-01,-4.120418131351470947e-01,-1.248838901519775391e-01,-3.570651412010192871e-01,-6.270086765289306641e-01,8.756498992443084717e-02,-3.010572493076324463e-01,-4.086391329765319824e-01,-1.197782456874847412e-01,-3.383452892303466797e-01,2.462214976549148560e-01,-2.940721809864044189e-02,2.069177478551864624e-01,2.524935901165008545e-01,5.990522503852844238e-01,-8.257417380809783936e-02,-2.179018557071685791e-01,-3.736773431301116943e-01,-2.056993357837200165e-02,-2.977794706821441650e-01,2.476947903633117676e-01,-1.289815455675125122e-01,1.434498727321624756e-01,2.968436479568481445e-01,2.094895690679550171e-01,-4.720989987254142761e-02,-4.236658290028572083e-02,2.976731657981872559e-01
3.138222992420196533e-01,1.704807430505752563e-01,3.379513919353485107e-01,4.236579835414886475e-01,2.651951313018798828e-01,4.673250317573547363e-01,1.486902534961700439e-01,2.669331729412078857e-01,3.351395130157470703e-01,-4.475480020046234131e-01,4.337070286273956299e-01,-3.974396269768476486e-03,2.247936427593231201e-01,-1.612504273653030396e-01,1.423174142837524414e-01,1.947349756956100464e-01,-6.504860520362854004e-02,3.695297986268997192e-02,-4.750261604785919189e-01,8.002328127622604370e-02,-3.813464045524597168e-01,1.491785496473312378e-01,-4.675611257553100586e-01,-4.518298804759979248e-02,2.445345371961593628e-01,-1.784643530845642090e-01,5.222761631011962891e-01,-5.995852351188659668e-01,2.608968615531921387e-01,1.902932673692703247e-01,-3.092207945883274078e-02,1.890096999704837799e-02,-6.985849887132644653e-02,-2.630784511566162109e-01,-3.252978995442390442e-02,-2.733884751796722412e-01,-1.252129673957824707e-01,1.133463680744171143e-01,-1.506531387567520142e-01,1.653139442205429077e-01,8.478783071041107178e-02,9.587941318750381470e-02,2.976540625095367432e-01,-5.736042261123657227e-01,-1.863959580659866333e-01,7.787372916936874390e-02,-1.586114317178726196e-01,-1.890457123517990112e-01,-6.150399446487426758e-01,-5.425784587860107422e-01,-1.157256960868835449e-01,3.974510133266448975e-01,1.690464019775390625e-01,3.514834344387054443e-01,4.785472452640533447e-01,-3.828423917293548584e-01,-4.912916123867034912e-01,-2.929824590682983398e-01,-1.232184991240501404e-01,-3.169535994529724121e-01,-3.342170119285583496e-01,2.640961110591888428e-01,4.761644080281257629e-02,6.678670048713684082e-01,2.078849375247955322e-01,2.858489006757736206e-02,1.528950035572052002e-01,2.584754675626754761e-02,-1.143678799271583557e-01,1.385067105293273926e-01,6.558065861463546753e-02,1.590921878814697266e-01,4.778268933296203613e-02,7.412185892462730408e-03,1.240042448043823242e-01,-1.222150679677724838e-02,-1.603428423404693604e-01,-1.487387865781784058e-01,3.069415502250194550e-02,-1.901084035634994507e-01,-2.169376909732818604e-01,2.005786597728729248e-01,8.607719093561172485e-02,-1.947984546422958374e-01,2.595937848091125488e-01,1.778673529624938965e-01,2.488763034343719482e-01,5.123449563980102539e-01,3.139981925487518311e-01,-7.551673054695129395e-02,1.922864913940429688e-01,-1.102809980511665344e-01,3.799745440483093262e-02,6.063525751233100891e-02,-2.625502273440361023e-02,1.252611279487609863e-01,9.653705358505249023e-02,1.427732110023498535e-01,9.427264332771301270e-02,1.608455777168273926e-01
3.627028316259384155e-02,-3.074497729539871216e-02,9.191069006919860840e-02,-4.189474284648895264e-01,3.241145014762878418e-01,-1.659052819013595581e-01,-9.521188586950302124e-02,3.773266971111297607e-01,3.249391913414001465e-01,1.653495281934738159e-01,1.240159571170806885e-01,2.877911627292633057e-01,-2.266311459243297577e-02,-4.079082864336669445e-04,2.148070558905601501e-02,2.253069728612899780e-01,-4.748178720474243164e-01,5.282970070838928223e-01,3.163338899612426758e-01,-2.783261612057685852e-02,3.571730852127075195e-01,1.723105609416961670e-01,-2.543438971042633057e-01,6.351582705974578857e-02,8.064194917678833008e-01,1.558501273393630981e-01,5.032454133033752441e-01,-1.047929096966981888e-02,-1.440820991992950439e-01,1.981762051582336426e-02,1.392123699188232422e-01,-1.551315933465957642e-01,1.534362733364105225e-01,7.886751741170883179e-02,4.444431364536285400e-01,4.589184001088142395e-02,1.462750732898712158e-01,6.614118218421936035e-01,6.697539240121841431e-02,1.280241161584854126e-01,1.112819612026214600e-01,-1.523899100720882416e-02,-3.789993748068809509e-02,1.297358870506286621e-01,-3.261299729347229004e-01,5.863338336348533630e-02,1.607057750225067139e-01,7.587619870901107788e-02,1.904284060001373291e-01,2.082379311323165894e-01,3.195390403270721436e-01,8.052080124616622925e-02,4.975143074989318848e-02,-5.455615520477294922e-01,8.714909106492996216e-02,4.046109318733215332e-01,7.036610692739486694e-02,-6.180191785097122192e-02,4.103092476725578308e-03,4.565965831279754639e-01,-7.629119604825973511e-02,8.274571597576141357e-02,-6.412646174430847168e-02,-1.170439347624778748e-01,7.956728339195251465e-02,2.683580815792083740e-01,-7.355154305696487427e-02,-8.869613707065582275e-02,1.030775606632232666e-01,-3.920383751392364502e-01,-1.206741631031036377e-01,2.244118005037307739e-01,-2.655572593212127686e-01,-3.207910954952239990e-01,2.480771243572235107e-01,5.231317281723022461e-01,6.137762963771820068e-02,1.032534986734390259e-01,3.261908516287803650e-02,-9.064953774213790894e-02,1.317393630743026733e-01,-2.365188896656036377e-01,-7.665651440620422363e-01,8.257991820573806763e-02,-8.723774552345275879e-01,2.648414075374603271e-01,-6.042565703392028809e-01,-2.407150156795978546e-02,-3.797315061092376709e-01,-1.229114234447479248e-01,4.302283823490142822e-01,1.621319800615310669e-01,-3.192386031150817871e-01,-8.534432202577590942e-02,-6.752337813377380371e-01,-1.052843779325485229e-02,-8.399682492017745972e-02,-3.321038484573364258e-01,-2.089419662952423096e-01,-3.315192759037017822e-01
4.957396090030670166e-01,-8.411590754985809326e-02,4.100414365530014038e-02,-2.379030175507068634e-02,1.657612770795822144e-01,-2.810173928737640381e-01,-2.561841607093811035e-01,2.150935977697372437e-01,2.826652228832244873e-01,-4.242307245731353760e-01,4.011602699756622314e-02,1.480646282434463501e-01,3.305108845233917236e-01,-2.689614295959472656e-01,1.940703094005584717e-01,-4.216479659080505371e-01,-3.325243890285491943e-01,-1.467059105634689331e-01,-9.940660744905471802e-02,1.971168369054794312e-01,4.913672506809234619e-01,-1.425472944974899292e-01,-1.500804424285888672e-01,-4.928334802389144897e-02,2.087403833866119385e-01,7.597503066062927246e-02,6.378270983695983887e-01,2.413245439529418945e-01,2.954302132129669189e-01,1.854558587074279785e-01,6.686137616634368896e-02,2.245387732982635498e-01,-2.448661718517541885e-03,8.622869104146957397e-02,4.946741759777069092e-01,9.249291568994522095e-02,6.509532034397125244e-02,1.145598590373992920e-01,-1.543969511985778809e-01,-7.188266515731811523e-02,1.205563843250274658e-01,3.173376023769378662e-01,9.396169334650039673e-02,2.109404504299163818e-01,-6.695945560932159424e-02,-4.091114923357963562e-02,-4.549527168273925781e-01,1.142541691660881042e-02,1.058866307139396667e-01,-1.855848133563995361e-01,2.356349080801010132e-01,-1.343010812997817993e-01,-6.661574542522430420e-02,-1.375722438097000122e-01,6.938892602920532227e-02,6.163327693939208984e-01,-3.280207216739654541e-01,1.405105590820312500e-01,2.554941363632678986e-02,-1.100503504276275635e-01,-5.868132039904594421e-02,1.837353408336639404e-02,-3.883310034871101379e-02,-8.172283321619033813e-02,6.153264045715332031e-01,5.890644714236259460e-02,3.141511976718902588e-01,-6.873705387115478516e-01,-6.941919326782226562e-01,4.222497344017028809e-01,1.333026438951492310e-01,2.389670312404632568e-01,2.159872502088546753e-01,4.072235524654388428e-01,2.262624502182006836e-01,1.994101703166961670e-01,3.164469003677368164e-01,-3.270549476146697998e-01,2.503579854965209961e-01,-4.492793381214141846e-01,6.877635419368743896e-02,-1.684818789362907410e-02,-3.866877779364585876e-02,-8.389380574226379395e-02,4.155524969100952148e-01,-2.172884345054626465e-01,-4.110192656517028809e-01,-3.350193798542022705e-02,3.408534228801727295e-01,3.529994189739227295e-02,-1.209196075797080994e-01,5.954210832715034485e-02,-3.792776167392730713e-01,-8.233859390020370483e-02,-2.528708279132843018e-01,4.496788978576660156e-01,3.774779140949249268e-01,-1.212733909487724304e-01,-6.079868674278259277e-01,4.103467762470245361e-01
2.953865528106689453e-01,2.237244993448257446e-01,3.962781727313995361e-01,5.541373416781425476e-02,-6.691431999206542969e-02,-1.593154072761535645e-01,1.509860455989837646e-01,-2.016390301287174225e-02,-1.893265843391418457e-01,-5.780609846115112305e-01,4.097981378436088562e-02,6.149796843528747559e-01,5.036540031433105469e-01,1.502711325883865356e-01,4.978369921445846558e-02,3.304541110992431641e-01,5.486783012747764587e-02,1.047275587916374207e-01,2.826177179813385010e-01,4.649752676486968994e-01,5.534507036209106445e-01,5.144828557968139648e-01,-2.348535656929016113e-01,2.873230874538421631e-01,4.478238523006439209e-01,-2.610442042350769043e-01,4.484644830226898193e-01,-1.871130168437957764e-01,1.916913837194442749e-01,1.305806729942560196e-02,4.700709581375122070e-01,-5.008137822151184082e-01,-2.907408177852630615e-01,-2.280660569667816162e-01,3.927255570888519287e-01,2.026950009167194366e-02,-2.072432339191436768e-01,1.702198088169097900e-01,4.914661869406700134e-02,1.151845082640647888e-01,2.377096116542816162e-01,2.806901633739471436e-01,-2.747468948364257812e-01,-1.127538561820983887e+00,2.480114996433258057e-01,3.519112169742584229e-01,-8.252930641174316406e-02,3.919507935643196106e-02,1.919075697660446167e-01,-1.733315736055374146e-01,4.870106577873229980e-01,-1.013388782739639282e-01,-1.480449140071868896e-01,-3.959802389144897461e-01,-5.162683129310607910e-01,4.258618652820587158e-01,-5.662489533424377441e-01,6.907555460929870605e-02,-1.256081014871597290e-01,3.291675150394439697e-01,-8.356755226850509644e-02,1.380335837602615356e-01,-4.392908811569213867e-01,-1.118070334196090698e-01,5.933311581611633301e-01,-1.977633535861968994e-01,8.082143962383270264e-02,1.199070736765861511e-02,-8.364357799291610718e-02,2.294220179319381714e-01,9.836251288652420044e-02,-8.093553781509399414e-02,-1.073460653424263000e-01,5.665735155344009399e-02,-2.959551215171813965e-01,5.063630342483520508e-01,1.670999079942703247e-02,-2.608563303947448730e-01,4.156922698020935059e-01,2.077855318784713745e-01,-3.286797702312469482e-01,1.811574995517730713e-01,-3.658674657344818115e-01,-7.489767074584960938e-01,3.252877593040466309e-01,5.780672654509544373e-02,-2.569201290607452393e-01,-3.430625200271606445e-01,-8.460317552089691162e-02,-4.446763992309570312e-01,6.001982688903808594e-01,-3.402511030435562134e-02,6.085255369544029236e-02,-4.852120578289031982e-01,-2.507917284965515137e-01,9.576895833015441895e-02,5.297982096672058105e-01,-8.787581324577331543e-02,-4.948946237564086914e-01,3.444577157497406006e-01
8.686235547065734863e-01,-1.325516819953918457e+00,-1.760296709835529327e-02,2.771877944469451904e-01,2.089574933052062988e-01,-1.883335784077644348e-02,2.126631513237953186e-02,-4.501362740993499756e-01,4.608813822269439697e-01,1.924928724765777588e-01,-1.764539927244186401e-01,2.305615991353988647e-01,-9.771644324064254761e-02,9.181410819292068481e-02,3.826085850596427917e-02,2.130541205406188965e-01,4.224601760506629944e-02,1.998689398169517517e-02,-4.321623444557189941e-01,4.536982998251914978e-02,7.221797853708267212e-02,4.829395711421966553e-01,-2.361094057559967041e-01,-4.020946025848388672e-01,-1.283663213253021240e-01,-2.317475676536560059e-01,-9.924677014350891113e-02,3.185218274593353271e-01,3.346554040908813477e-01,-1.062289923429489136e-01,-3.344351649284362793e-01,-1.833146661520004272e-01,2.954958677291870117e-01,1.265078336000442505e-01,2.283731848001480103e-01,-6.246557831764221191e-02,-1.988920122385025024e-01,4.586974531412124634e-02,5.772521346807479858e-02,4.863414168357849121e-01,-5.193255841732025146e-03,4.169923961162567139e-01,3.101673424243927002e-01,2.438489720225334167e-02,1.387103497982025146e-01,3.379744887351989746e-01,-4.311123788356781006e-01,-3.946315944194793701e-01,1.719572842121124268e-01,-3.549817800521850586e-01,4.381720423698425293e-01,-1.256513781845569611e-02,-2.674471735954284668e-01,-2.614965140819549561e-01,-4.037954807281494141e-01,1.838550865650177002e-01,3.161734640598297119e-01,1.317854672670364380e-01,-4.695694446563720703e-01,-1.319952607154846191e-01,-2.250253707170486450e-01,3.655098378658294678e-01,2.017397880554199219e-01,-3.349736034870147705e-01,4.456808269023895264e-01,2.351505160331726074e-01,-5.347504019737243652e-01,-1.514703780412673950e-01,1.568790972232818604e-01,-1.547518223524093628e-01,-3.465258181095123291e-01,1.701301783323287964e-01,-1.904414892196655273e-01,2.079011052846908569e-01,2.267843112349510193e-03,2.748256921768188477e-01,3.113073706626892090e-01,-1.647203564643859863e-01,5.355677008628845215e-01,-8.662660717964172363e-01,2.679335772991180420e-01,3.304907679557800293e-01,-2.311916798353195190e-01,-1.154690757393836975e-01,4.957279264926910400e-01,-8.448000997304916382e-02,6.751010566949844360e-02,-7.100490927696228027e-01,2.108434587717056274e-01,1.122090034186840057e-02,7.826486974954605103e-02,1.192014962434768677e-01,9.504989720880985260e-04,1.733801662921905518e-01,1.075241062790155411e-02,-2.194272130727767944e-01,6.523754000663757324e-01,-1.387819498777389526e-01,2.109476625919342041e-01,1.461307704448699951e-01
5.191417932510375977e-01,1.112719848752021790e-01,1.752224713563919067e-01,1.677105128765106201e-01,6.275572627782821655e-02,3.164487332105636597e-02,2.544780969619750977e-01,1.475183293223381042e-02,2.455225735902786255e-01,1.597654670476913452e-01,1.604946404695510864e-01,-2.584954490885138512e-03,-7.097484916448593140e-02,4.978578165173530579e-02,1.585494428873062134e-01,-1.512659490108489990e-01,-3.503734618425369263e-02,2.131567746400833130e-01,2.427953295409679413e-02,-3.921900391578674316e-01,9.817106276750564575e-02,-4.090465307235717773e-01,-3.033364415168762207e-01,-6.306903958320617676e-01,-2.423561923205852509e-02,1.327283233404159546e-01,3.855569064617156982e-01,-1.118331253528594971e-01,-1.241349279880523682e-01,-3.859468698501586914e-01,3.398998081684112549e-02,8.771747350692749023e-02,-6.145449355244636536e-02,3.264440000057220459e-01,1.945414394140243530e-01,-1.031170189380645752e-01,-6.528626084327697754e-01,-2.971968613564968109e-02,1.575660407543182373e-01,3.012464940547943115e-01,-9.588722139596939087e-02,-4.811335206031799316e-01,2.116142362356185913e-01,1.571206897497177124e-01,-1.195062026381492615e-01,4.405414462089538574e-01,-1.720850467681884766e-01,-4.701941832900047302e-02,-2.566899657249450684e-01,3.765575587749481201e-01,3.037436902523040771e-01,-2.471334859728813171e-02,-2.800010442733764648e-01,9.924333542585372925e-02,1.173206865787506104e-01,3.121308982372283936e-01,4.395688474178314209e-01,7.159837484359741211e-01,6.856939196586608887e-02,-3.214344084262847900e-01,1.693757176399230957e-01,-3.386269211769104004e-01,-1.631415039300918579e-01,9.515205770730972290e-02,2.515993714332580566e-01,5.073128342628479004e-01,-1.740264594554901123e-01,3.271943926811218262e-01,-8.998342603445053101e-02,-4.643571674823760986e-01,-5.373621731996536255e-02,-3.777194023132324219e-01,-8.664694428443908691e-01,-3.354486525058746338e-01,4.325227439403533936e-01,2.552973031997680664e-01,2.857543230056762695e-01,6.135289091616868973e-03,5.506477952003479004e-01,4.260886311531066895e-01,5.284980535507202148e-01,7.190281897783279419e-02,-6.063963174819946289e-01,1.025133654475212097e-01,-1.967018470168113708e-03,-9.768899530172348022e-02,-2.003703862428665161e-01,-1.525427103042602539e-01,6.369059439748525620e-03,1.372216194868087769e-01,2.671202421188354492e-01,1.322671622037887573e-01,-1.856892555952072144e-01,-3.455249965190887451e-01,8.548346161842346191e-02,1.490310579538345337e-01,-2.176015973091125488e-01,-2.183113396167755127e-01,4.299346804618835449e-01,2.307259738445281982e-01
-1.986808180809020996e-01,-3.812642395496368408e-01,3.650327920913696289e-01,1.739193052053451538e-01,6.047644019126892090e-01,-1.620861291885375977e-01,-3.062671124935150146e-01,-2.860774993896484375e-01,-1.608302891254425049e-01,1.810989677906036377e-01,3.308758139610290527e-01,3.125227093696594238e-01,-3.366031348705291748e-01,1.023838222026824951e-01,8.244086802005767822e-02,-5.645678043365478516e-01,1.612815409898757935e-01,1.501178145408630371e-01,2.250612974166870117e-01,5.134969353675842285e-01,-3.696669638156890869e-01,-1.413859277963638306e-01,-5.412566661834716797e-02,-5.711402744054794312e-02,-1.174431852996349335e-02,7.654045242816209793e-03,4.069294929504394531e-01,1.284982860088348389e-01,4.764018356800079346e-01,-5.061097741127014160e-01,3.119737505912780762e-01,2.108998298645019531e-01,-1.818442791700363159e-01,-5.016871914267539978e-02,-4.391088187694549561e-01,4.059299528598785400e-01,6.247706711292266846e-02,-1.327215880155563354e-01,-2.451182752847671509e-01,4.267406165599822998e-01,3.348605930805206299e-01,7.283366322517395020e-01,2.437972575426101685e-01,-3.790678083896636963e-01,-3.401781320571899414e-01,-9.920916706323623657e-02,1.585089713335037231e-01,-1.208656188100576401e-02,3.008785843849182129e-02,-1.805848628282546997e-02,-1.157389432191848755e-01,-3.152569532394409180e-01,-2.692168578505516052e-02,2.219569683074951172e-01,5.757815241813659668e-01,-4.504309967160224915e-02,1.157713215798139572e-02,-1.572680622339248657e-01,5.539169535040855408e-02,8.836399018764495850e-02,-4.320884943008422852e-01,-2.261388748884201050e-01,1.164602413773536682e-01,2.076058536767959595e-01,1.538483053445816040e-01,2.824679315090179443e-01,-8.799956738948822021e-02,6.112928390502929688e-01,-6.975913643836975098e-01,-1.489766836166381836e-01,-6.291436403989791870e-02,3.852078914642333984e-01,-3.375343978404998779e-01,-1.405357122421264648e-01,1.370968818664550781e-01,-1.058878004550933838e-01,2.107314020395278931e-01,2.350444532930850983e-02,-2.472715973854064941e-01,-2.793010175228118896e-01,-3.236818909645080566e-01,-8.854590058326721191e-01,-8.047828078269958496e-01,4.743518829345703125e-01,-6.566666811704635620e-02,9.630022197961807251e-02,4.013425111770629883e-01,1.970505714416503906e-01,-1.362919658422470093e-01,2.712923288345336914e-01,-2.099500447511672974e-01,1.948044449090957642e-01,1.558926850557327271e-01,-1.519327610731124878e-01,7.380193471908569336e-02,2.110550999641418457e-01,1.208398789167404175e-01,-9.047075361013412476e-02,7.301402091979980469e-02,4.540140926837921143e-01
2.843887805938720703e-01,3.641042709350585938e-01,3.821894526481628418e-01,-2.815574407577514648e-02,1.032405495643615723e-01,3.008663952350616455e-01,1.999214142560958862e-01,2.397968322038650513e-01,1.984280049800872803e-01,-8.366839587688446045e-02,4.886529147624969482e-01,3.077464401721954346e-01,4.734861478209495544e-02,1.978360563516616821e-01,-2.570891976356506348e-01,-2.897742390632629395e-01,5.818318128585815430e-01,3.699159622192382812e-01,4.522813558578491211e-01,1.250948756933212280e-01,-4.554764628410339355e-01,-5.598149299621582031e-01,1.457698941230773926e-01,-2.415505796670913696e-02,2.371381819248199463e-01,-2.742266058921813965e-01,2.289931476116180420e-01,5.264872908592224121e-01,-2.305961102247238159e-01,5.482246279716491699e-01,4.140194356441497803e-01,-5.875312089920043945e-01,-9.235364794731140137e-01,3.514242768287658691e-01,5.938127636909484863e-01,-1.695871539413928986e-02,-1.004150211811065674e-01,-1.805717945098876953e-01,2.406965643167495728e-01,1.028386279940605164e-01,2.852576375007629395e-01,1.235070154070854187e-01,-4.632669389247894287e-01,1.156686767935752869e-01,-1.362310796976089478e-01,3.128377199172973633e-01,2.410582751035690308e-01,3.912067413330078125e-02,1.496502310037612915e-01,3.067185580730438232e-01,1.095058992505073547e-01,-1.957586593925952911e-02,1.315148640424013138e-02,-5.952416062355041504e-01,4.223721027374267578e-01,-5.742006003856658936e-02,-4.026526808738708496e-01,-3.010051250457763672e-01,-2.086831480264663696e-01,2.131357640027999878e-01,8.512599021196365356e-02,3.651636242866516113e-01,-1.486920714378356934e-01,-2.630544900894165039e-01,6.789996623992919922e-01,-3.714819550514221191e-01,2.664704322814941406e-01,4.211018085479736328e-01,5.855491757392883301e-02,-7.794754207134246826e-02,8.890343457460403442e-02,1.216290667653083801e-01,-5.025812387466430664e-01,-7.391557446680963039e-04,5.132900476455688477e-01,4.179216027259826660e-01,1.383335292339324951e-01,-1.038516834378242493e-01,5.159863233566284180e-01,5.462138652801513672e-01,-2.853859663009643555e-01,-6.362193822860717773e-01,-7.965599745512008667e-02,2.876226603984832764e-01,7.772426307201385498e-02,1.968034803867340088e-01,-3.172106444835662842e-01,-1.741132438182830811e-01,-2.013338804244995117e-01,-7.269333600997924805e-01,5.071440339088439941e-01,-3.505511581897735596e-01,2.136572003364562988e-01,-5.757603794336318970e-03,3.836359679698944092e-01,2.664667069911956787e-01,3.141812235116958618e-02,1.059435084462165833e-01,3.993250727653503418e-01,6.153156757354736328e-01
-3.754354780539870262e-03,3.236439451575279236e-02,3.169007971882820129e-02,4.841105639934539795e-02,3.781813383102416992e-01,7.425447460263967514e-03,7.117889076471328735e-02,5.529795885086059570e-01,-1.374266017228364944e-02,2.672565877437591553e-01,5.412659049034118652e-01,1.585616320371627808e-01,-8.183688670396804810e-02,-2.090283930301666260e-01,4.398217201232910156e-01,1.952179223299026489e-01,1.964910924434661865e-01,2.369697540998458862e-01,-3.959813714027404785e-02,3.844141960144042969e-02,-3.217702358961105347e-02,-3.478854149580001831e-02,1.995136775076389313e-02,4.069197177886962891e-02,5.905586481094360352e-01,8.437848091125488281e-02,2.403521910309791565e-03,8.298467099666595459e-02,2.625246644020080566e-01,4.660353660583496094e-01,1.407425105571746826e-01,-4.854900538921356201e-01,-1.089612580835819244e-02,6.981083005666732788e-02,1.137125939130783081e-01,2.560698986053466797e-01,-1.449020504951477051e-01,5.981583148241043091e-02,1.838067024946212769e-01,-2.875780165195465088e-01,2.243993282318115234e-01,1.833922266960144043e-01,2.575848698616027832e-01,4.044325351715087891e-01,-6.925286650657653809e-01,-5.163779109716415405e-02,-1.822951585054397583e-01,-7.153914570808410645e-01,5.384478345513343811e-02,1.464891135692596436e-01,2.628018856048583984e-01,2.524600923061370850e-01,3.045834302902221680e-01,-3.258282542228698730e-01,-2.438418865203857422e-01,3.756563365459442139e-01,-3.413343131542205811e-01,6.735130213201045990e-03,4.082331061363220215e-02,6.173470988869667053e-02,3.384835422039031982e-01,-3.239911794662475586e-02,-5.860399082303047180e-02,3.338894844055175781e-01,2.490083314478397369e-02,3.010120056569576263e-02,-7.546294331550598145e-01,-1.440585255622863770e-01,2.524313926696777344e-01,1.231664493680000305e-01,3.371028006076812744e-01,-2.108255773782730103e-01,-4.992533922195434570e-01,-8.668107390403747559e-01,-1.494381725788116455e-01,2.733744382858276367e-01,-4.051612317562103271e-01,-2.144736796617507935e-02,-8.492005616426467896e-02,3.966151475906372070e-01,-9.106139186769723892e-04,-2.606896162033081055e-01,-8.888095617294311523e-01,-2.383587956428527832e-01,2.814643383026123047e-01,-6.057816371321678162e-02,-4.022628664970397949e-01,-3.851684629917144775e-01,-5.333988070487976074e-01,-2.334613204002380371e-01,5.418716073036193848e-01,2.164392322301864624e-01,-2.895599603652954102e-01,-2.051497548818588257e-01,-7.918603718280792236e-02,-1.719968169927597046e-01,-1.224218308925628662e-01,-8.318638056516647339e-02,1.845427900552749634e-01,-1.281718909740447998e-01
-1.203377693891525269e-01,5.861213430762290955e-02,-6.100067868828773499e-02,5.224906206130981445e-01,2.140383049845695496e-02,-9.236270561814308167e-03,4.271970391273498535e-01,1.049420684576034546e-01,2.873606383800506592e-01,2.759694159030914307e-01,1.726278662681579590e-01,1.418938934803009033e-01,-5.638442933559417725e-02,1.608493626117706299e-01,-5.573026835918426514e-02,2.306163907051086426e-01,6.367631256580352783e-02,7.776646018028259277e-01,5.777183175086975098e-01,-4.339840263128280640e-02,3.529861271381378174e-01,2.706135809421539307e-01,5.873889327049255371e-01,2.215992510318756104e-01,3.850250691175460815e-02,-5.540784001350402832e-01,2.155142277479171753e-02,-2.195316851139068604e-01,-1.944623738527297974e-01,-2.902502417564392090e-01,-1.579820960760116577e-01,-6.766073703765869141e-01,1.087806448340415955e-01,-3.217013776302337646e-01,1.977487839758396149e-02,1.342560946941375732e-01,-3.965693414211273193e-01,-3.055844604969024658e-01,2.501748315989971161e-02,1.697545945644378662e-01,4.319723546504974365e-01,2.377591580152511597e-01,1.556318998336791992e-01,1.211131550371646881e-02,-2.811396420001983643e-01,4.206161201000213623e-01,-9.328294545412063599e-02,3.289332091808319092e-01,2.095945924520492554e-01,4.233864322304725647e-02,-6.720739603042602539e-02,9.821456670761108398e-02,-4.896773397922515869e-02,-1.893080770969390869e-01,-4.983088076114654541e-01,-3.897764161229133606e-02,-2.713920474052429199e-01,2.248405963182449341e-01,1.157304793596267700e-01,-3.588147461414337158e-02,-2.025218214839696884e-03,5.164449810981750488e-01,-3.535571396350860596e-01,1.263935863971710205e-01,-2.952614054083824158e-02,9.451923519372940063e-02,-1.407334953546524048e-01,2.624439299106597900e-01,5.029907077550888062e-02,-4.632685184478759766e-01,2.412183582782745361e-01,-1.738658100366592407e-01,-7.345985770225524902e-01,-1.712295562028884888e-01,2.274676859378814697e-01,1.931615471839904785e-01,1.911562383174896240e-01,-1.101081594824790955e-01,9.698192030191421509e-02,8.002450317144393921e-02,1.697268187999725342e-01,-2.940892875194549561e-01,-1.522823423147201538e-01,-1.060684397816658020e-01,-1.734148710966110229e-01,-1.108179092407226562e-01,-1.544517576694488525e-01,-3.523203432559967041e-01,-2.852403521537780762e-01,-2.753444314002990723e-01,6.421986222267150879e-01,-5.230227112770080566e-01,-2.240210324525833130e-01,-2.329442650079727173e-01,2.641040682792663574e-01,2.933947443962097168e-01,2.641479372978210449e-01,-6.774488720111548901e-04,4.740840494632720947e-01,2.173326015472412109e-01
-9.087271988391876221e-02,-2.287697941064834595e-01,2.030996382236480713e-01,-1.638624519109725952e-01,3.092123568058013916e-01,2.370459027588367462e-02,4.841073974967002869e-02,-7.758969813585281372e-02,3.819220662117004395e-01,-1.204286590218544006e-01,-2.789144814014434814e-01,1.562978178262710571e-01,1.620791852474212646e-01,-3.283828496932983398e-01,1.827802956104278564e-01,-5.205753818154335022e-02,-1.745330542325973511e-01,-1.856677681207656860e-01,-1.788790673017501831e-01,-1.501467525959014893e-01,2.958544790744781494e-01,-4.478036463260650635e-01,6.749814003705978394e-02,-5.409600734710693359e-01,-5.793816875666379929e-03,-9.016340374946594238e-01,-3.947365880012512207e-01,-1.959013789892196655e-01,-7.555472105741500854e-02,-1.285626739263534546e-01,3.876681625843048096e-01,-6.354244351387023926e-01,-5.191072076559066772e-02,-1.772475540637969971e-01,-5.219614133238792419e-02,4.710282981395721436e-01,1.111608296632766724e-01,-7.576006054878234863e-01,2.299074530601501465e-01,6.735372543334960938e-01,2.450102269649505615e-01,1.834677457809448242e-01,-2.881463766098022461e-01,7.506360113620758057e-02,-2.185809612274169922e-01,9.125360101461410522e-02,6.693086773157119751e-02,1.687023043632507324e-01,-5.158846378326416016e-01,-3.532550334930419922e-01,-4.339563474059104919e-02,2.775674760341644287e-01,-4.203317314386367798e-02,-1.945169866085052490e-01,3.953116759657859802e-02,2.183236181735992432e-01,6.326285004615783691e-02,-1.056578829884529114e-01,-6.820704787969589233e-02,1.804242283105850220e-01,4.579309523105621338e-01,1.337929368019104004e-01,-3.848359882831573486e-01,-1.043431013822555542e-01,4.717973247170448303e-02,8.590727299451828003e-02,-5.179688334465026855e-01,-5.466586723923683167e-02,1.014254912734031677e-01,-2.866159975528717041e-01,-7.931949198246002197e-02,-5.081892609596252441e-01,1.041884720325469971e-01,3.903792500495910645e-01,1.259640906937420368e-03,6.137955188751220703e-01,1.723660826683044434e-01,-1.425333917140960693e-01,5.184886455535888672e-01,4.130084514617919922e-01,-5.076124668121337891e-01,-2.207966744899749756e-01,-4.315142333507537842e-01,3.800713457167148590e-03,-1.262382417917251587e-01,3.656280636787414551e-01,-3.511632084846496582e-01,2.964994609355926514e-01,3.613968193531036377e-01,4.277503490447998047e-02,1.754041947424411774e-02,5.922791957855224609e-01,1.023010462522506714e-01,-4.059244096279144287e-01,2.654448747634887695e-01,-3.170711100101470947e-01,7.463733553886413574e-01,-1.085337549448013306e-01,-5.400016307830810547e-01,-4.179144278168678284e-02
-4.738274514675140381e-01,-3.816468417644500732e-01,3.399391174316406250e-01,6.248516496270895004e-03,3.878419101238250732e-01,-2.952668368816375732e-01,4.895922243595123291e-01,1.196514293551445007e-01,-2.243039160966873169e-01,-7.542736828327178955e-02,7.992391288280487061e-02,3.390455245971679688e-01,1.171368956565856934e-01,-6.106802448630332947e-02,1.811527162790298462e-01,-4.509249925613403320e-01,-1.520749460905790329e-02,-1.922583729028701782e-01,2.774099409580230713e-01,3.443002402782440186e-01,-2.709927558898925781e-01,2.662575617432594299e-02,2.330139726400375366e-01,-1.621357202529907227e-01,2.568527162075042725e-01,-5.350663661956787109e-01,-8.391500264406204224e-02,-2.724682092666625977e-01,-4.787230864167213440e-02,-9.239354729652404785e-02,7.270829379558563232e-02,-5.583680868148803711e-01,8.948618173599243164e-02,8.404523879289627075e-02,-2.044614776968955994e-02,-4.544136226177215576e-01,-1.741245985031127930e-01,-2.425653934478759766e-01,1.858395896852016449e-02,1.435187458992004395e-01,2.364069372415542603e-01,-9.212548285722732544e-02,-2.593455910682678223e-01,1.769274920225143433e-01,3.808516561985015869e-01,7.839723229408264160e-01,-6.214724853634834290e-02,-8.610873669385910034e-02,1.009449958801269531e-01,2.190513312816619873e-01,1.045228689908981323e-01,2.148384749889373779e-01,-9.695486724376678467e-02,1.768701076507568359e-01,1.888464391231536865e-01,1.123720686882734299e-02,-3.709925115108489990e-01,-1.930683702230453491e-01,-2.364066988229751587e-01,5.352475643157958984e-01,-9.033749997615814209e-02,1.626092046499252319e-01,2.661862373352050781e-01,3.598860800266265869e-01,9.884411096572875977e-02,2.705580294132232666e-01,-5.034767985343933105e-01,5.432767868041992188e-01,2.180697917938232422e-01,-3.386017084121704102e-01,-1.079718247056007385e-01,1.715234518051147461e-01,-1.286881859414279461e-03,1.435449868440628052e-01,1.243995875120162964e-01,-1.872834414243698120e-01,4.438460990786552429e-02,2.838617265224456787e-01,2.214578539133071899e-01,4.119186699390411377e-01,-1.197589114308357239e-01,-8.555299788713455200e-02,1.885953359305858612e-02,-2.449941933155059814e-01,-3.312950208783149719e-02,1.166364550590515137e-01,-2.169500142335891724e-01,9.324586391448974609e-02,-5.743465945124626160e-02,-2.839472591876983643e-01,-5.210676789283752441e-01,-2.597465515136718750e-01,-2.770172357559204102e-01,2.128272056579589844e-01,-1.076314523816108704e-01,-2.800981104373931885e-01,1.092835962772369385e-01,8.035428076982498169e-02,-2.124807983636856079e-01,3.018395900726318359e-01
1.865755468606948853e-01,-6.142003536224365234e-01,1.566884368658065796e-01,1.885066330432891846e-01,1.437530517578125000e-01,3.748282790184020996e-01,2.226295769214630127e-01,-3.360790312290191650e-01,-1.402497291564941406e-01,3.030430078506469727e-01,-1.096310392022132874e-01,-9.107013046741485596e-02,2.137943208217620850e-01,-1.066894456744194031e-02,-2.766590192914009094e-02,1.538771092891693115e-01,2.175547033548355103e-01,-3.049626350402832031e-01,1.338178813457489014e-01,2.391053736209869385e-01,3.485656678676605225e-01,2.865661382675170898e-01,4.798642396926879883e-01,-3.794398903846740723e-02,2.142715752124786377e-01,5.713857826776802540e-04,-4.000307619571685791e-01,2.935440540313720703e-01,2.392177432775497437e-01,1.464033424854278564e-01,1.394836455583572388e-01,-2.793921232223510742e-01,9.007035940885543823e-02,-1.432348489761352539e-01,9.044856578111648560e-02,1.607863605022430420e-01,-1.422279179096221924e-01,-2.786739729344844818e-02,2.077776193618774414e-01,4.317481070756912231e-02,3.277285397052764893e-01,1.695965677499771118e-01,2.814112901687622070e-01,-2.231035232543945312e-01,3.770005106925964355e-01,3.898361325263977051e-01,-5.103151202201843262e-01,-3.802410066127777100e-01,-1.616807281970977783e-01,-4.989030063152313232e-01,1.912755519151687622e-01,-1.364785283803939819e-01,-5.053211376070976257e-02,-3.718703091144561768e-01,-3.904874920845031738e-01,2.555949985980987549e-01,9.033690392971038818e-02,2.935599163174629211e-02,-4.866413772106170654e-01,3.538485616445541382e-02,2.103986777365207672e-02,2.687483727931976318e-01,-1.978565305471420288e-01,2.067312747240066528e-01,8.995963633060455322e-02,-1.447727084159851074e-01,1.199892982840538025e-01,-2.993964552879333496e-01,-1.409440487623214722e-01,-2.591460645198822021e-01,3.618521094322204590e-01,1.237173750996589661e-01,-2.424319982528686523e-01,-9.932592511177062988e-02,-1.689240634441375732e-01,-6.133246421813964844e-02,-8.166684955358505249e-02,9.054733812808990479e-02,1.162390038371086121e-01,-1.825735867023468018e-01,8.143106848001480103e-02,-1.213800609111785889e-01,-4.054457545280456543e-01,9.567037969827651978e-02,-2.871298789978027344e-01,7.082270830869674683e-02,3.240007758140563965e-01,-1.791186034679412842e-01,-2.134934663772583008e-01,1.837545186281204224e-01,6.855558753013610840e-01,7.343050837516784668e-02,2.236437499523162842e-01,1.407969444990158081e-01,-5.433906316757202148e-01,-1.399628221988677979e-01,3.058713674545288086e-01,-5.362965464591979980e-01,4.623491764068603516e-01,3.179028630256652832e-01
2.871384620666503906e-01,-3.571533858776092529e-01,1.765323430299758911e-01,2.277883440256118774e-01,4.083215445280075073e-02,8.759896457195281982e-02,-2.050911039113998413e-01,3.029746115207672119e-01,3.652413785457611084e-01,9.350962936878204346e-02,1.418812423944473267e-01,-1.130269095301628113e-01,-4.991089701652526855e-01,-3.798880279064178467e-01,2.090434581041336060e-01,2.485108822584152222e-01,-1.376088410615921021e-01,1.722402125597000122e-01,5.894352123141288757e-02,3.038616776466369629e-01,3.627697229385375977e-01,-1.763904392719268799e-01,3.677082657814025879e-01,-3.227317035198211670e-01,1.260704845190048218e-01,3.966474533081054688e-02,2.436190694570541382e-01,-2.699500024318695068e-01,-7.452947646379470825e-02,4.399157762527465820e-01,-5.495617911219596863e-02,-6.865490227937698364e-02,-2.907650470733642578e-01,3.506484329700469971e-01,7.696232944726943970e-02,2.952463924884796143e-01,-4.555495381355285645e-01,-5.659777522087097168e-01,1.161078065633773804e-01,6.485947221517562866e-02,2.667437493801116943e-01,6.698594093322753906e-01,-2.595454752445220947e-01,2.347965687513351440e-01,-4.102498888969421387e-01,1.432668715715408325e-01,-7.112776394933462143e-03,5.602461695671081543e-01,2.338281087577342987e-02,-1.142555288970470428e-02,-3.547387123107910156e-01,-2.529694437980651855e-01,-1.113635897636413574e-01,2.564639598131179810e-02,4.864161610603332520e-01,2.540285289287567139e-01,2.041108757257461548e-01,2.606657445430755615e-01,2.827229499816894531e-01,2.195934206247329712e-01,-8.770000934600830078e-02,-4.306405410170555115e-02,-1.158807516098022461e+00,-9.984962642192840576e-02,6.578430533409118652e-02,-9.882581979036331177e-02,-2.533024251461029053e-01,3.328798115253448486e-01,1.794030889868736267e-02,-5.460841655731201172e-01,7.532727718353271484e-02,-1.916621476411819458e-01,-5.017223358154296875e-01,-1.460059732198715210e-01,7.684117555618286133e-01,3.402288556098937988e-01,3.575471341609954834e-01,-2.095591425895690918e-01,6.463231146335601807e-02,3.301649540662765503e-02,-1.924746334552764893e-01,-6.626403331756591797e-01,-5.381693481467664242e-04,-2.511386573314666748e-02,9.998044697567820549e-04,-2.875006198883056641e-02,2.386844158172607422e-01,4.215189069509506226e-02,-4.487280175089836121e-02,-3.115831315517425537e-01,2.252908349037170410e-01,-1.454580277204513550e-01,-1.805758923292160034e-01,-2.663866281509399414e-01,-2.482017874717712402e-01,5.796059966087341309e-01,6.057042479515075684e-01,-1.141986846923828125e-01,3.014182150363922119e-01,-1.012422814965248108e-01
6.484546512365341187e-02,1.291168928146362305e-01,2.157710641622543335e-01,9.751749038696289062e-02,1.568485647439956665e-01,6.807693839073181152e-02,-4.633478820323944092e-01,5.167628079652786255e-02,1.909699887037277222e-01,1.293728202581405640e-01,7.466638833284378052e-02,4.259401261806488037e-01,-2.539235651493072510e-01,-2.208825498819351196e-01,3.881778419017791748e-01,-1.051857918500900269e-01,-1.075006499886512756e-01,-9.619555622339248657e-02,-2.884511649608612061e-01,2.132353782653808594e-01,-2.452124357223510742e-01,-1.780681908130645752e-01,-7.114102840423583984e-01,-1.771779805421829224e-01,8.062215894460678101e-02,4.032865911722183228e-02,6.644942760467529297e-01,-3.133983612060546875e-01,2.411232590675354004e-01,-5.000032782554626465e-01,-1.540195494890213013e-01,6.991584897041320801e-01,-1.854785084724426270e-01,1.529731899499893188e-01,2.804480195045471191e-01,-1.765689700841903687e-01,1.909019201993942261e-01,1.200111433863639832e-01,-1.717994809150695801e-01,6.178984642028808594e-01,3.412112593650817871e-02,-5.072420239448547363e-01,4.783863723278045654e-01,-4.058064147830009460e-02,1.123625487089157104e-01,-9.729596227407455444e-02,1.386459171772003174e-02,1.130089238286018372e-01,-5.093613862991333008e-01,-1.258743554353713989e-01,-6.762246042490005493e-02,2.344688214361667633e-02,4.897494334727525711e-03,1.478619724512100220e-01,8.929641544818878174e-02,7.134366035461425781e-02,3.065027296543121338e-01,1.955793611705303192e-02,-2.940299510955810547e-01,3.475541770458221436e-01,-2.318985164165496826e-01,-4.061438441276550293e-01,1.219547539949417114e-01,1.279070973396301270e-01,-1.525271832942962646e-01,-4.342502057552337646e-01,1.958433836698532104e-01,3.335211277008056641e-01,1.595396995544433594e-01,6.352158635854721069e-02,-6.301863193511962891e-01,-1.142504159361124039e-02,-1.536892950534820557e-01,1.699965000152587891e-01,1.132350787520408630e-01,3.988499641418457031e-01,-5.328581929206848145e-01,2.276995964348316193e-02,4.536025226116180420e-01,-2.633053623139858246e-02,5.399156734347343445e-02,1.328088901937007904e-02,-2.683609724044799805e-01,2.311714887619018555e-01,-2.259697169065475464e-01,-3.359885886311531067e-02,1.424310952425003052e-01,2.477969825267791748e-01,2.418878376483917236e-01,-2.275683544576168060e-02,-2.525270581245422363e-01,2.810288071632385254e-01,2.738262712955474854e-01,2.928872108459472656e-01,-6.923734396696090698e-02,-2.628289461135864258e-01,5.889104604721069336e-01,-5.075788125395774841e-02,4.245090782642364502e-01,-2.209211736917495728e-01
5.442533493041992188e-01,-2.021881341934204102e-01,1.122682243585586548e-01,-3.411745280027389526e-02,3.818555176258087158e-01,1.358294188976287842e-01,-2.473667711019515991e-01,2.726225852966308594e-01,-9.825512766838073730e-02,-6.110332012176513672e-01,2.477876096963882446e-01,4.704429507255554199e-01,-1.819255799055099487e-01,-3.515221178531646729e-01,-2.585103809833526611e-01,1.759708821773529053e-01,4.384547844529151917e-02,-1.554821133613586426e-01,-1.444333046674728394e-01,-5.412290804088115692e-03,4.610714316368103027e-01,-2.345915734767913818e-01,3.486375212669372559e-01,1.839227378368377686e-01,1.759168109856545925e-03,-7.831386476755142212e-02,3.865563273429870605e-01,6.137480139732360840e-01,3.494203090667724609e-01,1.027203127741813660e-01,1.137480288743972778e-01,1.811407655477523804e-01,-1.477446705102920532e-01,3.289348632097244263e-02,2.253892123699188232e-01,4.459831863641738892e-02,9.842512756586074829e-02,-2.237733639776706696e-02,-8.456403017044067383e-01,-2.235320396721363068e-02,-2.393917180597782135e-02,1.828462630510330200e-01,5.585962533950805664e-02,1.840022802352905273e-01,5.306691527366638184e-01,5.702898502349853516e-01,-2.486932724714279175e-01,2.801207005977630615e-01,3.016384243965148926e-01,-5.217822194099426270e-01,4.249546229839324951e-01,-4.376060068607330322e-01,6.418484449386596680e-02,-2.095914036035537720e-01,8.244238048791885376e-02,6.481692194938659668e-01,1.293828040361404419e-01,3.734524250030517578e-01,1.468303948640823364e-01,-2.181221544742584229e-01,-7.096338272094726562e-01,-4.180553257465362549e-01,-2.864179909229278564e-01,-3.159675300121307373e-01,3.441443145275115967e-01,1.837452650070190430e-01,8.864888548851013184e-02,-6.238098740577697754e-01,-5.813895463943481445e-01,2.548826625570654869e-03,-1.721992939710617065e-01,1.323685795068740845e-01,3.101989924907684326e-01,-8.216384053230285645e-02,-4.320132732391357422e-02,-1.523487269878387451e-01,-2.339987009763717651e-01,-4.852634966373443604e-01,3.051912188529968262e-01,-5.121134519577026367e-01,-1.481648981571197510e-01,-1.110792011022567749e-01,5.008702278137207031e-01,1.149876937270164490e-01,4.283976182341575623e-02,6.009545177221298218e-03,-4.454446434974670410e-01,3.058875799179077148e-01,4.813968539237976074e-01,1.407584995031356812e-01,3.218467533588409424e-01,3.512978255748748779e-01,-9.073638170957565308e-02,4.186553359031677246e-01,-5.367343872785568237e-02,7.180712223052978516e-01,1.888154000043869019e-01,2.853911556303501129e-02,2.000883370637893677e-01,5.477077960968017578e-01
-8.521423935890197754e-01,-5.819603800773620605e-01,1.799624413251876831e-01,-2.014653831720352173e-01,1.322117298841476440e-01,2.537826895713806152e-01,-5.516589432954788208e-02,1.952228397130966187e-01,3.287256881594657898e-02,3.365806117653846741e-02,2.277477830648422241e-02,2.321637934073805809e-03,4.208455979824066162e-02,1.190677285194396973e-01,1.120807603001594543e-01,1.307488977909088135e-01,5.913865566253662109e-01,2.327297031879425049e-01,-8.532792925834655762e-01,2.364754974842071533e-01,2.670395076274871826e-01,-3.054662942886352539e-01,-2.953278422355651855e-01,-2.482768148183822632e-01,2.329941466450691223e-02,4.569697976112365723e-01,-1.083315089344978333e-01,2.244947850704193115e-01,2.202598154544830322e-01,8.376214653253555298e-03,1.335030645132064819e-01,2.578807175159454346e-01,-8.599306643009185791e-02,-1.180841699242591858e-01,-1.262565106153488159e-01,-2.529446184635162354e-01,2.990958094596862793e-01,3.701906800270080566e-01,-1.347230970859527588e-01,-3.625026941299438477e-01,-2.948680818080902100e-01,-2.018671482801437378e-01,2.820685505867004395e-01,1.527003385126590729e-02,5.131556987762451172e-01,4.199047982692718506e-01,-1.374364644289016724e-01,-1.724670827388763428e-01,-3.360897898674011230e-01,3.608385622501373291e-01,4.218074381351470947e-01,-1.238274276256561279e-01,-1.903299391269683838e-01,3.010004460811614990e-01,-2.046388685703277588e-01,3.021734654903411865e-01,2.404556423425674438e-01,2.406953871250152588e-01,-5.044446513056755066e-02,1.421789526939392090e-01,2.732225358486175537e-01,2.471414953470230103e-01,3.360864818096160889e-01,1.966699957847595215e-01,1.874626129865646362e-01,1.383665949106216431e-01,-1.068183332681655884e-01,-1.544484347105026245e-01,-6.467460393905639648e-01,-2.477241680026054382e-02,-5.749821066856384277e-01,5.554046854376792908e-02,-6.687724031507968903e-03,-3.789382874965667725e-01,-1.225589066743850708e-01,2.259591668844223022e-01,-1.105167046189308167e-01,6.233372539281845093e-02,4.050815999507904053e-01,1.545050740242004395e-01,1.678370088338851929e-01,3.855080008506774902e-01,-1.035614013671875000e+00,1.013316866010427475e-02,-2.002941668033599854e-01,1.008634120225906372e-01,3.691080212593078613e-01,-1.502216011285781860e-01,-5.265937745571136475e-02,1.337242275476455688e-01,-3.360917866230010986e-01,-1.053727343678474426e-01,2.258108854293823242e-01,3.924002647399902344e-01,5.633634701371192932e-02,8.432777225971221924e-02,-7.368260622024536133e-02,-3.476864993572235107e-01,1.501594036817550659e-01,4.224020838737487793e-01
1.212273836135864258e-01,-1.189521104097366333e-01,3.705149888992309570e-01,-1.386227756738662720e-01,7.625600695610046387e-01,-2.160796821117401123e-01,-1.014513969421386719e-01,-1.502334699034690857e-02,1.516334414482116699e-01,4.326228424906730652e-02,6.038717627525329590e-01,7.883802056312561035e-01,4.768817126750946045e-02,1.147207096219062805e-01,3.104600608348846436e-01,3.331929147243499756e-01,5.510335564613342285e-01,-3.618834912776947021e-01,-4.818064346909523010e-02,5.631453394889831543e-01,3.598029315471649170e-01,2.259080559015274048e-01,2.445431500673294067e-01,2.214927524328231812e-01,2.979522645473480225e-01,-4.926396906375885010e-01,4.815863668918609619e-01,3.949695229530334473e-01,7.255744338035583496e-01,2.584669291973114014e-01,-8.331725597381591797e-01,5.356633290648460388e-02,-3.067135512828826904e-01,1.113204732537269592e-01,4.055756032466888428e-01,1.703549474477767944e-01,-2.932767756283283234e-02,-3.333515226840972900e-01,-3.827749490737915039e-01,-1.253324002027511597e-02,-8.413009643554687500e-01,3.258295655250549316e-01,6.447920203208923340e-01,6.639635562896728516e-01,-1.819261610507965088e-01,3.416404128074645996e-01,-6.569598615169525146e-02,1.459723562002182007e-01,1.797162592411041260e-01,-2.756914123892784119e-02,2.063000351190567017e-01,1.419591754674911499e-01,-3.697549104690551758e-01,1.897836476564407349e-02,3.582698106765747070e-01,1.799284815788269043e-01,1.400620043277740479e-01,-4.148558974266052246e-01,9.645995497703552246e-02,-2.737025022506713867e-01,-2.443945854902267456e-01,8.648306876420974731e-02,-6.788109242916107178e-02,-7.489142939448356628e-03,-1.535250097513198853e-01,-2.063187658786773682e-01,5.598582625389099121e-01,1.255946885794401169e-02,-2.319513708353042603e-01,2.249693721532821655e-01,-3.392968326807022095e-02,-9.036403149366378784e-03,1.253654658794403076e-01,-4.793927371501922607e-01,6.090576201677322388e-02,5.757301449775695801e-01,3.840943574905395508e-01,-1.047874689102172852e+00,-1.627135127782821655e-01,-1.248790323734283447e-01,-3.908724188804626465e-01,-3.628100752830505371e-01,2.077981829643249512e-01,4.198262691497802734e-01,2.908756732940673828e-01,-6.184567138552665710e-02,-9.688186049461364746e-01,-1.195345371961593628e-01,3.547263741493225098e-01,-4.416515529155731201e-01,4.555022418498992920e-01,1.348961144685745239e-01,-3.330528736114501953e-01,-4.702529013156890869e-01,2.817113995552062988e-01,-7.713928073644638062e-02,5.237076804041862488e-02,-6.367078423500061035e-01,5.609562993049621582e-01,2.008634358644485474e-01
1.286136955022811890e-01,-2.203677445650100708e-01,4.704001247882843018e-01,2.620278391987085342e-03,-1.311973929405212402e-01,5.104674100875854492e-01,-1.463559269905090332e-01,6.712337732315063477e-01,-3.227674365043640137e-01,-4.502059519290924072e-01,-2.392982840538024902e-01,-2.003524452447891235e-02,-5.767202377319335938e-01,1.392349693924188614e-02,1.486855652183294296e-02,-4.615429937839508057e-01,-3.163144364953041077e-02,-5.555616691708564758e-02,7.935522496700286865e-02,4.459330141544342041e-01,-6.620279550552368164e-01,-4.831148386001586914e-01,-2.332055754959583282e-02,3.410852253437042236e-01,3.924783468246459961e-01,2.742325961589813232e-01,2.951777279376983643e-01,-5.544345974922180176e-01,6.737179309129714966e-02,7.108504325151443481e-02,7.276477664709091187e-02,1.675301417708396912e-02,-1.106584519147872925e-01,-2.675341665744781494e-01,2.292378544807434082e-01,-2.756733680143952370e-03,-1.552730500698089600e-01,3.001841902732849121e-02,1.981507688760757446e-01,1.048748344182968140e-01,-7.796136289834976196e-02,3.826872445642948151e-03,-1.015126481652259827e-01,-1.697372645139694214e-01,2.401803620159626007e-02,2.537091821432113647e-02,1.167925372719764709e-01,9.622966498136520386e-02,-3.190011084079742432e-01,-2.840793691575527191e-02,1.231939624994993210e-02,-3.351122736930847168e-01,3.351528942584991455e-01,-1.678799651563167572e-02,2.332348376512527466e-01,5.927503108978271484e-02,-3.419570326805114746e-01,-3.015892803668975830e-01,-2.146846354007720947e-01,9.525049477815628052e-02,2.445340156555175781e-01,1.160132139921188354e-01,-1.825101487338542938e-02,4.915423095226287842e-01,2.068935334682464600e-01,1.115473210811614990e-01,-1.551287770271301270e-01,3.143259882926940918e-01,2.266322076320648193e-01,-1.205378025770187378e-01,-4.558413028717041016e-01,1.594377756118774414e-01,-1.225221827626228333e-01,-2.686559855937957764e-01,5.461610555648803711e-01,-2.009892016649246216e-01,-2.090713083744049072e-01,-3.324057161808013916e-02,-1.376476585865020752e-01,4.181053638458251953e-01,-4.950197637081146240e-01,-7.911538332700729370e-02,8.559014648199081421e-02,3.730234876275062561e-02,1.287028342485427856e-01,-3.606458306312561035e-01,-4.499992132186889648e-01,2.152809649705886841e-01,-1.071157157421112061e-01,-4.613628685474395752e-01,-5.304833650588989258e-01,-1.402470469474792480e-01,-6.939290463924407959e-02,4.171667993068695068e-01,5.391097627580165863e-03,-1.708294823765754700e-02,-3.217062950134277344e-01,-8.711171150207519531e-02,1.436117738485336304e-01,2.487591505050659180e-01
1.912114918231964111e-01,-2.096479088068008423e-01,3.204971551895141602e-02,-6.349485367536544800e-02,9.719491004943847656e-02,1.119755804538726807e-01,-4.115277230739593506e-01,-4.557133018970489502e-01,2.073297053575515747e-01,4.107044041156768799e-01,-2.312537282705307007e-01,-6.098076701164245605e-02,-3.054039478302001953e-01,-3.843114674091339111e-01,-3.435849547386169434e-01,1.522759050130844116e-01,2.675943970680236816e-01,1.993926987051963806e-02,-8.861128985881805420e-02,8.664923906326293945e-01,3.797877132892608643e-01,-2.914868295192718506e-01,6.036766171455383301e-01,-1.771906912326812744e-01,2.071926444768905640e-01,-4.414785653352737427e-02,3.760481625795364380e-02,5.131107568740844727e-01,-1.732369884848594666e-02,-4.492023214697837830e-02,1.328978538513183594e-01,1.077999770641326904e-01,-1.266647577285766602e-01,-1.036321073770523071e-01,3.780656754970550537e-01,4.000212252140045166e-01,2.449009418487548828e-01,-2.254789136350154877e-02,-6.049906462430953979e-02,4.070198163390159607e-02,-3.334676325321197510e-01,2.872269749641418457e-01,-2.633558511734008789e-01,-6.318120658397674561e-02,1.775233298540115356e-01,3.158905804157257080e-01,-2.719139158725738525e-01,9.935046732425689697e-02,-6.065172702074050903e-02,-4.047009050846099854e-01,-2.193094342947006226e-01,-4.313747212290763855e-02,-3.006356656551361084e-01,-9.573239833116531372e-02,-2.932504713535308838e-01,3.262244164943695068e-01,1.961753666400909424e-01,3.037049472332000732e-01,2.325304597616195679e-01,-9.397636353969573975e-02,-4.617196619510650635e-01,7.895494699478149414e-01,-5.364230871200561523e-01,-1.083581969141960144e-01,-2.250982522964477539e-01,-6.357529759407043457e-02,-1.218380928039550781e-01,-5.633584782481193542e-02,-1.237256638705730438e-02,2.567848563194274902e-01,1.191158816218376160e-01,2.164003252983093262e-01,2.606415003538131714e-02,2.299862653017044067e-01,4.959588944911956787e-01,2.709579467773437500e-01,5.844371318817138672e-01,-2.420881837606430054e-01,3.543219864368438721e-01,-1.812880039215087891e-01,3.967886865139007568e-01,-3.742174506187438965e-01,4.779489338397979736e-02,1.318840831518173218e-01,2.549077570438385010e-01,-1.300860196352005005e-02,-2.815139666199684143e-02,-3.093533217906951904e-01,1.785652637481689453e-01,-4.480136632919311523e-01,2.697591781616210938e-01,-1.887286007404327393e-01,4.775775671005249023e-01,-1.641190052032470703e-01,-5.488526541739702225e-03,-2.456337213516235352e-01,8.030119538307189941e-02,-9.610590338706970215e-02,5.619065761566162109e-01,4.239616394042968750e-01
-4.148426055908203125e-01,3.020379841327667236e-01,2.833378016948699951e-01,4.637726545333862305e-01,7.666710764169692993e-02,3.427582383155822754e-01,3.614568710327148438e-01,1.332475394010543823e-01,-1.430244296789169312e-01,3.626826703548431396e-01,6.650775671005249023e-02,-2.735388875007629395e-01,-9.594202041625976562e-02,2.798680067062377930e-01,-2.980577014386653900e-02,-1.954883038997650146e-01,2.105647474527359009e-01,3.046196699142456055e-01,1.320054829120635986e-01,7.193089276552200317e-02,-9.948146343231201172e-02,-2.470521479845046997e-01,7.470572739839553833e-02,9.667606092989444733e-03,-2.954327464103698730e-01,-4.742336869239807129e-01,-3.141737878322601318e-01,-1.830737143754959106e-01,-1.442091353237628937e-02,-4.222027361392974854e-01,1.383706778287887573e-01,3.032065927982330322e-02,9.707044810056686401e-02,-3.003490567207336426e-01,-4.911668300628662109e-01,3.365484625101089478e-02,1.829247549176216125e-02,-3.323391675949096680e-01,-3.753770515322685242e-02,-1.078721955418586731e-01,1.290065646171569824e-01,-9.934342652559280396e-02,-1.151816323399543762e-01,2.134414315223693848e-01,-4.843782484531402588e-01,-2.441263291984796524e-03,6.037142872810363770e-02,8.583913743495941162e-02,-2.862825393676757812e-01,-1.076754704117774963e-01,-1.262665838003158569e-01,8.722715079784393311e-02,-1.336989253759384155e-01,2.085663676261901855e-01,-1.233453378081321716e-01,7.600706815719604492e-02,-2.470981702208518982e-02,-3.135457634925842285e-02,-2.033334784209728241e-02,3.327193856239318848e-01,7.341610640287399292e-02,1.912878215080127120e-04,-1.856493055820465088e-01,1.633304655551910400e-01,-1.138442680239677429e-01,2.461587041616439819e-01,-2.754668891429901123e-01,4.311714768409729004e-01,-3.918988630175590515e-02,-1.965471804141998291e-01,1.317751854658126831e-01,-3.148808479309082031e-01,-2.488143444061279297e-01,-4.437923133373260498e-01,1.775396466255187988e-01,-9.276564233005046844e-03,7.011909782886505127e-02,5.338427796959877014e-02,-3.463153541088104248e-01,-1.303638368844985962e-01,1.100079435855150223e-02,3.507062792778015137e-02,-1.097862422466278076e-01,2.068599611520767212e-01,4.442258477210998535e-01,3.087592422962188721e-01,2.089928537607192993e-01,3.405612111091613770e-01,-1.231171116232872009e-01,2.675786614418029785e-02,-3.095306269824504852e-02,-2.611022889614105225e-01,-3.023094534873962402e-01,-1.075271070003509521e-01,3.116610050201416016e-01,8.178973197937011719e-02,-1.566348038613796234e-02,-1.306351274251937866e-01,-3.055607527494430542e-02,1.194915026426315308e-01
-5.251307487487792969e-01,-5.270220041275024414e-01,1.575796753168106079e-01,1.452226340770721436e-01,3.621447980403900146e-01,-2.739584445953369141e-01,-2.046999186277389526e-01,1.202524080872535706e-01,1.213415041565895081e-01,2.345748245716094971e-01,6.548159122467041016e-01,6.257855892181396484e-02,1.389906853437423706e-01,2.309628762304782867e-04,2.965380549430847168e-01,-4.226255416870117188e-01,3.274849057197570801e-01,-3.308362364768981934e-01,-3.105807602405548096e-01,1.211130097508430481e-01,3.663570880889892578e-01,1.532627940177917480e-01,2.773478329181671143e-01,-8.524943590164184570e-01,-9.002468734979629517e-02,-1.059060096740722656e-01,-9.011826664209365845e-02,4.466075301170349121e-01,4.142641127109527588e-01,-2.368933707475662231e-01,-1.374796591699123383e-02,3.022047281265258789e-01,-3.534472584724426270e-01,4.164047539234161377e-02,1.143575757741928101e-01,3.237206935882568359e-01,1.218908745795488358e-02,2.757513821125030518e-01,-6.040313094854354858e-02,1.260720640420913696e-01,5.024961009621620178e-02,-2.496882230043411255e-01,-4.030758515000343323e-02,-3.485833704471588135e-01,1.753386557102203369e-01,1.662715822458267212e-01,-4.756162464618682861e-01,-6.237860321998596191e-01,-7.619880139827728271e-02,-2.566716074943542480e-01,-6.724464893341064453e-02,-3.804586455225944519e-02,-2.327119410037994385e-01,-4.204551279544830322e-01,2.328836619853973389e-01,8.576874136924743652e-01,-9.867919236421585083e-02,5.722892284393310547e-01,-2.015967220067977905e-01,1.576663106679916382e-01,1.901733875274658203e-01,2.963150739669799805e-01,-3.561123609542846680e-01,6.801431532949209213e-03,1.510521173477172852e-01,-1.012317389249801636e-01,3.140659332275390625e-01,-2.942832112312316895e-01,-2.524544298648834229e-01,-3.551914393901824951e-01,2.418050728738307953e-02,8.890482783317565918e-02,-1.390021741390228271e-01,2.619819343090057373e-01,1.215492784976959229e-01,6.487750411033630371e-01,-5.605982542037963867e-01,-2.331719249486923218e-01,9.689983725547790527e-02,-1.883855611085891724e-01,-2.660476267337799072e-01,3.343151509761810303e-02,-2.208178117871284485e-02,-1.525947637856006622e-02,-2.905508279800415039e-01,-2.162656746804714203e-02,3.237761259078979492e-01,-1.152711547911167145e-02,1.652780175209045410e-01,-2.462718337774276733e-01,9.117042273283004761e-02,1.730375885963439941e-01,3.232767581939697266e-01,-1.035937368869781494e-01,-5.387324094772338867e-01,2.170065492391586304e-01,2.395299822092056274e-02,-4.476020336151123047e-01,-1.597316861152648926e-01,2.357698827981948853e-01
1.607934236526489258e-01,2.297171205282211304e-01,-1.219772547483444214e-01,-1.997329890727996826e-01,-2.234601043164730072e-02,2.649323046207427979e-01,9.040825068950653076e-02,-2.420443892478942871e-01,-2.855887413024902344e-01,-3.930035829544067383e-01,3.553475439548492432e-01,-1.528527140617370605e-01,-3.503685817122459412e-02,-2.925797402858734131e-01,1.329063922166824341e-01,2.281982004642486572e-01,4.053459167480468750e-01,1.799663305282592773e-01,-1.549029946327209473e-01,-2.619046252220869064e-03,-2.307449430227279663e-01,-2.706134021282196045e-01,1.027655676007270813e-01,1.369915157556533813e-01,2.372783720493316650e-01,-1.428047865629196167e-01,4.993358552455902100e-01,-8.029304444789886475e-02,1.846430599689483643e-01,4.159373342990875244e-01,5.265925545245409012e-03,1.373348236083984375e-01,2.224362343549728394e-01,2.464321702718734741e-01,5.972216278314590454e-02,-3.337032496929168701e-01,1.159958764910697937e-01,1.708482056856155396e-01,3.685610368847846985e-02,-1.595187187194824219e-02,2.042867839336395264e-01,3.593665361404418945e-01,3.613447248935699463e-01,3.400748074054718018e-01,3.837505877017974854e-01,2.398168444633483887e-01,-3.842514455318450928e-01,-4.764922261238098145e-01,1.596207357943058014e-02,-4.858033061027526855e-01,-3.253625631332397461e-01,6.690806895494461060e-02,-1.074277460575103760e-01,2.694324553012847900e-01,9.539728052914142609e-03,5.251368880271911621e-01,-1.536039859056472778e-01,-2.530445456504821777e-01,2.493318319320678711e-01,2.086671888828277588e-01,-2.892157435417175293e-02,-3.272700607776641846e-01,2.496179193258285522e-01,-3.773475289344787598e-01,1.213460713624954224e-01,7.778477668762207031e-02,-1.722463034093379974e-02,2.178603261709213257e-01,1.884033083915710449e-01,3.495923876762390137e-01,8.770530670881271362e-02,2.032759487628936768e-01,1.089606061577796936e-01,-5.972880721092224121e-01,2.506685554981231689e-01,-4.368238896131515503e-02,-3.094785213470458984e-01,7.770707458257675171e-02,-2.335372269153594971e-01,4.046309292316436768e-01,-1.014780998229980469e-02,-1.909218169748783112e-02,-1.103731393814086914e-01,-2.492078244686126709e-01,1.862114220857620239e-01,-1.088362485170364380e-01,-6.078674197196960449e-01,-2.417313307523727417e-01,-1.471231281757354736e-01,2.811280190944671631e-01,3.469256460666656494e-01,9.335298091173171997e-02,-8.386835455894470215e-02,2.397890836000442505e-01,-1.842228882014751434e-02,-2.446065656840801239e-03,1.046191602945327759e-01,-5.381742119789123535e-01,3.903144299983978271e-01,4.847953021526336670e-01
-5.032196640968322754e-02,-1.223448887467384338e-01,1.267013549804687500e-01,3.107154369354248047e-01,-9.243743494153022766e-03,-5.243424773216247559e-01,-6.223753467202186584e-02,-9.556614607572555542e-02,-6.937401294708251953e-01,3.783647716045379639e-02,2.106315940618515015e-01,-1.108301803469657898e-01,1.874428838491439819e-01,-5.226467736065387726e-03,-3.059088885784149170e-01,5.579663813114166260e-02,2.970480322837829590e-01,8.649852126836776733e-02,7.120399922132492065e-02,4.608337581157684326e-01,5.035526752471923828e-01,-7.782774418592453003e-02,6.166626214981079102e-01,-1.853602230548858643e-01,-3.439466357231140137e-01,2.551719248294830322e-01,-1.196490749716758728e-01,3.213912844657897949e-01,-1.709457486867904663e-01,2.926810383796691895e-01,1.698140650987625122e-01,1.504203528165817261e-01,2.935622334480285645e-01,2.731090411543846130e-03,-1.738104969263076782e-01,9.890861809253692627e-02,1.011503636837005615e-01,3.696022629737854004e-01,2.148437947034835815e-01,1.104213595390319824e-01,-2.592820525169372559e-01,1.537822466343641281e-02,2.498965859413146973e-01,-2.049050927162170410e-01,9.632867574691772461e-02,4.003196656703948975e-01,-1.199282333254814148e-01,-1.153598278760910034e-01,-3.273217976093292236e-01,-2.852349281311035156e-01,5.266721546649932861e-02,4.206497967243194580e-02,-1.591659933328628540e-01,5.192705988883972168e-02,7.829703390598297119e-02,3.786904513835906982e-01,8.695250004529953003e-02,-4.495782032608985901e-02,1.305696461349725723e-02,1.028944328427314758e-01,1.659964583814144135e-02,7.132325768470764160e-01,-2.094107447192072868e-03,-5.411481484770774841e-02,-1.500863432884216309e-01,-6.981218606233596802e-02,8.306480199098587036e-02,-3.633623421192169189e-01,-4.856092333793640137e-01,1.212651729583740234e-01,4.091403484344482422e-01,-1.153260376304388046e-02,-6.664116382598876953e-01,4.046187177300453186e-02,2.407037466764450073e-01,-4.418686330318450928e-01,2.205834910273551941e-02,9.804265946149826050e-02,1.763463616371154785e-01,-1.911762356758117676e-01,-8.967563509941101074e-03,-4.037834331393241882e-02,-1.457630246877670288e-01,-2.593038976192474365e-01,2.108678668737411499e-01,-4.835845902562141418e-03,-1.499086916446685791e-01,-5.002864599227905273e-01,-1.166904717683792114e-01,-1.128803379833698273e-02,4.422808289527893066e-01,4.956433922052383423e-02,-7.419236004352569580e-02,2.136633843183517456e-01,-1.188571527600288391e-01,-4.365507066249847412e-01,-2.693507634103298187e-02,-3.924856707453727722e-02,1.222747266292572021e-01,2.847875654697418213e-01
7.492862939834594727e-01,-1.357255429029464722e-01,3.592429757118225098e-01,1.073468700051307678e-01,5.613436698913574219e-01,9.017888456583023071e-02,-1.460708081722259521e-01,-2.072618305683135986e-01,2.078056037425994873e-01,9.069241583347320557e-02,2.644907236099243164e-01,7.155323028564453125e-01,5.071263909339904785e-01,-4.590998589992523193e-02,4.372934699058532715e-01,3.983697593212127686e-01,3.572415709495544434e-01,2.167082764208316803e-02,-7.652462720870971680e-01,6.764378398656845093e-02,-6.116154417395591736e-02,2.348028272390365601e-01,-6.190389990806579590e-01,-1.894068121910095215e-01,2.213213443756103516e-01,-2.524026632308959961e-01,1.026454344391822815e-01,-3.275805711746215820e-02,3.046628236770629883e-01,-8.098948001861572266e-02,-1.396327018737792969e-01,6.407885998487472534e-02,-4.837200939655303955e-01,1.674978733062744141e-01,3.385652005672454834e-01,1.318062990903854370e-01,-2.731181085109710693e-01,-2.865205705165863037e-01,-2.611939609050750732e-01,7.175463438034057617e-01,-3.537460565567016602e-01,-1.916004568338394165e-01,1.841684728860855103e-01,2.106145173311233521e-01,4.140141010284423828e-01,1.452357620000839233e-01,-6.583061814308166504e-02,-7.224833965301513672e-01,-6.353717297315597534e-02,-3.383205831050872803e-01,-2.008014172315597534e-01,2.491747289896011353e-01,-6.014204397797584534e-02,5.517885684967041016e-01,3.262070119380950928e-01,-1.571950018405914307e-01,-1.272751986980438232e-01,1.079739332199096680e-01,-5.917674303054809570e-01,1.829198300838470459e-01,2.374231815338134766e-01,-6.185801029205322266e-01,1.853791773319244385e-01,6.143352016806602478e-02,3.196967244148254395e-01,1.237372308969497681e-01,-3.502562642097473145e-01,-3.156101331114768982e-02,-2.072724103927612305e-01,5.989828705787658691e-01,3.938044887036085129e-03,-3.236953914165496826e-01,-7.561808917671442032e-03,-2.335136383771896362e-01,4.431014955043792725e-01,8.230988383293151855e-01,-2.929857373237609863e-01,-8.136323839426040649e-02,2.391471713781356812e-01,2.319822311401367188e-01,-3.920210301876068115e-01,4.457009434700012207e-01,-1.066596284508705139e-01,2.725280821323394775e-01,8.599745482206344604e-02,-2.084982097148895264e-01,2.093244716525077820e-02,-1.508715003728866577e-01,5.503380894660949707e-01,4.077411890029907227e-01,6.847369670867919922e-01,7.309012860059738159e-02,1.429530978202819824e-01,6.322435140609741211e-01,-8.072949945926666260e-02,5.147657990455627441e-01,-1.146420463919639587e-01,-1.889550685882568359e-01,-1.756836026906967163e-01,2.136861830949783325e-01
-1.003978773951530457e-01,7.586617022752761841e-02,-1.234239190816879272e-01,1.608170419931411743e-01,-2.291521877050399780e-01,5.072124600410461426e-01,-4.227925837039947510e-02,-3.941349685192108154e-01,1.201703958213329315e-02,-3.506959229707717896e-02,5.288103222846984863e-02,-1.551314890384674072e-01,-5.109532549977302551e-02,-8.857268840074539185e-02,1.993733197450637817e-01,-4.502006173133850098e-01,-2.489869296550750732e-01,1.353513598442077637e-01,-3.185755014419555664e-02,2.042431533336639404e-01,1.621032059192657471e-01,9.086295217275619507e-02,-5.185987353324890137e-01,-9.380301088094711304e-02,5.825314521789550781e-01,2.858355641365051270e-01,4.282529056072235107e-01,-4.156339168548583984e-01,4.378299415111541748e-01,-1.903321743011474609e-01,-4.348203912377357483e-02,1.560061424970626831e-01,-3.427252406254410744e-03,2.926435172557830811e-01,-1.173334643244743347e-01,1.426840480417013168e-02,1.035889163613319397e-01,6.622503995895385742e-01,-6.174860000610351562e-01,-1.311993692070245743e-02,2.805089354515075684e-01,-1.580240130424499512e-01,1.150613799691200256e-01,-2.610991001129150391e-01,-1.578532755374908447e-01,2.170049697160720825e-01,7.837087661027908325e-02,-1.144480854272842407e-01,1.307218670845031738e-01,3.454804718494415283e-01,1.203925833106040955e-01,3.696608543395996094e-01,9.090162068605422974e-02,-3.378900289535522461e-01,-1.612300127744674683e-01,1.679202765226364136e-01,-4.395291805267333984e-01,-3.263419494032859802e-02,-1.149738430976867676e-01,5.769045650959014893e-02,-5.241378396749496460e-02,3.209764957427978516e-01,3.102241642773151398e-02,6.945056468248367310e-02,3.661273512989282608e-03,1.517340093851089478e-01,-1.381668150424957275e-01,-4.088057577610015869e-01,-1.991600692272186279e-01,7.774829119443893433e-02,-1.568235456943511963e-01,2.788417935371398926e-01,5.726189017295837402e-01,1.009833216667175293e-01,3.524627909064292908e-02,2.659797370433807373e-01,-1.467609852552413940e-01,-1.903570741415023804e-01,-3.103002309799194336e-01,-1.843290179967880249e-01,2.985593378543853760e-01,6.174019351601600647e-02,-1.079776138067245483e-01,3.673220574855804443e-01,1.822882443666458130e-01,-2.343322038650512695e-01,4.324100911617279053e-01,-9.567401558160781860e-02,-7.904207110404968262e-01,-1.209291070699691772e-01,-1.914785355329513550e-01,-1.919935792684555054e-01,1.323415338993072510e-01,-3.546441197395324707e-01,-5.022087693214416504e-01,-2.704052925109863281e-01,3.255581855773925781e-01,-2.084584981203079224e-01,-3.956919014453887939e-01,2.178070545196533203e-01
-5.069124102592468262e-01,-3.134193718433380127e-01,5.221925973892211914e-01,4.315740168094635010e-01,-3.673341497778892517e-02,-1.843198761343955994e-02,-6.238423287868499756e-02,7.070424407720565796e-02,4.772676229476928711e-01,4.476028084754943848e-01,7.011120915412902832e-01,1.685313284397125244e-01,-4.773986339569091797e-01,-3.669165372848510742e-01,-2.146158665418624878e-01,3.612700998783111572e-01,6.586991250514984131e-02,4.004323482513427734e-01,2.791284024715423584e-01,1.154182571917772293e-02,3.469620347023010254e-01,-3.568072915077209473e-01,3.741471469402313232e-01,-4.990674853324890137e-01,-2.950178384780883789e-01,4.869047179818153381e-02,-4.247679933905601501e-02,-5.939402580261230469e-01,-4.260375797748565674e-01,-1.736126393079757690e-01,-1.139462813735008240e-01,-4.175939261913299561e-01,-3.926831111311912537e-02,2.272612154483795166e-01,-1.330719888210296631e-01,-1.244558691978454590e-01,-1.547445356845855713e-01,-5.529876351356506348e-01,1.295991539955139160e-01,2.949272096157073975e-01,-1.516488343477249146e-01,-3.131713718175888062e-02,-1.261616051197052002e-01,4.392012655735015869e-01,3.599764108657836914e-01,5.028185844421386719e-01,2.232687026262283325e-01,2.466741949319839478e-01,-2.766245901584625244e-01,1.102424040436744690e-01,6.126777827739715576e-02,-1.482966095209121704e-01,6.217313557863235474e-02,1.673986315727233887e-01,-1.805627532303333282e-02,3.126207888126373291e-01,-2.417455464601516724e-01,4.360689520835876465e-01,-3.050421923398971558e-02,-2.577088773250579834e-02,1.496997028589248657e-01,9.460753947496414185e-02,-2.553634941577911377e-01,4.471052885055541992e-01,3.152436316013336182e-01,1.085347160696983337e-01,-2.364314645528793335e-01,4.540638625621795654e-01,7.473462074995040894e-02,-3.318847417831420898e-01,-1.432818640023469925e-02,-2.677805721759796143e-01,-2.600182294845581055e-01,2.852983176708221436e-01,2.042860686779022217e-01,3.402139842510223389e-01,1.679829657077789307e-01,-4.103697836399078369e-01,2.129279375076293945e-01,4.673940539360046387e-01,1.205411851406097412e-01,-1.024640500545501709e-01,-2.840550839900970459e-01,1.834420710802078247e-01,-1.365809738636016846e-01,3.278077021241188049e-02,1.316358745098114014e-01,-1.117958500981330872e-01,4.472380876541137695e-02,-1.674490272998809814e-01,1.374728046357631683e-02,9.136693179607391357e-02,-9.775294363498687744e-02,5.357030034065246582e-01,2.275469154119491577e-01,5.954363569617271423e-02,2.480492144823074341e-01,2.301360517740249634e-01,-1.263101100921630859e-01,-9.262081235647201538e-02
2.044730335474014282e-01,1.837811917066574097e-01,2.232363820075988770e-01,3.632602095603942871e-01,-6.249837577342987061e-02,1.619668863713741302e-02,2.047803550958633423e-01,-1.048069000244140625e-01,-4.226655066013336182e-01,4.620388150215148926e-02,-2.390602976083755493e-01,2.469092011451721191e-01,8.595900982618331909e-02,9.173895232379436493e-04,1.353405863046646118e-01,5.067873746156692505e-02,-4.448290541768074036e-02,-1.869999803602695465e-02,3.655869662761688232e-01,2.240102142095565796e-01,-4.188247397541999817e-02,-1.593374311923980713e-01,4.968437254428863525e-01,1.250013858079910278e-01,2.832845449447631836e-01,2.280831634998321533e-01,1.014321446418762207e-01,6.166091933846473694e-02,1.172293648123741150e-01,-2.439091354608535767e-01,-9.900990724563598633e-01,1.334151476621627808e-01,-1.722390204668045044e-01,-8.424672484397888184e-02,-2.191195636987686157e-01,-1.702532619237899780e-01,-2.844048440456390381e-01,1.949015446007251740e-02,8.200629614293575287e-03,1.060187667608261108e-01,4.144579768180847168e-01,6.597673296928405762e-01,3.054779767990112305e-01,-3.874055743217468262e-01,-5.249509215354919434e-01,2.352744638919830322e-01,3.366245925426483154e-01,1.088670939207077026e-01,3.489342704415321350e-02,-4.255938827991485596e-01,-8.625158667564392090e-02,-4.456974565982818604e-01,1.281587332487106323e-01,-1.881992816925048828e-01,6.578578054904937744e-02,4.457918927073478699e-02,1.629225760698318481e-01,-7.217936962842941284e-02,-5.316219478845596313e-02,5.856279283761978149e-02,-4.504915475845336914e-01,1.007962599396705627e-01,3.809113204479217529e-01,-9.311994910240173340e-02,1.020644083619117737e-01,-8.952993899583816528e-02,-7.548619061708450317e-02,2.527044415473937988e-01,-2.765924669802188873e-02,-3.333189189434051514e-01,-2.152560278773307800e-02,-2.067395597696304321e-01,-3.359093666076660156e-01,-2.941377274692058563e-02,-2.517076730728149414e-01,-6.074764207005500793e-02,6.926771402359008789e-01,8.378317207098007202e-02,-4.121851027011871338e-01,-7.864186167716979980e-02,5.189165472984313965e-01,-2.635265886783599854e-01,2.880475521087646484e-01,-5.926608294248580933e-02,3.768935799598693848e-01,-9.646710008382797241e-02,6.180831193923950195e-01,9.811393916606903076e-02,-1.591818034648895264e-01,1.570699065923690796e-01,2.920826077461242676e-01,1.258773803710937500e-01,4.789901673793792725e-01,-5.128319859504699707e-01,-2.660665288567543030e-02,-2.676170170307159424e-01,-1.604083925485610962e-01,-4.922252893447875977e-01,5.675579309463500977e-01,1.123757585883140564e-01
3.250322341918945312e-01,-8.663070946931838989e-02,-1.618300080299377441e-01,1.817941814661026001e-01,-3.907050192356109619e-02,5.322554707527160645e-01,1.324301213026046753e-01,-3.359628608450293541e-03,-8.579266816377639771e-02,3.383085504174232483e-02,1.882058233022689819e-01,5.609858632087707520e-01,-9.227416478097438812e-03,-2.716642022132873535e-01,-5.371384024620056152e-01,3.149445354938507080e-01,2.266096025705337524e-01,7.761228680610656738e-01,-2.834476716816425323e-02,5.356752872467041016e-01,5.509055852890014648e-01,-1.387211233377456665e-01,-3.757617771625518799e-01,-1.563833504915237427e-01,-1.059178709983825684e-01,-1.309151411987841129e-03,2.593284845352172852e-01,1.819133162498474121e-01,-4.002297520637512207e-01,1.586706489324569702e-01,2.645747363567352295e-01,5.155695602297782898e-02,4.365004301071166992e-01,-4.840022325515747070e-02,8.287957310676574707e-02,-3.333413898944854736e-01,8.939521014690399170e-02,-3.534240275621414185e-02,-2.815436124801635742e-01,2.091703861951828003e-01,-3.372960537672042847e-02,1.888976991176605225e-01,-5.375228449702262878e-02,2.055176049470901489e-01,2.442068904638290405e-01,3.401755690574645996e-01,3.774054050445556641e-01,1.331380307674407959e-01,-1.300999373197555542e-01,-2.489289194345474243e-01,2.364367097616195679e-01,-3.871380090713500977e-01,1.645779162645339966e-01,1.204241290688514709e-01,-2.081992328166961670e-01,3.619802296161651611e-01,-2.890327870845794678e-01,3.008246123790740967e-01,-1.554210782051086426e-01,-5.054097622632980347e-02,-2.711294591426849365e-01,3.064530193805694580e-01,-6.117367744445800781e-01,-8.282932639122009277e-02,2.512525022029876709e-02,1.529733985662460327e-01,-5.283955950289964676e-03,4.916389286518096924e-02,4.955556616187095642e-02,-7.076366245746612549e-02,1.927153319120407104e-01,-6.185799241065979004e-01,7.714393734931945801e-02,9.558708220720291138e-02,4.282796084880828857e-01,-7.656957209110260010e-02,-1.083423718810081482e-01,-1.694506965577602386e-02,1.081724390387535095e-01,-6.252287328243255615e-02,5.772127509117126465e-01,-6.626108288764953613e-01,2.370210587978363037e-01,1.140363607555627823e-02,-9.929110854864120483e-02,3.925225883722305298e-02,-2.352623343467712402e-01,2.909488677978515625e-01,3.427190184593200684e-01,-6.580257415771484375e-01,5.305491685867309570e-01,-4.849787652492523193e-01,-1.324091702699661255e-01,-2.529681026935577393e-01,2.372788190841674805e-01,1.473478823900222778e-01,2.433957904577255249e-01,2.252377569675445557e-01,5.800049901008605957e-01,3.065831065177917480e-01
-1.762507855892181396e-01,2.595291286706924438e-02,4.256171882152557373e-01,7.279152423143386841e-02,5.824452638626098633e-01,-6.048068404197692871e-02,9.851118177175521851e-02,2.214495241641998291e-01,-3.320896923542022705e-01,-7.440955191850662231e-02,7.335527986288070679e-02,1.215062141418457031e-01,-2.024437040090560913e-01,8.536551892757415771e-02,5.303613543510437012e-01,-4.673349559307098389e-01,-3.721429035067558289e-02,-9.100532531738281250e-02,1.320555992424488068e-02,1.397339105606079102e-01,-4.653707146644592285e-01,-1.501196324825286865e-01,-4.605625569820404053e-01,3.917168080806732178e-02,3.749712705612182617e-01,-8.759925514459609985e-02,3.844363987445831299e-02,-1.273598074913024902e-01,7.075815200805664062e-01,1.110823974013328552e-01,3.148259818553924561e-01,-4.720889497548341751e-03,-7.339920997619628906e-01,-1.676646173000335693e-01,1.447746008634567261e-01,8.341790735721588135e-02,3.296719491481781006e-02,-1.183069646358489990e-01,1.366158723831176758e-01,5.493589639663696289e-01,3.501500561833381653e-02,-2.461206354200839996e-02,5.496576428413391113e-02,-2.876268625259399414e-01,-1.422635186463594437e-02,5.230991244316101074e-01,-1.820462010800838470e-02,-1.371860206127166748e-01,4.084247648715972900e-01,8.933357149362564087e-02,8.289066702127456665e-02,1.209788471460342407e-01,-1.326397210359573364e-01,-1.411893963813781738e-01,3.173665404319763184e-01,2.648420035839080811e-01,-7.991328835487365723e-02,5.791356042027473450e-02,-2.998141348361968994e-01,1.323556602001190186e-01,3.908911347389221191e-01,3.464882671833038330e-01,-2.772085182368755341e-02,6.144922971725463867e-01,2.757844626903533936e-01,-1.311987489461898804e-01,-2.761659622192382812e-01,-2.503795623779296875e-01,-3.833546638488769531e-01,1.299028247594833374e-01,-2.342756390571594238e-01,-2.059281319379806519e-01,-2.966869175434112549e-01,1.462582647800445557e-01,-3.818157911300659180e-01,-2.686849236488342285e-01,-3.359481394290924072e-01,2.028270661830902100e-01,9.612119197845458984e-02,3.591003417968750000e-01,-7.430086731910705566e-01,-4.048991799354553223e-01,-2.166466414928436279e-01,1.360427886247634888e-01,-4.822926521301269531e-01,-3.373367711901664734e-02,-4.030050635337829590e-01,6.251483410596847534e-02,3.014595806598663330e-01,-2.204403281211853027e-01,-1.870925128459930420e-01,7.833432406187057495e-02,4.383818209171295166e-01,1.743444949388504028e-01,-3.168855011463165283e-01,2.525109946727752686e-01,3.701810240745544434e-01,-3.764756619930267334e-01,-3.031818270683288574e-01,3.683844804763793945e-01
1.912109255790710449e-01,-3.992398679256439209e-01,1.732126176357269287e-01,1.871772408485412598e-01,7.311059236526489258e-01,-2.176124602556228638e-02,-3.266497254371643066e-01,2.783637344837188721e-01,-8.730137348175048828e-01,3.667583167552947998e-01,5.524770021438598633e-01,-2.164576798677444458e-01,2.435407638549804688e-01,3.115759603679180145e-02,9.337987005710601807e-02,-3.948409557342529297e-01,1.320484131574630737e-01,-1.659788787364959717e-01,-1.388372778892517090e-01,6.709442734718322754e-01,1.131678000092506409e-01,-6.302641630172729492e-01,-2.648715116083621979e-02,1.536557227373123169e-01,-1.199917122721672058e-01,9.353127330541610718e-02,4.696556031703948975e-01,3.560685217380523682e-01,8.071013689041137695e-01,4.475755393505096436e-01,-2.454858571290969849e-01,2.687752246856689453e-01,-1.681563705205917358e-01,1.894027590751647949e-01,-3.610289692878723145e-01,9.860685467720031738e-02,5.896299704909324646e-02,2.935985922813415527e-01,-2.458817809820175171e-01,5.437830686569213867e-01,1.146002411842346191e-01,-3.101699352264404297e-01,-5.810254812240600586e-02,-6.478967070579528809e-01,1.680268645286560059e-01,2.048953324556350708e-01,1.450540572404861450e-01,-2.257098555564880371e-01,-2.020599097013473511e-01,5.833705514669418335e-02,2.271367162466049194e-01,-6.598259508609771729e-02,-3.488807752728462219e-02,3.455390930175781250e-01,1.150292605161666870e-01,2.914558947086334229e-01,-1.176041215658187866e-01,-4.404571354389190674e-01,9.323656558990478516e-02,-1.149155758321285248e-02,-5.148071646690368652e-01,-3.209427371621131897e-02,4.877457618713378906e-01,7.927895337343215942e-02,1.242745891213417053e-01,-9.896394796669483185e-03,6.375269591808319092e-02,-2.781025767326354980e-01,-3.218613564968109131e-01,7.577713131904602051e-01,-5.932052135467529297e-01,1.811900138854980469e-01,1.801219880580902100e-01,-1.329192370176315308e-01,-1.365156769752502441e-01,-1.163195148110389709e-01,-4.121102392673492432e-01,2.646259665489196777e-01,-3.599349558353424072e-01,-3.407575190067291260e-01,-4.161429107189178467e-01,-6.119763851165771484e-01,5.192104578018188477e-01,-5.413741338998079300e-03,1.993839740753173828e-01,-4.031749814748764038e-02,1.653446704149246216e-01,-1.760695427656173706e-01,3.689605593681335449e-01,2.289080470800399780e-01,-4.201764240860939026e-02,1.350942626595497131e-02,1.186574026942253113e-01,2.634280920028686523e-01,-3.458503484725952148e-01,2.626124024391174316e-01,-1.110728979110717773e-01,-2.703904807567596436e-01,-2.117128111422061920e-02,8.585975170135498047e-01
4.732200503349304199e-02,-1.419999897480010986e-01,-2.171044647693634033e-01,3.826373517513275146e-01,-9.392379224300384521e-02,1.107231527566909790e-01,-2.041074186563491821e-01,3.862912058830261230e-01,4.546288847923278809e-01,1.094874888658523560e-01,8.223842829465866089e-02,4.383899569511413574e-01,-1.839162558317184448e-01,-1.843884438276290894e-01,-1.572120785713195801e-01,9.395033121109008789e-01,1.240861341357231140e-01,2.621916532516479492e-01,-4.909184575080871582e-01,4.044215083122253418e-01,4.184889793395996094e-01,7.437999546527862549e-02,4.148745536804199219e-01,1.401486694812774658e-01,4.707170426845550537e-01,1.274925619363784790e-01,6.040248870849609375e-01,5.991654098033905029e-02,-1.512466222047805786e-01,2.514032125473022461e-01,2.100033760070800781e-01,3.864121139049530029e-01,2.616282403469085693e-01,3.318039774894714355e-01,3.746734261512756348e-01,1.338611841201782227e-01,-1.586818099021911621e-01,4.774164557456970215e-01,-2.230415642261505127e-01,6.618760228157043457e-01,-6.348068360239267349e-03,3.330116569995880127e-01,2.742809355258941650e-01,-2.733103930950164795e-01,3.205966353416442871e-01,-2.654716745018959045e-02,-7.437565922737121582e-01,4.921109676361083984e-01,-4.120784401893615723e-01,-1.778832077980041504e-01,1.811954081058502197e-01,1.597104966640472412e-01,6.391312181949615479e-02,-6.762499809265136719e-01,-5.473963022232055664e-01,-1.600002944469451904e-01,-2.111622542142868042e-01,-2.215328365564346313e-01,2.671563066542148590e-02,4.698564112186431885e-01,-5.342946648597717285e-01,4.645457863807678223e-01,-3.591398522257804871e-02,-4.417198598384857178e-01,3.424287214875221252e-02,4.802075400948524475e-02,7.202364504337310791e-02,-5.909982919692993164e-01,-3.358554840087890625e-01,-3.367027938365936279e-01,-2.427723724395036697e-03,1.833286136388778687e-01,-8.674616366624832153e-02,-4.175551831722259521e-01,-1.350696831941604614e-01,-5.258619785308837891e-01,-2.487946301698684692e-02,1.445493996143341064e-01,1.530881077051162720e-01,2.549900412559509277e-01,2.435089945793151855e-01,-3.182073831558227539e-01,2.135496139526367188e-01,-9.345734119415283203e-02,-2.758762240409851074e-01,-1.645898669958114624e-01,4.592103511095046997e-02,-2.951391972601413727e-02,-1.942841261625289917e-01,-3.575036674737930298e-02,5.841009020805358887e-01,-1.377299427986145020e-01,-2.134395688772201538e-01,4.849226176738739014e-01,1.204498112201690674e-01,-9.251220524311065674e-02,1.667466461658477783e-01,1.020174995064735413e-01,3.154716193675994873e-01,-6.423352286219596863e-03
-1.442695558071136475e-01,-2.710516005754470825e-02,-8.720208890736103058e-03,-3.675870224833488464e-02,4.213156998157501221e-01,-3.097927756607532501e-02,-4.345472902059555054e-02,-5.881706997752189636e-02,3.133721649646759033e-02,-6.143313273787498474e-02,1.878434121608734131e-01,1.342144459486007690e-01,-4.241057932376861572e-01,-2.924978733062744141e-01,2.164736390113830566e-01,4.593440592288970947e-01,3.410655856132507324e-01,-3.082666397094726562e-01,-3.763383626937866211e-01,1.236213222146034241e-01,1.222831532359123230e-01,-1.126779466867446899e-01,-1.466824412345886230e-01,2.367416769266128540e-01,8.019959330558776855e-01,-2.808680236339569092e-01,-1.963681727647781372e-01,4.633534550666809082e-01,1.088296175003051758e-01,3.285392001271247864e-02,1.665374934673309326e-01,1.487481147050857544e-01,-2.896695733070373535e-01,-2.921770215034484863e-01,-5.763175487518310547e-01,-4.111878275871276855e-01,7.323224842548370361e-02,-4.997817277908325195e-01,-2.231000661849975586e-01,7.814318537712097168e-01,-5.401721596717834473e-02,-1.143877357244491577e-01,5.292112007737159729e-02,1.261192858219146729e-01,4.537615180015563965e-01,3.579271733760833740e-01,6.493972241878509521e-02,-4.068563506007194519e-02,-7.548880763351917267e-03,1.960427016019821167e-01,2.389014214277267456e-01,2.030590921640396118e-01,-1.676658391952514648e-01,5.674720928072929382e-02,1.299335807561874390e-01,5.053243041038513184e-01,3.593669235706329346e-01,2.720582857728004456e-02,-3.785064816474914551e-01,2.162675559520721436e-01,-3.630238175392150879e-01,5.128332972526550293e-01,2.904642224311828613e-01,9.021019935607910156e-02,9.688561409711837769e-02,8.631984819658100605e-04,-5.062956213951110840e-01,-8.372508883476257324e-01,-5.446031093597412109e-01,2.071101069450378418e-01,-3.864297270774841309e-01,-1.201475933194160461e-01,1.508925408124923706e-01,-1.214415431022644043e-01,-8.168251812458038330e-02,3.322327435016632080e-01,-8.612645417451858521e-02,-3.068587742745876312e-02,4.003821015357971191e-01,-2.818929851055145264e-01,-2.379449754953384399e-01,-4.468568265438079834e-01,3.676899075508117676e-01,-1.844463497400283813e-01,1.376945874653756618e-03,5.333057641983032227e-01,-7.388689368963241577e-02,-1.522885262966156006e-02,-4.050569608807563782e-02,-1.663922369480133057e-01,-1.559751778841018677e-01,2.344336360692977905e-01,-6.187492236495018005e-02,-3.851878941059112549e-01,-1.203753054141998291e-01,1.343097090721130371e-01,3.004472851753234863e-01,-3.394002020359039307e-01,-3.596280813217163086e-01,5.859475731849670410e-01
-1.028921380639076233e-01,-3.224955499172210693e-01,1.662933379411697388e-01,7.112722098827362061e-02,-5.925375223159790039e-02,3.139418065547943115e-01,-9.236874431371688843e-02,1.723411381244659424e-01,1.157367378473281860e-01,1.777573488652706146e-02,-2.051930874586105347e-01,3.449195325374603271e-01,2.171826511621475220e-01,3.080297075212001801e-02,3.103732466697692871e-01,-6.151710152626037598e-01,1.088382899761199951e-01,1.560389101505279541e-01,3.201151192188262939e-01,1.163920946419239044e-02,1.565397977828979492e-01,-3.518877923488616943e-01,-6.607560813426971436e-02,2.333027273416519165e-01,-7.163776457309722900e-02,-4.521837234497070312e-01,-5.219884961843490601e-02,5.227037519216537476e-02,4.163017123937606812e-02,-1.407781243324279785e-01,3.211657404899597168e-01,-2.191515266895294189e-01,-3.812929391860961914e-01,-2.984963655471801758e-01,-4.977957904338836670e-01,-6.442114114761352539e-01,-1.415716856718063354e-01,-3.881668150424957275e-01,2.935886848717927933e-03,1.570101231336593628e-01,1.501128673553466797e-01,-3.818591237068176270e-01,1.614889800548553467e-01,-3.316256403923034668e-01,-2.669124007225036621e-01,2.056926786899566650e-01,9.638904780149459839e-02,1.991326510906219482e-01,1.467834860086441040e-01,6.474263221025466919e-02,-3.672329783439636230e-01,1.960187917575240135e-03,1.110825017094612122e-01,1.392008811235427856e-01,1.655396372079849243e-01,9.403874725103378296e-02,-4.371780157089233398e-01,5.218541249632835388e-02,-1.277671307325363159e-01,-1.777866184711456299e-01,-1.260416489094495773e-02,2.048185467720031738e-01,1.817297488451004028e-01,1.492835134267807007e-01,7.474765777587890625e-01,3.327722549438476562e-01,-1.578573286533355713e-01,3.757192492485046387e-01,-1.044514700770378113e-01,-1.006114929914474487e-01,3.392142951488494873e-01,-7.707250863313674927e-02,1.832826882600784302e-01,-3.198809027671813965e-01,-2.394794076681137085e-01,5.054530501365661621e-01,1.068542227149009705e-01,-6.070371344685554504e-02,4.417338967323303223e-01,-4.671141803264617920e-01,1.850118786096572876e-01,2.942799627780914307e-01,2.136824280023574829e-02,-3.202140331268310547e-01,-1.560433302074670792e-02,3.644074499607086182e-01,3.741425275802612305e-01,4.700311124324798584e-01,-1.843986958265304565e-01,1.653105169534683228e-01,-2.435611933469772339e-01,-3.360978662967681885e-01,-6.675887852907180786e-02,-1.131777763366699219e-01,-3.732956573367118835e-02,6.329511404037475586e-01,-1.263454854488372803e-01,6.841880083084106445e-02,-4.744476974010467529e-01,2.929314672946929932e-01
