-1.675090640783309937e-01,-4.258252084255218506e-01,1.535771638154983521e-01,1.960176229476928711e-02,-1.522139012813568115e-01,2.509309053421020508e-01,1.999458223581314087e-01,-1.093444228172302246e-01,5.680281668901443481e-02,-2.973241508007049561e-01,1.585623919963836670e-01,-4.947495758533477783e-01,7.647585589438676834e-03,-1.493067443370819092e-01,7.877238988876342773e-01,-1.252487488090991974e-02,2.256293445825576782e-01,2.370685636997222900e-01,2.777551114559173584e-01,3.321838378906250000e-01,2.792510092258453369e-01,2.917149476706981659e-02,5.276340618729591370e-02,-2.259868010878562927e-02,1.142182871699333191e-01,6.559742093086242676e-01,3.657243773341178894e-02,6.509593725204467773e-01,-1.087675765156745911e-01,-3.461630344390869141e-01,3.393371999263763428e-01,1.414894685149192810e-02,3.549420535564422607e-01,3.164521157741546631e-01,2.944014966487884521e-01,3.052923977375030518e-01,2.137660384178161621e-01,2.814529836177825928e-02,9.488512761890888214e-03,5.092315003275871277e-02,8.404990285634994507e-02,-1.086208298802375793e-01,-1.386003009974956512e-02,1.162257604300975800e-02,-2.152086049318313599e-01,-4.542092978954315186e-01,9.469538927078247070e-02,-4.637607336044311523e-01,-1.833648793399333954e-02,-1.435524970293045044e-01,3.989684581756591797e-02,1.045391857624053955e-01,5.008158087730407715e-01,2.074984759092330933e-01,-3.607337176799774170e-02,-1.277991235256195068e-01,-7.890999317169189453e-03,-3.576000630855560303e-01,5.540751293301582336e-02,-3.400340080261230469e-01,-1.275948248803615570e-02,-8.729212731122970581e-02,3.528933227062225342e-02,-3.029692545533180237e-02,-5.077857971191406250e-01,-1.929255723953247070e-01,-2.313606813549995422e-02,4.034537374973297119e-01,-3.219204545021057129e-01,-1.628754311241209507e-03,-3.699135407805442810e-02,-1.700452715158462524e-01,2.805839478969573975e-01,-2.492313086986541748e-01,-3.778454363346099854e-01,2.528712451457977295e-01,1.168330162763595581e-01,-2.421920886263251305e-03,8.797474205493927002e-02,5.223221331834793091e-02
-5.606709420680999756e-02,2.620491981506347656e-01,3.079277276992797852e-01,-2.043751440942287445e-02,-3.597012162208557129e-02,1.304941028356552124e-01,9.914024174213409424e-02,3.168594241142272949e-01,-5.389422550797462463e-02,-1.406010091304779053e-01,-6.172056198120117188e-01,2.721251249313354492e-01,7.774775475263595581e-02,3.014996051788330078e-01,-3.268311321735382080e-01,8.916277438402175903e-03,1.787922233343124390e-01,5.475997924804687500e-02,-1.780960559844970703e-01,3.043416440486907959e-01,-2.980619966983795166e-01,-1.899239374324679375e-03,-3.016946017742156982e-01,2.044203132390975952e-01,-9.899465441703796387e-01,-2.641846239566802979e-01,4.412461817264556885e-01,3.911890089511871338e-02,-8.890572935342788696e-02,-2.338404534384608269e-03,-1.630917936563491821e-01,1.783619225025177002e-01,6.074585914611816406e-01,-3.623756766319274902e-01,2.937892675399780273e-01,5.413911938667297363e-01,-2.758227586746215820e-01,4.976426959037780762e-01,3.540459275245666504e-02,-5.584666132926940918e-01,-4.340427219867706299e-01,-3.509770706295967102e-02,-8.386570843867957592e-04,-1.062322035431861877e-02,7.805577013641595840e-03,1.018951088190078735e-01,-7.861084342002868652e-01,1.410938501358032227e-01,1.435107924044132233e-02,-3.649520128965377808e-02,-2.068921923637390137e-02,3.403272032737731934e-01,-7.571186870336532593e-02,9.954024106264114380e-02,4.672954604029655457e-02,-8.399328798986971378e-04,3.820940256118774414e-01,5.746962875127792358e-02,5.368351191282272339e-02,-2.403011173009872437e-01,1.477355416864156723e-02,4.193091094493865967e-01,-3.575525060296058655e-02,2.487530708312988281e-01,-7.002438418567180634e-03,-2.561917006969451904e-01,5.164582133293151855e-01,7.123823165893554688e-01,3.237063586711883545e-01,1.245756540447473526e-02,2.473602145910263062e-01,2.709419429302215576e-01,-3.169335424900054932e-01,-1.790195256471633911e-01,3.336156308650970459e-01,1.448249444365501404e-02,-1.139116808772087097e-01,-2.300175838172435760e-02,5.929924249649047852e-01,7.674244791269302368e-02
6.446306705474853516e-01,3.504247069358825684e-01,1.869334578514099121e-01,-1.271917857229709625e-02,-5.203713178634643555e-01,-4.288085699081420898e-01,-2.999081909656524658e-01,1.385442763566970825e-01,4.351422190666198730e-01,5.001376271247863770e-01,-2.247437089681625366e-01,-1.079111918807029724e-01,8.833541274070739746e-01,-1.216815635561943054e-01,-4.608917236328125000e-02,-1.144026033580303192e-02,-8.245607614517211914e-01,3.534947708249092102e-02,-7.857170887291431427e-03,7.598357200622558594e-01,1.343080699443817139e-01,1.620466709136962891e-01,2.915004193782806396e-01,4.224814772605895996e-01,5.905613303184509277e-02,2.834395170211791992e-01,-1.163017451763153076e-01,-4.676948189735412598e-01,-1.219658106565475464e-01,3.497055172920227051e-01,-3.797690197825431824e-02,2.361210137605667114e-01,-2.793697118759155273e-01,7.797647267580032349e-02,-5.409279465675354004e-01,3.192545771598815918e-01,1.365680396556854248e-01,5.211421847343444824e-01,-2.443014085292816162e-02,5.093159675598144531e-01,1.589133441448211670e-01,-8.843799680471420288e-02,6.357213258743286133e-01,-1.299808081239461899e-02,-3.233413696289062500e-01,2.666869461536407471e-01,2.467065602540969849e-01,4.533837139606475830e-01,-2.202342264354228973e-02,1.137036532163619995e-01,4.025932401418685913e-02,1.950367093086242676e-01,1.858390867710113525e-01,4.846266284584999084e-02,2.718203067779541016e-01,3.133502900600433350e-01,1.808089949190616608e-02,4.223509430885314941e-01,-2.212873101234436035e-01,-2.837753891944885254e-01,-7.111463230103254318e-03,1.764599531888961792e-01,5.122230947017669678e-02,3.536020815372467041e-01,4.172485768795013428e-01,2.015967369079589844e-01,2.460904717445373535e-01,3.731245100498199463e-01,-8.777752518653869629e-02,5.987655743956565857e-02,1.167854219675064087e-01,1.677107959985733032e-01,-4.162358939647674561e-01,5.137142539024353027e-02,-7.653748393058776855e-01,1.873314380645751953e-01,-3.111966550350189209e-01,-2.321941405534744263e-02,-4.182186126708984375e-01,1.354325413703918457e-01
4.359758459031581879e-03,-2.030449062585830688e-01,2.381304353475570679e-01,-1.252121943980455399e-02,8.979202061891555786e-02,-1.003316760063171387e+00,-4.036200642585754395e-01,-1.195535715669393539e-02,1.188263520598411560e-01,2.146616727113723755e-01,-3.462740778923034668e-01,3.204984664916992188e-01,1.793921887874603271e-01,-1.344713568687438965e-01,-2.464742958545684814e-02,2.930320985615253448e-02,2.938482165336608887e-01,-2.928042113780975342e-01,3.403916358947753906e-01,1.802951395511627197e-01,-1.517535597085952759e-01,2.979780733585357666e-01,-2.267528325319290161e-02,-7.798252999782562256e-02,-3.504197001457214355e-01,6.908443174324929714e-04,1.647950857877731323e-01,3.540299534797668457e-01,4.288785159587860107e-01,-3.762789815664291382e-02,3.349581360816955566e-02,5.308938622474670410e-01,-2.523363530635833740e-01,4.403561651706695557e-01,-6.810873746871948242e-02,2.794021368026733398e-01,2.118230611085891724e-01,-2.933112084865570068e-01,-2.742831781506538391e-02,1.563391983509063721e-01,4.923424869775772095e-02,-2.497400641441345215e-01,2.563267946243286133e-01,-3.400682762730866671e-04,1.795726865530014038e-01,3.958453834056854248e-01,2.331398427486419678e-01,6.499600410461425781e-02,-1.007738173939287663e-03,5.244835019111633301e-01,7.138739805668592453e-03,1.196206212043762207e-01,3.535651862621307373e-01,-1.578752249479293823e-01,4.894347395747900009e-03,-7.442899346351623535e-01,-2.839914560317993164e-01,-2.348571419715881348e-01,2.684591710567474365e-01,1.436803936958312988e-01,1.693503744900226593e-02,-1.301982998847961426e-01,7.909747958183288574e-02,1.763733103871345520e-03,7.808271050453186035e-02,1.098908185958862305e-01,1.762047559022903442e-01,2.804729044437408447e-01,-7.274701725691556931e-03,2.026543393731117249e-02,1.322865039110183716e-01,-3.930720314383506775e-02,1.419046074151992798e-01,1.049226429313421249e-02,-8.728904128074645996e-01,2.650137841701507568e-01,2.837096452713012695e-01,-1.114583294838666916e-02,-1.345572769641876221e-01,1.534397751092910767e-01
-1.026529446244239807e-01,-2.282851487398147583e-01,4.240779951214790344e-02,8.834868669509887695e-03,-5.611468553543090820e-01,-4.074803590774536133e-01,4.774795770645141602e-01,-3.012157678604125977e-01,-2.551096081733703613e-01,4.809519648551940918e-01,-1.022217124700546265e-01,5.236854031682014465e-02,3.014534711837768555e-01,4.632817506790161133e-01,-8.487396836280822754e-01,-3.810124099254608154e-02,3.410290479660034180e-01,9.294623881578445435e-02,-2.075850777328014374e-02,8.380765914916992188e-01,-1.349868811666965485e-02,-2.385825216770172119e-01,-5.788929760456085205e-02,1.649186760187149048e-01,3.387107863090932369e-04,-2.693254947662353516e-01,-2.782478630542755127e-01,3.665314018726348877e-01,1.081234142184257507e-01,6.862648129463195801e-01,4.207102954387664795e-01,5.912414193153381348e-02,3.003008961677551270e-01,7.420779019594192505e-02,2.986778737977147102e-03,4.596514701843261719e-01,6.595759391784667969e-01,-8.971397764980792999e-03,-2.400390617549419403e-02,-3.413333296775817871e-01,1.451285332441329956e-01,-3.348583579063415527e-01,1.469327658414840698e-01,6.629681680351495743e-03,-5.010624527931213379e-01,2.072041481733322144e-01,-4.606491923332214355e-01,1.899300664663314819e-01,2.938147401437163353e-03,3.555499315261840820e-01,7.132776081562042236e-03,1.668962389230728149e-01,3.186967968940734863e-02,-2.973248660564422607e-01,5.734532475471496582e-01,-3.393482267856597900e-01,-7.046496495604515076e-03,1.795033067464828491e-01,1.634212732315063477e-01,-3.181821703910827637e-01,-1.211600657552480698e-02,-1.802482604980468750e-01,1.195781491696834564e-02,2.286022007465362549e-01,2.102566361427307129e-01,-5.495379567146301270e-01,1.911769062280654907e-02,3.123293817043304443e-01,-4.472850561141967773e-01,-1.852740347385406494e-02,5.499485135078430176e-01,-8.579743094742298126e-03,6.535036116838455200e-02,-6.656552106142044067e-02,-5.441064015030860901e-02,5.171422958374023438e-01,-1.565357446670532227e-01,-2.343250066041946411e-02,-1.843822896480560303e-01,1.847302615642547607e-01
1.650795340538024902e-01,3.294034898281097412e-01,3.578537702560424805e-01,2.374287135899066925e-02,-1.590943187475204468e-01,-3.036732077598571777e-01,1.620661169290542603e-01,2.710721492767333984e-01,-4.890644177794456482e-02,-5.503768324851989746e-01,3.023555278778076172e-01,-9.836685657501220703e-02,2.569492459297180176e-01,-3.249012231826782227e-01,6.014830991625785828e-02,-1.414230559021234512e-02,-1.354803517460823059e-02,-5.210883617401123047e-01,-2.123572677373886108e-01,5.325257182121276855e-01,-8.543566614389419556e-02,-1.972184926271438599e-01,2.339893579483032227e-02,9.938560128211975098e-01,1.115197199396789074e-03,6.605798751115798950e-02,-2.363909780979156494e-01,1.064421702176332474e-02,-8.164348080754280090e-03,-3.683790937066078186e-02,6.067381501197814941e-01,2.061418592929840088e-01,1.707909703254699707e-01,2.479556798934936523e-01,-8.438847213983535767e-02,2.008431404829025269e-01,-8.025745749473571777e-01,-6.313088536262512207e-01,1.140218973159790039e-01,-2.309250384569168091e-01,3.791630566120147705e-01,-6.104995012283325195e-01,3.174232542514801025e-01,3.869034408126026392e-04,-1.960022896528244019e-01,1.952067613601684570e-01,3.181675821542739868e-02,1.164932996034622192e-01,-1.279291138052940369e-02,2.899820804595947266e-01,3.371137380599975586e-02,-5.121774598956108093e-02,1.450849771499633789e-01,3.483585417270660400e-01,5.362527072429656982e-02,6.770160794258117676e-01,1.370936185121536255e-01,3.296404778957366943e-01,-2.609506063163280487e-02,-2.162358611822128296e-01,-8.915768936276435852e-03,1.720794141292572021e-01,1.590890809893608093e-02,-1.110316812992095947e-02,-1.637361198663711548e-01,1.222830638289451599e-01,-1.277319435030221939e-02,-1.337003335356712341e-02,4.801716282963752747e-02,-6.398803088814020157e-04,1.360251456499099731e-01,5.070518329739570618e-02,1.258164048194885254e-01,7.529114931821823120e-02,2.284294553101062775e-02,1.532168090343475342e-01,5.051693320274353027e-01,-1.813347102142870426e-03,-8.257874846458435059e-01,2.358237057924270630e-01
2.683337330818176270e-01,-3.180324286222457886e-02,-4.597253501415252686e-01,-9.738073567859828472e-04,2.441689558327198029e-02,-4.200488328933715820e-01,-4.605025798082351685e-02,-2.927661836147308350e-01,7.510638982057571411e-02,1.983838230371475220e-01,-4.212103188037872314e-01,1.772572994232177734e-01,2.826893329620361328e-01,6.660262346267700195e-01,-3.198320865631103516e-01,-3.524043038487434387e-02,1.931826919317245483e-01,3.763863816857337952e-02,2.947101294994354248e-01,2.338646650314331055e-01,-4.092397987842559814e-01,-4.986769333481788635e-02,-9.374266862869262695e-02,4.866668209433555603e-02,3.886343836784362793e-01,1.221275925636291504e-01,2.192286550998687744e-01,1.391279399394989014e-01,3.405872285366058350e-01,1.090550720691680908e-01,2.243944108486175537e-01,4.955788608640432358e-03,3.342506885528564453e-01,1.986533403396606445e-01,3.709371984004974365e-01,4.789015650749206543e-02,1.605475693941116333e-01,-2.922622561454772949e-01,-8.256524801254272461e-02,3.189175426959991455e-01,-4.154026508331298828e-01,7.493366301059722900e-02,-6.718628853559494019e-02,-8.445697836577892303e-03,3.590140640735626221e-01,6.035419106483459473e-01,-1.001849919557571411e-01,-1.294103264808654785e-01,5.409206263720989227e-03,4.225003346800804138e-02,-3.774926811456680298e-02,-1.432257443666458130e-01,4.218159914016723633e-01,-4.418992102146148682e-01,-1.148436218500137329e-01,-1.596416682004928589e-01,-3.027855753898620605e-01,1.047676652669906616e-01,1.238794922828674316e-01,-5.958147048950195312e-01,-3.196286782622337341e-02,1.482068300247192383e-01,2.713055349886417389e-02,2.073096781969070435e-01,-2.460054159164428711e-01,1.326333433389663696e-01,3.521715402603149414e-01,6.343517303466796875e-01,-9.781970828771591187e-02,1.271626632660627365e-02,2.914845049381256104e-01,-1.419685184955596924e-01,-2.615777552127838135e-01,-2.358877509832382202e-01,-1.954362690448760986e-01,-3.951808437705039978e-02,1.031167432665824890e-02,-6.124105770140886307e-03,8.047550916671752930e-03,1.396292448043823242e-01
-3.129886090755462646e-01,3.609171509742736816e-01,5.276204943656921387e-01,1.901636086404323578e-02,4.228130355477333069e-02,1.053489372134208679e-01,3.565637469291687012e-01,1.701332628726959229e-01,3.184050917625427246e-01,1.296944729983806610e-02,-3.650613427162170410e-01,-3.239606320858001709e-01,4.494978487491607666e-01,-6.470354646444320679e-02,3.453727662563323975e-01,1.778045855462551117e-02,5.786084532737731934e-01,3.585664927959442139e-01,1.160305440425872803e-01,-3.731035888195037842e-01,5.794378519058227539e-01,2.757033705711364746e-01,2.805700898170471191e-01,1.944753080606460571e-01,7.202176451683044434e-01,-2.475923448801040649e-01,-9.840644150972366333e-02,3.287586569786071777e-02,1.177120581269264221e-01,4.052423834800720215e-01,4.254404306411743164e-01,1.144545972347259521e-01,6.082418560981750488e-01,2.194203734397888184e-01,-8.456051349639892578e-02,1.348999142646789551e-01,3.783502578735351562e-01,-1.131686642765998840e-01,1.123763322830200195e-01,1.228705793619155884e-01,-4.356585443019866943e-01,7.021575570106506348e-01,6.287008523941040039e-02,1.042145304381847382e-02,-5.187892317771911621e-01,2.797431051731109619e-01,3.677373528480529785e-01,1.569905132055282593e-01,-2.084566652774810791e-02,2.216188162565231323e-01,-3.001698665320873260e-02,1.685853898525238037e-01,-3.400687575340270996e-01,-1.365312933921813965e-01,-1.242300942540168762e-01,1.876314133405685425e-01,-5.026251673698425293e-01,-1.281729638576507568e-01,2.993272058665752411e-02,-6.832917332649230957e-01,1.377286016941070557e-02,6.288716942071914673e-02,2.459977380931377411e-02,-2.375077903270721436e-01,1.013151854276657104e-01,2.922323346138000488e-01,8.532392093911767006e-04,4.868176206946372986e-02,2.842717766761779785e-01,-1.202765945345163345e-02,-1.391096264123916626e-01,-5.408624410629272461e-01,-2.917259335517883301e-01,-4.753922224044799805e-01,-3.590399026870727539e-01,-2.393952459096908569e-01,-1.449634134769439697e-01,-8.032054640352725983e-03,1.193095520138740540e-01,2.919068094342947006e-03
1.322714835405349731e-01,-6.183449178934097290e-02,3.180243968963623047e-01,5.199245177209377289e-03,1.126089915633201599e-01,-2.954671345651149750e-02,-9.465298801660537720e-02,-7.791187614202499390e-02,-1.525736153125762939e-01,6.013369187712669373e-02,-2.980659306049346924e-01,-4.172195196151733398e-01,2.462854087352752686e-01,-2.751119136810302734e-01,-1.074762418866157532e-01,-2.370162121951580048e-02,4.911864399909973145e-01,-2.845416963100433350e-01,6.183403134346008301e-01,-4.555406272411346436e-01,7.353912293910980225e-02,-5.139553546905517578e-01,-1.258223950862884521e-01,-2.321615368127822876e-01,1.076222881674766541e-01,3.117959201335906982e-01,3.277651071548461914e-01,7.402066886425018311e-02,1.057998016476631165e-01,4.111428260803222656e-01,1.546864509582519531e-01,-1.237763538956642151e-01,1.599892079830169678e-01,9.036870300769805908e-02,-5.452723503112792969e-01,-4.145247340202331543e-01,5.364886522293090820e-01,4.365227818489074707e-01,-9.160570055246353149e-02,2.783646583557128906e-01,3.842073678970336914e-02,-4.106349647045135498e-01,2.519712150096893311e-01,-2.294953726232051849e-02,-2.884266376495361328e-01,1.394503861665725708e-01,6.589944660663604736e-02,-1.429914385080337524e-01,1.102143898606300354e-02,4.859556257724761963e-02,-6.517088040709495544e-03,5.878034606575965881e-02,-1.151629537343978882e-02,2.907907962799072266e-01,-2.693064808845520020e-01,1.962136775255203247e-01,-9.665133804082870483e-02,-3.134207725524902344e-01,8.661274611949920654e-02,1.168153733015060425e-01,-4.351250827312469482e-02,-9.474879503250122070e-02,2.087579108774662018e-03,1.112657785415649414e-01,-4.678589999675750732e-01,1.656119823455810547e-01,-1.115579679608345032e-01,1.124166604131460190e-02,2.712232172489166260e-01,4.935555625706911087e-03,-1.802880614995956421e-01,-3.171702101826667786e-02,3.828852772712707520e-01,-1.102017164230346680e+00,2.130138278007507324e-01,2.898418009281158447e-01,6.554760038852691650e-02,-9.601406054571270943e-04,-2.776277661323547363e-01,-1.648560464382171631e-01
3.062049746513366699e-01,1.687546074390411377e-01,1.008787378668785095e-01,4.180645104497671127e-03,6.563536524772644043e-01,-5.436026453971862793e-01,-2.948520779609680176e-01,-1.836023688316345215e+00,6.279111504554748535e-01,-2.231510877609252930e-01,-2.500657439231872559e-01,-1.562196910381317139e-01,-1.030159145593643188e-01,-6.551980227231979370e-02,3.342990949749946594e-02,1.042345352470874786e-02,1.582237929105758667e-01,6.947179138660430908e-02,-2.767584323883056641e-01,1.427073627710342407e-01,3.449161350727081299e-01,-5.839076638221740723e-01,-2.082296162843704224e-01,-7.370090484619140625e-02,7.224652171134948730e-02,4.500653445720672607e-01,4.598234295845031738e-01,-1.234514936804771423e-01,3.522214889526367188e-01,-1.331605464220046997e-01,9.890074729919433594e-01,-2.742679417133331299e-01,-2.190448790788650513e-01,3.308454453945159912e-01,-8.220692276954650879e-01,-1.653882265090942383e-01,5.374312400817871094e-01,5.567711591720581055e-01,-2.628490515053272247e-02,7.767398357391357422e-01,3.403489589691162109e-01,4.918263256549835205e-01,-4.161422327160835266e-02,-8.546299301087856293e-03,-9.968245029449462891e-02,4.475735425949096680e-01,-3.645215630531311035e-01,4.553622752428054810e-02,-7.444149814546108246e-04,3.956923633813858032e-02,1.350615173578262329e-02,-2.015213966369628906e-01,-3.875057697296142578e-01,6.098529100418090820e-01,6.891534477472305298e-02,9.955557584762573242e-01,8.190715312957763672e-02,4.949342310428619385e-01,7.545529864728450775e-03,1.429255157709121704e-01,5.492842290550470352e-03,-4.648095369338989258e-02,3.494508191943168640e-02,-3.874000012874603271e-01,-2.203159928321838379e-01,4.556047022342681885e-01,-5.437042117118835449e-01,-5.047676619142293930e-03,9.020392596721649170e-02,-4.193660803139209747e-03,-4.540815651416778564e-01,6.755304336547851562e-02,-3.118231296539306641e-01,1.588286273181438446e-02,4.248762726783752441e-01,-1.300777494907379150e-01,3.986762166023254395e-01,-2.391896396875381470e-02,2.323279529809951782e-02,-2.933686599135398865e-02
-5.954043269157409668e-01,-3.477947711944580078e-01,3.169370293617248535e-01,1.728889159858226776e-02,-3.861697614192962646e-01,2.644784748554229736e-01,1.639640927314758301e-01,3.491322696208953857e-02,-4.722885489463806152e-01,1.889939159154891968e-01,3.707220554351806641e-01,7.651831209659576416e-02,-9.567378461360931396e-02,-7.775175571441650391e-02,3.083299696445465088e-01,-2.070434018969535828e-02,-3.829277679324150085e-02,-3.141970634460449219e-01,1.226210966706275940e-01,2.298133671283721924e-01,-1.995626091957092285e-01,8.279148489236831665e-02,9.926429390907287598e-02,-1.508219093084335327e-01,8.644542098045349121e-02,2.514337599277496338e-01,-1.141277849674224854e-01,2.375376969575881958e-02,-1.119381070137023926e+00,-1.155574023723602295e-01,-2.119349129498004913e-02,1.161168143153190613e-02,1.150069013237953186e-01,4.250845313072204590e-01,-3.321204483509063721e-01,-7.364268600940704346e-02,-3.402737379074096680e-01,-1.554656624794006348e-01,8.428926020860671997e-02,2.044099420309066772e-01,3.094071708619594574e-02,3.470083773136138916e-01,-1.867410838603973389e-01,-3.248687367886304855e-03,1.568469405174255371e-02,1.807017922401428223e-01,1.873776502907276154e-02,-1.301587820053100586e-01,6.088294088840484619e-03,-2.267892807722091675e-01,-1.957762241363525391e-02,-1.978517323732376099e-01,1.179575175046920776e-01,2.532595992088317871e-01,2.287505418062210083e-01,2.016361355781555176e-01,2.623816430568695068e-01,2.839163541793823242e-01,1.490022987127304077e-01,1.035769209265708923e-01,-2.853269502520561218e-02,3.893719613552093506e-01,5.057651922106742859e-02,-4.247500300407409668e-01,-1.719368249177932739e-01,2.645783722400665283e-01,1.236071810126304626e-01,2.504314184188842773e-01,-2.261792570352554321e-01,-2.386377193033695221e-02,3.745418488979339600e-01,7.153811305761337280e-02,4.487245976924896240e-01,2.876023054122924805e-01,2.367096245288848877e-01,2.018491029739379883e-01,-7.896224409341812134e-02,6.712895818054676056e-03,6.322744488716125488e-02,-1.818384975194931030e-01
1.148529946804046631e-01,1.611272841691970825e-01,4.123112857341766357e-01,-1.934702042490243912e-03,3.719702064990997314e-01,-4.228164255619049072e-02,-5.205215513706207275e-02,2.766854315996170044e-02,-1.589140295982360840e-01,-4.837960302829742432e-01,-2.318947315216064453e-01,4.321776330471038818e-02,9.916362166404724121e-02,-7.309111356735229492e-01,2.919444441795349121e-01,-1.733240485191345215e-02,-4.599930644035339355e-01,2.020831964910030365e-02,-5.718813836574554443e-02,-6.450115144252777100e-02,-6.617742031812667847e-02,1.440776288509368896e-01,-1.657218486070632935e-02,-2.219430655241012573e-01,-8.920600265264511108e-02,1.570522189140319824e-01,1.334061920642852783e-01,-2.113774716854095459e-01,-6.109701395034790039e-01,3.998449146747589111e-01,2.849114835262298584e-01,6.352548301219940186e-02,5.202158689498901367e-01,1.881613880395889282e-01,-2.530492842197418213e-01,-2.610377073287963867e-01,-2.774084806442260742e-01,4.697319269180297852e-01,1.194030866026878357e-01,2.769268751144409180e-01,4.753878116607666016e-01,-1.825401186943054199e-01,4.434507340192794800e-02,2.145892754197120667e-02,1.801359653472900391e-01,-1.796760857105255127e-01,2.407817095518112183e-01,3.257879018783569336e-01,-2.883416134864091873e-03,3.148523718118667603e-02,6.739994045346975327e-03,-8.709180355072021484e-02,-1.833433955907821655e-01,3.060813248157501221e-01,-3.039067387580871582e-01,4.062077403068542480e-01,6.141287088394165039e-01,2.696826159954071045e-01,1.590196770848706365e-04,2.280087620019912720e-01,1.230955030769109726e-02,4.398379027843475342e-01,-8.751054410822689533e-04,-1.285470724105834961e-01,4.176815748214721680e-01,7.561439275741577148e-02,-3.780663385987281799e-02,-3.001682162284851074e-01,2.111129611730575562e-01,6.561100482940673828e-03,4.950411915779113770e-01,3.487446010112762451e-01,-2.180466651916503906e-01,-7.163349539041519165e-02,1.835455894470214844e-01,2.060115039348602295e-01,-3.384765088558197021e-01,6.292199250310659409e-03,-5.781224966049194336e-01,-1.360703408718109131e-01
-1.618492901325225830e-01,-1.584405303001403809e-01,3.544819056987762451e-01,-4.775564186275005341e-03,-5.662817507982254028e-02,6.378336995840072632e-02,-6.413453258574008942e-03,2.034826427698135376e-01,-3.759307265281677246e-01,3.148588538169860840e-01,2.842164933681488037e-01,2.477706372737884521e-01,-3.911102935671806335e-02,-2.706349492073059082e-01,2.180592268705368042e-01,2.219699323177337646e-02,-2.199136018753051758e-01,-2.944630086421966553e-01,-2.479122206568717957e-02,5.983880162239074707e-01,-4.005847871303558350e-01,7.869537919759750366e-02,-8.311563730239868164e-02,8.648923039436340332e-01,4.973871633410453796e-02,1.746868640184402466e-01,3.645460903644561768e-01,-3.542130887508392334e-01,4.982978701591491699e-01,-8.214136958122253418e-02,-1.652588546276092529e-01,3.866737708449363708e-02,3.329768180847167969e-01,-2.179044783115386963e-01,-1.215878725051879883e-01,8.705799281597137451e-02,1.949712932109832764e-01,-7.730732858180999756e-02,2.115463465452194214e-01,-1.190794864669442177e-04,1.466338871978223324e-03,6.131851300597190857e-02,-7.315144687891006470e-02,-9.967939928174018860e-03,-4.397956132888793945e-01,-3.293071985244750977e-01,-6.949383020401000977e-01,4.100198671221733093e-02,1.798714511096477509e-04,-1.032370403409004211e-01,4.355277866125106812e-03,1.142863184213638306e-01,2.405790090560913086e-01,-2.550478838384151459e-02,-2.753530442714691162e-01,-1.521075516939163208e-01,3.143783211708068848e-01,1.919295266270637512e-02,9.001028537750244141e-02,4.450411349534988403e-02,1.528043672442436218e-02,5.377714335918426514e-02,1.723170839250087738e-02,2.668332755565643311e-01,1.350306421518325806e-01,-1.760547608137130737e-01,4.452729523181915283e-01,2.230822443962097168e-01,4.036566913127899170e-01,2.619876898825168610e-02,-3.853379487991333008e-01,7.870735973119735718e-02,1.778975427150726318e-01,5.202710628509521484e-01,3.101060688495635986e-01,-4.413624703884124756e-01,1.313172280788421631e-01,-2.740514837205410004e-02,6.111432313919067383e-01,-2.706365287303924561e-01
1.534681767225265503e-01,-2.550724744796752930e-01,3.275481164455413818e-01,-1.666063442826271057e-02,1.056659147143363953e-01,1.247643157839775085e-01,6.164048612117767334e-02,-5.038939043879508972e-02,-8.354552984237670898e-01,-2.328795194625854492e-01,3.243974596261978149e-02,2.411577552556991577e-01,-1.271333694458007812e-01,1.187646016478538513e-01,4.100702404975891113e-01,1.159668806940317154e-02,2.615261077880859375e-01,-5.754956230521202087e-02,1.590671837329864502e-01,3.634369233623147011e-03,-3.740343451499938965e-01,2.035233378410339355e-02,2.059166878461837769e-01,3.074834942817687988e-01,-1.070059388875961304e-01,2.693799138069152832e-02,4.977131634950637817e-02,-1.522857230156660080e-02,4.126987755298614502e-01,-4.223653972148895264e-01,4.933689534664154053e-01,-2.647229135036468506e-01,8.543325215578079224e-02,-1.872743666172027588e-02,-3.145572245121002197e-01,-3.851799294352531433e-02,3.217581212520599365e-01,-1.668315529823303223e-01,-6.243074312806129456e-02,1.062739789485931396e-01,1.132688745856285095e-01,-2.006723433732986450e-01,1.773313581943511963e-01,-1.279160962440073490e-03,1.426649391651153564e-01,6.213477626442909241e-02,-4.340738952159881592e-01,-4.064054042100906372e-02,2.322715707123279572e-03,-8.637931197881698608e-03,1.153019070625305176e-02,8.625566959381103516e-02,1.133493036031723022e-01,1.886591874063014984e-02,1.739197671413421631e-01,-3.640146851539611816e-01,1.523100733757019043e-01,1.636340469121932983e-01,-8.161589503288269043e-03,2.795651555061340332e-01,1.512548606842756271e-02,-1.334208548069000244e-01,6.670927256345748901e-02,2.809178829193115234e-01,-3.462070226669311523e-01,-3.737819194793701172e-01,1.600757092237472534e-01,3.810826539993286133e-01,-2.539828419685363770e-01,1.660852343775331974e-03,1.842610090970993042e-01,1.138651296496391296e-01,4.086049199104309082e-01,-3.868218064308166504e-01,1.559001654386520386e-01,3.150320053100585938e-01,-5.910059064626693726e-02,-5.039896350353956223e-04,-3.417745530605316162e-01,-1.509212106466293335e-01
1.097734645009040833e-01,-4.466807544231414795e-01,2.586055696010589600e-01,4.417353123426437378e-02,-2.188823074102401733e-01,-4.745676815509796143e-01,-3.373276591300964355e-01,-5.937387794256210327e-02,-6.175960898399353027e-01,-2.147137820720672607e-01,3.692016303539276123e-01,-1.732061058282852173e-01,-3.375693690031766891e-03,2.687034904956817627e-01,5.425125360488891602e-01,1.296244841068983078e-02,-6.657577157020568848e-01,-4.888322651386260986e-01,4.561369717121124268e-01,-1.172305792570114136e-01,-2.749441564083099365e-01,1.127977110445499420e-02,3.902952373027801514e-02,3.169261515140533447e-01,3.479149639606475830e-01,-1.333903521299362183e-01,-2.120956331491470337e-01,1.947325021028518677e-01,2.118823230266571045e-01,2.390391528606414795e-01,7.843092083930969238e-01,-3.237434029579162598e-01,2.066284120082855225e-01,6.206415891647338867e-01,2.710294127464294434e-01,3.822733759880065918e-01,4.948715567588806152e-01,9.109024703502655029e-02,3.620471805334091187e-02,2.286863476037979126e-01,2.511467933654785156e-01,7.433432340621948242e-01,3.503876328468322754e-01,3.744109719991683960e-02,-1.480377018451690674e-01,-6.699087619781494141e-01,4.243742525577545166e-01,3.442436158657073975e-01,-4.756165668368339539e-02,1.958037018775939941e-01,-3.379504894837737083e-03,2.381138503551483154e-02,3.862601220607757568e-01,-5.014344453811645508e-01,3.846043646335601807e-01,-5.865520238876342773e-01,5.819763615727424622e-02,5.657968297600746155e-02,1.301122158765792847e-01,5.736384391784667969e-01,2.418856509029865265e-02,-3.804510831832885742e-01,5.811009556055068970e-02,4.228369593620300293e-01,1.813971698284149170e-01,-9.316765069961547852e-01,4.302687346935272217e-01,4.218069911003112793e-01,-3.293708264827728271e-01,-4.288322478532791138e-02,8.847109973430633545e-02,-4.763478413224220276e-02,4.353227615356445312e-01,1.645692586898803711e-01,-2.891383767127990723e-01,5.652711391448974609e-01,-4.083501175045967102e-02,2.472600713372230530e-02,3.991535902023315430e-01,5.931944251060485840e-01
4.872509278357028961e-03,-3.808510899543762207e-01,9.561049193143844604e-02,2.475528046488761902e-03,-2.436065077781677246e-01,-4.932889342308044434e-01,1.346486359834671021e-01,-2.628680467605590820e-01,1.698621660470962524e-01,1.715819686651229858e-01,-2.174633294343948364e-01,5.002494454383850098e-01,2.134077697992324829e-01,2.653371095657348633e-01,4.813871160149574280e-02,-2.768413349986076355e-02,-5.326737463474273682e-02,-1.481823623180389404e-01,6.098271012306213379e-01,4.217659682035446167e-02,-2.225602865219116211e-01,-7.422678172588348389e-02,-1.293832957744598389e-01,1.266623139381408691e-01,3.291128873825073242e-01,1.707215756177902222e-01,5.336453914642333984e-01,1.196747645735740662e-01,2.207315415143966675e-01,-7.893400639295578003e-02,-1.313520222902297974e-01,4.238441288471221924e-01,-8.146425336599349976e-02,5.108270049095153809e-01,-3.187783360481262207e-01,3.547153174877166748e-01,4.401996731758117676e-01,9.391985833644866943e-02,2.403406612575054169e-02,2.499237209558486938e-01,-2.792981266975402832e-01,1.458149552345275879e-01,-1.381074637174606323e-01,-1.668562414124608040e-03,5.982574224472045898e-01,2.848403453826904297e-01,-9.784594774246215820e-01,3.157207369804382324e-02,1.297680661082267761e-02,-1.488299369812011719e-01,2.939693443477153778e-02,-2.160351574420928955e-01,-2.579276263713836670e-01,-3.165324330329895020e-01,2.012160569429397583e-01,-3.204611241817474365e-01,-3.990360498428344727e-01,1.748813986778259277e-01,-1.308380365371704102e-01,2.295337319374084473e-01,-4.186313971877098083e-02,-7.328711748123168945e-01,3.850048035383224487e-02,2.672496736049652100e-01,-1.594683825969696045e-01,-4.381477236747741699e-01,-9.732667356729507446e-03,8.470317721366882324e-01,1.173921972513198853e-01,-2.773166168481111526e-03,-2.222678363323211670e-01,2.353752106428146362e-01,-3.628517314791679382e-02,-5.870710611343383789e-01,1.178979426622390747e-01,4.401737451553344727e-01,-1.205260455608367920e-01,2.097163349390029907e-02,-1.106269285082817078e-01,-2.014841139316558838e-02
-1.594998389482498169e-01,-6.831778287887573242e-01,-2.427013516426086426e-01,-1.940442807972431183e-02,9.694433212280273438e-02,-5.987237691879272461e-01,-3.445285856723785400e-01,-1.531747728586196899e-01,9.228374063968658447e-02,-6.290570646524429321e-02,-4.908193051815032959e-01,-3.924435004591941833e-03,2.088257819414138794e-01,-1.485876142978668213e-01,-2.686941996216773987e-02,-2.766545861959457397e-02,3.387902975082397461e-01,-4.288946092128753662e-01,-4.411618411540985107e-01,-4.272862970829010010e-01,-7.571114599704742432e-02,-7.508141994476318359e-01,2.167258262634277344e-01,-4.893144667148590088e-01,3.100431561470031738e-01,2.989088296890258789e-01,5.642201900482177734e-01,-1.981478482484817505e-01,5.935837626457214355e-01,1.263009905815124512e+00,-5.159223675727844238e-01,5.582726001739501953e-01,-7.432940006256103516e-01,-9.056650847196578979e-02,-4.191121459007263184e-01,9.386454522609710693e-02,9.901762604713439941e-01,1.852979511022567749e-01,-4.531617090106010437e-02,1.308042556047439575e-01,4.525929391384124756e-01,3.344231247901916504e-01,6.745336204767227173e-02,2.497573615983128548e-03,1.003075242042541504e-01,4.445503056049346924e-01,-1.751492619514465332e-01,-4.133430123329162598e-02,6.230051512829959393e-04,-1.868183463811874390e-01,1.693782210350036621e-02,-3.652724027633666992e-01,-4.016454517841339111e-01,2.627018652856349945e-02,-1.075815036892890930e-01,4.252145886421203613e-01,-5.024032592773437500e-01,3.720745909959077835e-03,8.407455682754516602e-02,6.387275457382202148e-01,-1.791509054601192474e-02,-3.525591492652893066e-01,5.996313411742448807e-03,-2.395858317613601685e-01,1.295948922634124756e-01,3.962991535663604736e-01,-8.639316074550151825e-03,1.088728666305541992e+00,7.112962603569030762e-01,1.235970482230186462e-02,-6.115614175796508789e-01,-4.342189058661460876e-02,1.552643030881881714e-01,-2.654327154159545898e-01,-2.144006267189979553e-02,1.727838069200515747e-01,5.449388623237609863e-01,1.082918699830770493e-02,-1.110513880848884583e-01,-3.211327791213989258e-01
3.644869327545166016e-01,-3.867757022380828857e-01,4.849632680416107178e-01,-1.561476942151784897e-02,-1.727647483348846436e-01,-7.056863903999328613e-01,3.141995966434478760e-01,2.232383638620376587e-01,2.737057805061340332e-01,1.792578399181365967e-01,4.983781278133392334e-01,1.839582920074462891e-01,2.387267649173736572e-01,4.716173410415649414e-01,-2.568743526935577393e-01,-2.062909863889217377e-02,-1.649716496467590332e-02,-5.527396202087402344e-01,-8.947672322392463684e-03,4.331301748752593994e-01,-2.704503238201141357e-01,3.396468758583068848e-01,6.420095264911651611e-02,-1.958329826593399048e-01,5.435948446393013000e-02,3.407220840454101562e-01,-5.511223152279853821e-02,6.657728552818298340e-01,2.931028418242931366e-02,-9.622432291507720947e-02,-3.169862553477287292e-02,5.599275827407836914e-01,6.148993596434593201e-02,-3.724214136600494385e-01,2.314859926700592041e-01,3.495781123638153076e-01,4.229629933834075928e-01,-1.117213815450668335e-01,5.405740439891815186e-02,-4.119296371936798096e-01,3.302155137062072754e-01,1.034851595759391785e-01,5.121492743492126465e-01,2.395842224359512329e-02,2.625091671943664551e-01,2.942746877670288086e-01,1.517129391431808472e-01,4.985307753086090088e-01,1.612676121294498444e-02,2.454317808151245117e-01,-3.555878624320030212e-02,-1.496410667896270752e-01,-3.416599929332733154e-01,-1.602082699537277222e-01,1.450478136539459229e-01,-7.024853825569152832e-01,-5.130941271781921387e-01,3.780007660388946533e-01,2.353306300938129425e-02,4.741427302360534668e-01,-1.667229644954204559e-02,3.993965685367584229e-01,1.125501394271850586e-01,1.717385798692703247e-01,-8.064664155244827271e-02,5.451511591672897339e-02,5.888373851776123047e-01,7.118078470230102539e-01,-1.247559189796447754e+00,-4.646641016006469727e-02,3.473041057586669922e-01,1.845547184348106384e-02,-9.703332930803298950e-02,4.216512441635131836e-01,-6.566194295883178711e-01,-1.653084717690944672e-02,-4.448172450065612793e-02,1.933330297470092773e-02,3.357318639755249023e-01,-3.808873891830444336e-01
-8.102632164955139160e-01,-7.420276850461959839e-02,6.672679781913757324e-01,1.894602179527282715e-02,-4.498108029365539551e-01,2.667816914618015289e-02,-4.907969012856483459e-02,-8.119948506355285645e-01,-6.258963942527770996e-01,4.761119186878204346e-01,1.227603778243064880e-01,3.937240540981292725e-01,5.501289665699005127e-02,8.334999084472656250e-01,4.287483394145965576e-01,1.579063944518566132e-02,-3.738592192530632019e-02,8.322575688362121582e-02,4.673087596893310547e-01,4.397170543670654297e-01,4.964688420295715332e-01,7.388193011283874512e-01,9.717921167612075806e-02,-2.388560920953750610e-01,-2.593630850315093994e-01,3.192054340615868568e-03,3.569670319557189941e-01,-1.643553078174591064e-01,1.295804232358932495e-01,4.359863698482513428e-01,7.242202758789062500e-01,-4.378261044621467590e-02,3.924513757228851318e-01,2.727274000644683838e-01,6.308805346488952637e-01,-9.157083034515380859e-01,-9.615703672170639038e-02,3.570475578308105469e-01,-1.141262799501419067e-01,3.182877302169799805e-01,1.669323891401290894e-01,8.785626292228698730e-02,-2.616088688373565674e-01,2.656182833015918732e-02,4.493007063865661621e-02,2.491439282894134521e-01,-5.563535094261169434e-01,6.110959649085998535e-01,-3.038728982210159302e-02,2.479284554719924927e-01,3.804227709770202637e-02,-1.716673076152801514e-01,2.317496836185455322e-01,-4.334663152694702148e-01,-8.661864697933197021e-02,1.540151536464691162e-01,1.158389151096343994e-01,-7.585710287094116211e-02,5.660968273878097534e-02,-1.406030803918838501e-01,-1.921540126204490662e-02,1.476118713617324829e-01,2.755230851471424103e-02,3.708736002445220947e-01,5.379247069358825684e-01,-3.881493508815765381e-01,-7.945070415735244751e-02,-1.226538047194480896e-02,9.100890755653381348e-01,-3.690699813887476921e-03,3.597146868705749512e-01,-9.022738039493560791e-02,-3.726857006549835205e-01,1.279875487089157104e-01,2.923301160335540771e-01,3.733685612678527832e-02,1.269816309213638306e-01,2.080198004841804504e-02,7.354329228401184082e-01,2.019653618335723877e-01
-2.070913463830947876e-01,-1.040755733847618103e-01,1.093254238367080688e-01,8.838752284646034241e-03,8.537506312131881714e-02,-3.767549991607666016e-01,-1.318043768405914307e-01,1.831350028514862061e-01,-5.472819805145263672e-01,-2.823645472526550293e-01,-8.081538975238800049e-02,-3.018083572387695312e-01,3.585125505924224854e-02,-1.439280062913894653e-01,-6.590835452079772949e-01,-3.115182183682918549e-02,-6.462365388870239258e-02,-2.067461311817169189e-01,-1.129122227430343628e-01,2.461823076009750366e-01,1.474074423313140869e-01,2.194412201642990112e-01,-2.311594784259796143e-03,-1.060481891036033630e-01,2.891059815883636475e-01,1.803187727928161621e-01,4.954468309879302979e-01,-4.231500923633575439e-01,-3.587408065795898438e-01,6.498556137084960938e-01,-1.055350676178932190e-01,-1.397011056542396545e-02,2.911779880523681641e-01,-2.980276644229888916e-01,1.149804294109344482e-01,-1.977405101060867310e-01,-1.944561898708343506e-01,-1.038754880428314209e-01,-2.469606883823871613e-02,-2.707685902714729309e-02,2.385750859975814819e-01,3.023166954517364502e-01,9.472442269325256348e-01,-1.662315800786018372e-02,-1.953221857547760010e-01,7.392993569374084473e-02,2.341037839651107788e-01,1.159311085939407349e-01,1.849877461791038513e-02,4.667447507381439209e-02,4.810264508705586195e-04,-5.526840686798095703e-02,5.270783603191375732e-02,2.872485518455505371e-01,-1.870764642953872681e-01,3.689236640930175781e-01,3.307222947478294373e-02,1.504481881856918335e-01,-1.094476431608200073e-01,-8.474485948681831360e-03,-2.660320885479450226e-02,-4.707861691713333130e-02,-5.558507516980171204e-03,2.070183157920837402e-01,-1.867097765207290649e-01,3.577797114849090576e-01,-2.751097381114959717e-01,-1.040124967694282532e-01,-9.918791800737380981e-02,1.468496304005384445e-02,1.707585155963897705e-02,4.372987430542707443e-03,-3.294654488563537598e-01,1.526552736759185791e-01,-2.919093072414398193e-01,4.116792082786560059e-01,-1.243930682539939880e-01,-1.366320904344320297e-02,-2.173619121313095093e-01,2.850241661071777344e-01
1.279089301824569702e-01,-4.298198595643043518e-02,4.135346114635467529e-01,-3.635211288928985596e-02,-6.269330978393554688e-01,-1.412537246942520142e-01,-4.772888496518135071e-02,6.630863249301910400e-02,-2.592492699623107910e-01,7.014387845993041992e-02,-1.726622581481933594e-01,-1.542814821004867554e-01,-1.602124720811843872e-01,5.504769086837768555e-01,1.274157017469406128e-01,-5.217808764427900314e-03,1.528856307268142700e-01,-3.632017225027084351e-02,4.588666260242462158e-01,7.034101486206054688e-01,-4.411849379539489746e-01,-2.248608320951461792e-01,-1.871034204959869385e-01,4.876386374235153198e-02,-1.090600863099098206e-01,2.995846867561340332e-01,2.850153297185897827e-02,1.536945104598999023e-01,3.628278076648712158e-01,6.091926246881484985e-02,5.210825204849243164e-01,-4.203177988529205322e-01,-2.222159877419471741e-03,-2.930083870887756348e-02,2.867688238620758057e-01,-2.187113910913467407e-01,-2.921039462089538574e-01,4.555789530277252197e-01,4.543467424809932709e-03,2.047906070947647095e-01,-7.910956442356109619e-02,-2.453604638576507568e-01,-3.627476096153259277e-01,1.129073090851306915e-02,5.055037736892700195e-01,-2.756094001233577728e-02,1.131692826747894287e-01,2.257817387580871582e-01,-3.706088755279779434e-04,3.314436972141265869e-01,1.080917567014694214e-02,1.563543528318405151e-01,3.012863099575042725e-01,-4.844265878200531006e-01,2.423103600740432739e-01,3.500784635543823242e-01,-1.705610156059265137e-01,-3.197966814041137695e-01,-2.172653377056121826e-02,-1.125422865152359009e-02,-6.258818786591291428e-03,-1.930466145277023315e-01,-4.416350647807121277e-02,1.989413350820541382e-01,-8.392733335494995117e-02,-1.369900107383728027e-01,-4.239155650138854980e-01,3.074603676795959473e-01,1.035057287663221359e-02,2.962267026305198669e-02,1.453713923692703247e-01,1.778410822153091431e-01,-5.470995903015136719e-01,-2.263057827949523926e-01,-3.053880929946899414e-01,6.777216196060180664e-01,2.511920407414436340e-02,2.920798398554325104e-02,-2.198787778615951538e-02,6.036981344223022461e-01
-2.335180044174194336e-01,-1.872272938489913940e-01,8.277855515480041504e-01,1.135085802525281906e-02,-3.237822651863098145e-01,-2.904208898544311523e-01,5.073976889252662659e-02,2.604699432849884033e-01,-4.981399774551391602e-01,4.874606803059577942e-02,7.193324714899063110e-02,4.453291296958923340e-01,8.469555526971817017e-03,-2.141200006008148193e-01,6.675086915493011475e-02,2.824726048856973648e-03,4.168584197759628296e-02,5.079941153526306152e-01,1.400601863861083984e-01,-2.918792068958282471e-01,1.611053049564361572e-01,4.045909643173217773e-01,-1.579872816801071167e-01,-2.591794431209564209e-01,1.338973045349121094e-01,1.955735683441162109e-01,-3.441027402877807617e-01,-3.700882196426391602e-01,5.974146127700805664e-01,5.548269748687744141e-01,7.475148886442184448e-02,-2.405066341161727905e-01,1.656774282455444336e-01,2.667120695114135742e-01,-5.246338620781898499e-02,3.287950456142425537e-01,2.720420658588409424e-01,4.777059331536293030e-02,-5.446550622582435608e-02,2.422153204679489136e-01,1.966134607791900635e-01,1.679330319166183472e-01,7.050217390060424805e-01,-2.257022424601018429e-04,-6.157183051109313965e-01,-5.564877390861511230e-01,3.127156794071197510e-01,4.390810057520866394e-02,6.367153488099575043e-03,3.278982266783714294e-02,-1.149265468120574951e-02,1.733496934175491333e-01,2.116025686264038086e-01,-9.678054600954055786e-03,1.934343427419662476e-01,4.113740026950836182e-01,1.289915740489959717e-01,-7.828833162784576416e-02,-4.977819696068763733e-02,2.637563645839691162e-01,-1.976638659834861755e-02,3.433866798877716064e-01,-1.592009887099266052e-02,-1.197636201977729797e-01,2.854929566383361816e-01,-3.285616040229797363e-01,3.621390461921691895e-01,1.096800938248634338e-01,-2.653415203094482422e-01,-6.159038748592138290e-03,2.626508474349975586e-01,-1.386645287275314331e-01,-1.313922107219696045e-01,-6.163374185562133789e-01,1.349306106567382812e-02,7.666514068841934204e-02,-6.080179214477539062e-01,-3.238408267498016357e-02,-8.585550636053085327e-02,6.116021890193223953e-03
-1.392087042331695557e-01,3.275099769234657288e-02,-1.413544118404388428e-01,-3.653276478871703148e-03,6.661015748977661133e-02,1.098939124494791031e-02,1.612116396427154541e-01,-2.672202885150909424e-01,2.139272689819335938e-01,-4.458827376365661621e-01,4.034146070480346680e-01,1.097316741943359375e-01,1.770720183849334717e-01,5.676357820630073547e-02,2.861699759960174561e-01,-2.996665984392166138e-02,1.249754875898361206e-01,-8.769153058528900146e-02,7.970085144042968750e-01,2.225014418363571167e-01,-1.367097496986389160e-01,-1.253056973218917847e-01,-7.006292790174484253e-02,-1.882199496030807495e-01,1.218366399407386780e-01,8.823033422231674194e-02,-2.372162938117980957e-01,-3.274745643138885498e-01,2.869944870471954346e-01,7.074091434478759766e-01,-2.638990245759487152e-02,4.710590541362762451e-01,-1.183062195777893066e-01,-3.037242591381072998e-01,-2.129759192466735840e-01,-7.143022119998931885e-02,4.143667519092559814e-01,4.379883706569671631e-01,-4.256347194314002991e-02,-2.520705461502075195e-01,-2.794405817985534668e-01,2.049166113138198853e-01,1.852755248546600342e-01,-7.749496959149837494e-03,-4.165888428688049316e-01,2.636404633522033691e-01,-6.905097365379333496e-01,-5.186745524406433105e-01,1.775256916880607605e-02,2.586728930473327637e-01,7.119716703891754150e-02,5.512493103742599487e-02,6.765307486057281494e-02,-1.337794810533523560e-01,1.853830963373184204e-01,-5.234584808349609375e-01,3.697492778301239014e-01,4.030584543943405151e-02,-6.412195507436990738e-03,1.662940680980682373e-01,-8.784120902419090271e-03,4.997802078723907471e-01,-6.075755134224891663e-02,1.603227257728576660e-01,-1.700830310583114624e-01,-8.250787854194641113e-02,-3.544191271066665649e-02,5.128852128982543945e-01,3.597560897469520569e-02,2.066901698708534241e-02,-2.843050658702850342e-01,5.806364417076110840e-01,2.209105342626571655e-01,1.335214376449584961e-01,4.522683918476104736e-01,1.474028802476823330e-03,-1.945226043462753296e-01,1.307222759351134300e-03,3.509432673454284668e-01,8.681151270866394043e-02
-1.501067876815795898e-01,-5.570342019200325012e-02,4.763987064361572266e-01,1.372863352298736572e-02,1.405354142189025879e-01,-9.197421371936798096e-02,5.458103865385055542e-02,3.945179283618927002e-01,5.040718913078308105e-01,-6.709018945693969727e-01,2.410804033279418945e-01,5.807370543479919434e-01,1.814834401011466980e-02,4.503651559352874756e-01,1.800394803285598755e-01,-1.217555627226829529e-02,-3.532918095588684082e-01,-3.502228260040283203e-01,6.909082531929016113e-01,9.991712123155593872e-02,5.826179310679435730e-02,5.583852529525756836e-02,3.875284269452095032e-02,1.729043871164321899e-01,8.618193119764328003e-02,8.215931057929992676e-02,-1.556310653686523438e-01,-8.442798256874084473e-02,-2.225239872932434082e-01,4.085520207881927490e-01,-1.497261375188827515e-01,2.509712278842926025e-01,3.979264199733734131e-01,-2.170266360044479370e-01,-8.369038105010986328e-01,3.072837889194488525e-01,2.916386425495147705e-01,-2.834100127220153809e-01,8.199419081211090088e-02,3.771782387048006058e-03,-1.462386846542358398e-01,-3.657166957855224609e-01,-6.093868613243103027e-01,3.390938416123390198e-02,2.785174846649169922e-01,-3.535493910312652588e-01,3.415856063365936279e-01,-7.804383058100938797e-03,-4.080673679709434509e-02,9.241505712270736694e-02,2.057065628468990326e-02,1.246327981352806091e-01,6.159180402755737305e-01,2.838221192359924316e-01,2.885966897010803223e-01,-2.925335764884948730e-01,4.893103539943695068e-01,1.253764033317565918e-01,1.733867675065994263e-01,1.213477551937103271e-01,5.239574704319238663e-03,3.744396846741437912e-03,-1.980265974998474121e-02,2.584390044212341309e-01,-7.038199156522750854e-02,-1.781994476914405823e-02,2.467594146728515625e-01,2.153443098068237305e-01,1.495558321475982666e-01,-3.133795037865638733e-02,-7.548605650663375854e-02,-3.712955862283706665e-02,2.659034132957458496e-01,1.434237062931060791e-01,-7.864433526992797852e-02,-3.709294497966766357e-01,4.729488492012023926e-01,4.151337593793869019e-02,-3.343678414821624756e-01,-3.319641649723052979e-01
-3.400704562664031982e-01,4.206378161907196045e-01,6.103380322456359863e-01,-5.390947312116622925e-02,1.990393102169036865e-01,-9.423415660858154297e-01,9.254774078726768494e-03,1.572014689445495605e-01,-1.971541792154312134e-01,3.710701689124107361e-02,5.446751713752746582e-01,-2.233429439365863800e-02,2.190601676702499390e-01,4.516936540603637695e-01,1.932349801063537598e-01,5.751917138695716858e-03,4.192346930503845215e-01,-4.218275249004364014e-01,3.516842126846313477e-01,5.196725726127624512e-01,1.345286220312118530e-01,3.490978479385375977e-01,-7.999337278306484222e-03,2.659347057342529297e-01,-3.574810922145843506e-01,-1.688501238822937012e-01,-3.106166142970323563e-03,4.923199713230133057e-01,3.993933275341987610e-02,3.694864809513092041e-01,5.310755968093872070e-01,4.172914326190948486e-01,4.311303794384002686e-01,1.878469139337539673e-01,2.189887687563896179e-02,5.817872881889343262e-01,3.068640530109405518e-01,6.545883603394031525e-03,1.639342010021209717e-01,-5.213529467582702637e-01,-6.227375268936157227e-01,-1.217336803674697876e-01,5.625036358833312988e-01,-3.697189316153526306e-02,-8.878981322050094604e-02,5.073851346969604492e-01,1.704456061124801636e-01,2.124418318271636963e-01,5.586991086602210999e-02,3.763582408428192139e-01,9.779023937880992889e-03,1.429650634527206421e-01,2.258190959692001343e-01,-3.102595210075378418e-01,-9.923275560140609741e-03,-2.261562049388885498e-01,2.197625674307346344e-02,3.991073369979858398e-01,2.833623588085174561e-01,-6.652587056159973145e-01,2.103080227971076965e-02,-2.174737453460693359e-01,-1.231700833886861801e-02,3.004342913627624512e-01,1.907238513231277466e-01,-1.067700505256652832e+00,6.935829669237136841e-02,7.306513786315917969e-01,2.452572733163833618e-01,3.635944053530693054e-02,6.722544133663177490e-02,-1.199575811624526978e-01,-7.986517250537872314e-02,-3.036762177944183350e-01,-4.536407589912414551e-01,1.937975734472274780e-01,1.159227341413497925e-01,2.761230990290641785e-02,-8.017446845769882202e-02,-6.304289400577545166e-02
-1.864132583141326904e-01,-3.287898600101470947e-01,4.433076977729797363e-01,1.391865778714418411e-02,-1.332576572895050049e-01,-7.191181778907775879e-01,-1.852186173200607300e-01,4.019314348697662354e-01,1.947945058345794678e-01,5.129893422126770020e-01,-6.965107470750808716e-02,1.032051220536231995e-01,2.901596128940582275e-01,2.801469862461090088e-01,1.474170833826065063e-01,4.733718000352382660e-03,2.815248072147369385e-01,1.992008537054061890e-01,3.277132511138916016e-01,3.235874474048614502e-01,1.239956319332122803e-01,3.926443159580230713e-01,-2.051332406699657440e-02,1.936463415622711182e-01,2.874196767807006836e-01,1.226724833250045776e-01,2.865676879882812500e-01,7.456721067428588867e-01,2.966466546058654785e-01,3.081519901752471924e-01,1.502068042755126953e-01,2.407719492912292480e-01,-7.751499116420745850e-02,-3.364404737949371338e-01,2.096854299306869507e-01,2.343461364507675171e-01,1.215329617261886597e-01,-2.998238205909729004e-01,-4.053109791129827499e-03,-1.630212366580963135e-01,2.846523886546492577e-03,1.679483801126480103e-01,3.102730810642242432e-01,3.880950808525085449e-02,-3.237590193748474121e-01,7.073991894721984863e-01,-8.177455514669418335e-02,9.061421453952789307e-02,-1.410065032541751862e-02,4.318555593490600586e-01,-1.222795248031616211e-02,-3.297921270132064819e-02,3.492652475833892822e-01,-1.839795708656311035e-01,-2.377887219190597534e-01,4.328341409564018250e-02,-8.670396357774734497e-02,-1.672011800110340118e-03,1.811590343713760376e-01,-9.872354269027709961e-01,2.081320621073246002e-02,1.032429337501525879e-01,1.028703302145004272e-01,6.716203093528747559e-01,1.942971199750900269e-01,1.451282948255538940e-01,4.002534449100494385e-01,2.782393693923950195e-01,-1.383854150772094727e-01,-4.768492281436920166e-02,-1.437852531671524048e-01,2.382450923323631287e-02,-4.977999031543731689e-01,-7.565295696258544922e-01,2.819040417671203613e-01,1.256150156259536743e-01,2.678554505109786987e-02,5.760120693594217300e-03,3.486182093620300293e-01,-3.840314596891403198e-02
-3.672209382057189941e-01,-1.092997193336486816e-01,5.223922729492187500e-01,-8.575269952416419983e-03,4.356473088264465332e-01,-3.758573532104492188e-01,-4.537455737590789795e-01,5.323941111564636230e-01,-4.840068817138671875e-01,2.288034409284591675e-01,3.889253735542297363e-01,-1.604230701923370361e-01,-2.475643455982208252e-01,-1.003606915473937988e-01,3.893374800682067871e-01,-1.280823722481727600e-02,7.885331660509109497e-02,3.007892966270446777e-01,-1.038529425859451294e-01,-2.784592797979712486e-04,3.118171095848083496e-01,1.979017816483974457e-02,1.373542100191116333e-01,5.116493701934814453e-01,4.477632343769073486e-01,2.153171300888061523e-01,1.822205185890197754e-01,-3.220914304256439209e-01,8.229587972164154053e-02,2.771942019462585449e-01,-2.155217528343200684e-01,-2.535565756261348724e-02,-3.312812745571136475e-02,-1.424149125814437866e-01,2.948389947414398193e-01,-1.854217350482940674e-01,2.469681799411773682e-01,-3.412313386797904968e-02,1.517342180013656616e-01,-5.107236653566360474e-02,-2.006033509969711304e-01,4.275624155998229980e-01,9.450960159301757812e-02,-7.831077091395854950e-03,9.439840167760848999e-02,6.136341691017150879e-01,2.027399241924285889e-01,1.008382961153984070e-01,4.057911410927772522e-02,2.545328438282012939e-01,8.602283895015716553e-03,-1.198709532618522644e-01,-3.904481604695320129e-02,3.284403383731842041e-01,-1.375198662281036377e-01,-3.220188245177268982e-02,-6.197234615683555603e-02,2.767766118049621582e-01,3.837941959500312805e-02,1.983767002820968628e-02,-6.647203583270311356e-03,4.862537980079650879e-01,5.212425440549850464e-02,1.618725657463073730e-01,-6.802690774202346802e-02,2.439004182815551758e-01,-1.008200570940971375e-01,3.598756715655326843e-02,-2.810964547097682953e-02,-2.016958035528659821e-02,-2.710644602775573730e-01,2.616521418094635010e-01,5.753218382596969604e-02,-5.731490850448608398e-01,4.550939798355102539e-01,1.280909925699234009e-01,2.838932871818542480e-01,1.026588864624500275e-02,1.271478459239006042e-02,5.968065261840820312e-01
1.738967299461364746e-01,-1.539950817823410034e-01,1.755496263504028320e-01,-2.625345811247825623e-02,3.083620667457580566e-01,-2.091273516416549683e-01,1.593777537345886230e-01,3.104789853096008301e-01,4.650107920169830322e-01,1.453981399536132812e-01,-3.640379905700683594e-01,4.187322258949279785e-01,7.307857275009155273e-01,-7.508448511362075806e-02,1.467148363590240479e-01,-2.639834536239504814e-03,-2.222408205270767212e-01,-6.347305327653884888e-02,2.763191461563110352e-01,4.953550696372985840e-01,-9.272362291812896729e-02,4.847451448440551758e-01,1.929852366447448730e-01,-2.880418300628662109e-01,-4.411026239395141602e-01,5.509535074234008789e-01,-8.643327653408050537e-02,-4.857518151402473450e-02,-5.531764775514602661e-02,1.534148305654525757e-01,-2.353562973439693451e-02,-2.608671486377716064e-01,1.013275757431983948e-01,-2.657636404037475586e-01,8.794870227575302124e-02,3.889871835708618164e-01,1.819799989461898804e-01,1.307663740590214729e-03,1.105587114579975605e-03,-3.317067027091979980e-01,2.997110225260257721e-02,-1.050392985343933105e-01,2.148034423589706421e-01,7.777334656566381454e-03,3.143374621868133545e-01,2.314971089363098145e-01,-2.878357470035552979e-01,2.970834672451019287e-01,3.144917264580726624e-02,-6.602002307772636414e-03,-4.799069091677665710e-02,-1.463223397731781006e-01,-1.228902786970138550e-01,-1.141483485698699951e-01,6.914340704679489136e-02,1.838130205869674683e-01,9.245117008686065674e-02,3.220846354961395264e-01,3.407701104879379272e-02,-3.857667446136474609e-01,2.334314212203025818e-02,-3.406639695167541504e-01,7.183576934039592743e-03,1.757161170244216919e-01,3.207355439662933350e-01,1.491217464208602905e-01,2.621294856071472168e-01,5.993267297744750977e-01,4.054931998252868652e-01,-1.537334639579057693e-02,-2.322812378406524658e-02,3.308793529868125916e-02,-3.761060908436775208e-02,4.825694113969802856e-02,-1.159971766173839569e-02,-3.956899046897888184e-02,-6.327377259731292725e-02,2.487170323729515076e-02,3.494161963462829590e-01,6.922090798616409302e-02
-2.623127587139606476e-02,3.545040786266326904e-01,1.580880731344223022e-01,-2.870505675673484802e-02,5.556206107139587402e-01,-1.095742434263229370e-01,-2.148768603801727295e-01,-2.481389194726943970e-01,3.920557722449302673e-02,-1.414972841739654541e-01,-1.480661034584045410e-01,-7.830684632062911987e-02,3.052884340286254883e-01,2.691969089210033417e-02,5.686416029930114746e-01,1.025288482196629047e-03,2.347183972597122192e-01,-4.467211365699768066e-01,-1.210630387067794800e-01,1.750592291355133057e-01,-1.311803013086318970e-01,6.032315492630004883e-01,-2.456700056791305542e-02,6.509836763143539429e-03,-7.336463779211044312e-02,3.683733642101287842e-01,4.385513365268707275e-01,3.549572825431823730e-01,6.402556300163269043e-01,-2.643312811851501465e-01,1.118722632527351379e-01,-9.870037436485290527e-02,1.367060393095016479e-01,1.320292502641677856e-01,-4.764706492424011230e-01,6.892663240432739258e-02,1.073224171996116638e-01,1.874661296606063843e-01,-6.059940904378890991e-03,-1.197359934449195862e-01,-5.146518722176551819e-02,7.922151088714599609e-01,2.176925837993621826e-01,-1.447453815490007401e-02,-1.675761491060256958e-02,-2.151008546352386475e-01,-8.500415086746215820e-02,-5.610342323780059814e-02,2.136692404747009277e-02,-6.400738358497619629e-01,-6.801106780767440796e-02,-1.350193619728088379e-01,1.364479660987854004e-01,4.290531277656555176e-01,-2.322606593370437622e-01,-4.464812949299812317e-02,-4.782510548830032349e-02,3.457372784614562988e-01,-1.560313403606414795e-01,4.852661788463592529e-01,4.306894261389970779e-03,-6.164207588881254196e-04,1.164269261062145233e-02,1.217261031270027161e-01,-8.002256602048873901e-02,-2.622760832309722900e-01,-4.518552720546722412e-01,-2.026981301605701447e-02,2.680942118167877197e-01,1.419138908386230469e-02,-1.180342864245176315e-02,-2.246383428573608398e-01,-6.820660829544067383e-01,-7.018858790397644043e-01,2.709346078336238861e-02,-7.254127413034439087e-02,1.237323209643363953e-01,-1.985623873770236969e-02,-1.687554717063903809e-01,-1.011284515261650085e-01
4.722708091139793396e-02,-2.928255125880241394e-02,1.565621048212051392e-01,2.397859841585159302e-02,-5.068609714508056641e-01,6.294623762369155884e-02,1.490294188261032104e-01,-2.802924215793609619e-01,-9.894594550132751465e-02,-5.377723276615142822e-02,-7.104318588972091675e-02,2.863282561302185059e-01,-9.957291930913925171e-02,1.350137889385223389e-01,6.608191132545471191e-02,9.488574229180812836e-03,-8.816845715045928955e-02,3.755814135074615479e-01,2.959554791450500488e-01,3.196493685245513916e-01,-2.463441342115402222e-01,-2.488971315324306488e-02,-3.024705871939659119e-02,3.743025958538055420e-01,-5.200818553566932678e-02,7.784402370452880859e-02,-2.139568477869033813e-01,2.968938946723937988e-01,5.837944149971008301e-01,5.359191894531250000e-01,1.047702506184577942e-01,9.393481165170669556e-02,-6.621222198009490967e-02,7.369045168161392212e-02,3.467026650905609131e-01,5.452579855918884277e-01,7.991177961230278015e-03,3.631420433521270752e-01,8.584339171648025513e-03,-6.019794940948486328e-02,-3.608559444546699524e-02,-3.380107879638671875e-01,-3.712265938520431519e-02,1.189221441745758057e-02,2.443212121725082397e-01,1.946367882192134857e-02,-6.047154068946838379e-01,-8.015866577625274658e-02,-1.504654501331970096e-04,-3.668482303619384766e-01,3.454786539077758789e-02,-5.552483722567558289e-02,-8.131451159715652466e-02,-3.210833370685577393e-01,3.346187174320220947e-01,-4.540358483791351318e-02,-2.340692877769470215e-01,1.398983001708984375e-01,-8.145975321531295776e-02,-1.011029109358787537e-01,2.166281826794147491e-02,5.284306779503822327e-02,-2.118143811821937561e-02,-3.094929456710815430e-01,4.027934074401855469e-01,-8.149059861898422241e-02,-2.102246135473251343e-01,4.710436761379241943e-01,-3.192612230777740479e-01,-1.476454827934503555e-02,2.830550372600555420e-01,3.098290860652923584e-01,-2.689301669597625732e-01,3.488186895847320557e-01,3.250081241130828857e-01,1.974374800920486450e-01,-6.141834426671266556e-03,3.225371241569519043e-02,1.301364004611968994e-01,4.184328317642211914e-01
-8.129158616065979004e-02,-2.045112699270248413e-01,4.766508936882019043e-01,-4.171013832092285156e-02,-4.254810810089111328e-01,-2.515005767345428467e-01,2.333692647516727448e-02,5.688361823558807373e-03,5.195119976997375488e-01,1.475774049758911133e-01,5.955838561058044434e-01,5.257866382598876953e-01,2.769780457019805908e-01,7.217925190925598145e-01,4.807983934879302979e-01,-3.085405752062797546e-02,3.234350681304931641e-01,-1.039251565933227539e+00,-2.543267309665679932e-01,-1.427965462207794189e-01,3.227717280387878418e-01,-5.043607354164123535e-01,1.082117408514022827e-01,1.829848289489746094e-01,1.971535384654998779e-01,5.743632093071937561e-02,-4.933431446552276611e-01,7.249376177787780762e-01,5.588784348219633102e-03,5.242940783500671387e-01,-4.985216632485389709e-02,2.747732102870941162e-01,7.123768329620361328e-01,1.591185927391052246e-01,-2.169268280267715454e-01,1.622251719236373901e-01,2.039189785718917847e-01,1.998785883188247681e-01,1.129802316427230835e-01,1.266382783651351929e-01,-1.308202445507049561e-01,2.195035964250564575e-01,2.245588749647140503e-01,-5.606836057268083096e-04,5.117459893226623535e-01,-1.346796900033950806e-01,3.605844080448150635e-01,2.206548117101192474e-03,4.625831544399261475e-02,-1.235955953598022461e-01,-1.490109879523515701e-02,1.373121589422225952e-01,-3.606800436973571777e-01,-8.879713714122772217e-02,7.764799147844314575e-02,3.348383009433746338e-01,-3.109011352062225342e-01,9.379753470420837402e-02,9.829358756542205811e-02,-1.101353242993354797e-01,-3.606625273823738098e-02,-8.762840926647186279e-02,-1.395318955183029175e-01,1.245345622301101685e-01,2.816170454025268555e-01,8.471768349409103394e-02,-2.636699378490447998e-01,4.795261919498443604e-01,4.226249158382415771e-01,1.106740999966859818e-02,2.586180567741394043e-01,2.660114467144012451e-01,2.143909931182861328e-01,5.728489533066749573e-02,2.194622606039047241e-01,1.748440265655517578e-01,-1.895927637815475464e-01,3.043729625642299652e-02,3.579030036926269531e-01,4.379759430885314941e-01
1.565712988376617432e-01,-9.409641474485397339e-02,6.099129915237426758e-01,1.613147929310798645e-02,-2.859705686569213867e-01,-5.115249156951904297e-01,-8.457592129707336426e-02,-8.077493309974670410e-02,6.519792973995208740e-02,-3.969275057315826416e-01,4.316501617431640625e-01,3.951395153999328613e-01,1.515563875436782837e-01,-7.996834069490432739e-02,1.393060237169265747e-01,2.331903949379920959e-02,1.839474588632583618e-01,-1.355231702327728271e-01,6.261915564537048340e-01,6.518327593803405762e-01,4.349661618471145630e-02,-1.258587241172790527e-01,3.696522861719131470e-02,2.877359092235565186e-01,-7.505956292152404785e-02,-6.257443130016326904e-02,1.938987225294113159e-01,5.302746891975402832e-01,7.754825353622436523e-01,5.811778455972671509e-02,1.883741021156311035e-01,8.933377265930175781e-01,1.136648729443550110e-01,4.436573088169097900e-01,-4.339322447776794434e-02,1.697072535753250122e-01,2.381669282913208008e-01,-9.933228790760040283e-02,8.376701921224594116e-02,-5.032316222786903381e-02,-5.441694259643554688e-01,3.249044716358184814e-01,6.465065479278564453e-01,-2.263759449124336243e-02,-2.895538806915283203e-01,-7.135672867298126221e-02,-4.280256927013397217e-01,5.017058253288269043e-01,-2.857688628137111664e-02,6.441746354103088379e-01,-3.947971761226654053e-02,-1.936050951480865479e-01,3.345314562320709229e-01,-7.743020057678222656e-01,4.440965056419372559e-01,-1.351180821657180786e-01,-2.187286466360092163e-01,-2.721364200115203857e-01,1.633452028036117554e-01,2.684150040149688721e-01,1.030987314879894257e-02,8.915280699729919434e-01,6.209172308444976807e-02,5.285088419914245605e-01,2.631137371063232422e-01,-1.193077787756919861e-01,5.184170007705688477e-01,9.695686697959899902e-01,-4.981153309345245361e-01,8.854521438479423523e-03,-2.249048799276351929e-01,2.221511900424957275e-01,3.396997451782226562e-01,1.219690963625907898e-01,-3.476132825016975403e-02,-1.657272502779960632e-02,-3.717947006225585938e-01,-1.223369850777089596e-03,-2.792854607105255127e-01,1.211651787161827087e-01
4.313782155513763428e-01,8.484365046024322510e-02,4.940898716449737549e-01,-1.134805753827095032e-02,-3.371059894561767578e-01,-4.495559260249137878e-02,-9.772791713476181030e-02,-1.004262864589691162e-01,-4.403352737426757812e-01,-8.754335641860961914e-01,7.067940235137939453e-01,-4.139744341373443604e-01,2.799011170864105225e-01,7.177773118019104004e-02,2.182010263204574585e-01,2.829993702471256256e-02,1.020872965455055237e-01,-9.997722506523132324e-02,8.688432280905544758e-04,7.541975378990173340e-01,5.236190184950828552e-02,5.112774670124053955e-02,2.404201924800872803e-01,3.315196931362152100e-01,-2.704468555748462677e-02,2.907796502113342285e-01,-3.168890997767448425e-02,1.838514357805252075e-01,4.024776518344879150e-01,2.849831879138946533e-01,4.546993076801300049e-01,3.279915452003479004e-01,5.428524613380432129e-01,-3.106701672077178955e-01,2.740446627140045166e-01,-7.069823797792196274e-03,-6.973513960838317871e-01,-2.697727382183074951e-01,1.512354910373687744e-01,-3.510246872901916504e-01,-3.049061894416809082e-01,-4.483907520771026611e-01,2.438935637474060059e-01,1.565689779818058014e-02,-3.394069522619247437e-02,2.711169421672821045e-01,2.996070384979248047e-01,1.603908240795135498e-01,3.710203338414430618e-03,-7.186576724052429199e-01,-3.233873471617698669e-02,-1.356390267610549927e-01,6.132410764694213867e-01,-3.725383430719375610e-02,4.190819263458251953e-01,4.285846352577209473e-01,2.368471771478652954e-01,-5.848943069577217102e-02,3.713400363922119141e-01,-3.807888031005859375e-01,2.613290958106517792e-02,2.092646956443786621e-01,1.349866092205047607e-01,-2.321065813302993774e-01,3.256555199623107910e-01,2.930767536163330078e-01,3.762956559658050537e-01,-8.834995329380035400e-02,1.713845282793045044e-01,5.114286206662654877e-03,-1.261456906795501709e-01,1.170089021325111389e-01,5.731331184506416321e-02,9.450131654739379883e-02,-1.823691278696060181e-01,-1.274354308843612671e-01,-2.989256680011749268e-01,2.732047066092491150e-02,5.151307582855224609e-01,-7.623332738876342773e-01
-1.429190952330827713e-02,-7.888233065605163574e-01,2.281399816274642944e-01,1.190860942006111145e-02,4.525362253189086914e-01,5.564533546566963196e-02,-2.346572875976562500e-01,-1.942969560623168945e-01,-2.266674339771270752e-01,-3.462579846382141113e-01,-1.953677833080291748e-01,2.200749963521957397e-01,2.060489952564239502e-01,3.020256161689758301e-01,1.473365426063537598e-01,1.033061416819691658e-03,-5.649838596582412720e-02,-7.350062578916549683e-02,2.335783988237380981e-01,-1.992858201265335083e-01,-5.973956584930419922e-01,6.805733442306518555e-01,1.532666087150573730e-01,6.054950878024101257e-03,7.250882983207702637e-01,-6.284906268119812012e-01,2.440766394138336182e-01,8.058895170688629150e-02,3.785636425018310547e-01,3.868799209594726562e-01,-3.075099885463714600e-01,1.264452785253524780e-01,6.778130531311035156e-01,-3.015036880970001221e-02,1.523493975400924683e-01,-3.039354085922241211e-01,6.160634756088256836e-02,-4.658724963665008545e-01,7.645540684461593628e-02,-2.964307963848114014e-01,-7.437137514352798462e-02,1.176673769950866699e-01,-2.472594380378723145e-01,3.662353754043579102e-02,3.614008128643035889e-01,-3.404795825481414795e-01,-6.712009310722351074e-01,-1.138149276375770569e-01,1.893060398288071156e-03,3.603002429008483887e-01,-2.042905800044536591e-02,1.165654957294464111e-01,-2.939287722110748291e-01,2.565357089042663574e-01,2.105769515037536621e-02,1.461463123559951782e-01,-3.237603604793548584e-01,3.952990174293518066e-01,-6.049176678061485291e-03,1.821399927139282227e-01,7.007457315921783447e-03,-1.892079263925552368e-01,7.961256057024002075e-02,-3.912761434912681580e-02,6.101191639900207520e-01,3.454348742961883545e-01,3.639640808105468750e-01,3.103105127811431885e-01,1.982789486646652222e-01,-4.128849506378173828e-02,1.541644781827926636e-01,-3.189016282558441162e-01,7.709116935729980469e-01,1.126839891076087952e-01,-1.646548360586166382e-01,-7.774463295936584473e-02,-1.252303719520568848e-01,2.325009554624557495e-03,-2.327969521284103394e-01,-2.339608818292617798e-01
1.421019434928894043e-01,-7.179429382085800171e-02,3.551387786865234375e-01,2.674741484224796295e-02,-1.271791011095046997e-01,-9.534594416618347168e-01,-8.035292476415634155e-02,2.555681765079498291e-01,1.751921512186527252e-02,-6.329953670501708984e-02,-1.223690584301948547e-01,4.597457945346832275e-01,5.388620495796203613e-01,1.158870980143547058e-01,1.232455074787139893e-01,-9.540614672005176544e-03,-6.352017074823379517e-02,-2.709968686103820801e-01,4.712340533733367920e-01,2.083192765712738037e-01,2.497504353523254395e-01,4.987017810344696045e-01,-1.441807579249143600e-02,1.582066118717193604e-01,-2.073018550872802734e-01,3.098438084125518799e-01,3.629330992698669434e-01,4.679964780807495117e-01,2.872888445854187012e-01,3.109333813190460205e-01,-3.402199745178222656e-01,5.097963809967041016e-01,4.454760849475860596e-01,1.865132153034210205e-01,9.103784710168838501e-02,1.688778549432754517e-01,4.803623259067535400e-01,-3.795628249645233154e-01,1.725045591592788696e-02,2.513757720589637756e-02,1.547903567552566528e-01,2.763092890381813049e-02,2.212903797626495361e-01,6.856134161353111267e-03,1.855325996875762939e-01,-3.035725057125091553e-01,-2.176825553178787231e-01,-2.467815019190311432e-02,-2.638049051165580750e-02,-2.505077235400676727e-02,1.596516813151538372e-03,-5.899360403418540955e-02,2.051396369934082031e-01,-2.386171817779541016e-01,-1.867196150124073029e-02,-5.900634527206420898e-01,-4.097394645214080811e-01,-4.071843996644020081e-02,2.669826149940490723e-01,1.972100734710693359e-01,-1.253331638872623444e-02,6.012363433837890625e-01,-2.310881391167640686e-02,6.646688282489776611e-02,8.898880332708358765e-02,2.821429260075092316e-02,5.079516172409057617e-01,3.618445992469787598e-01,6.602365057915449142e-03,-4.263302311301231384e-02,2.155159562826156616e-01,-1.546629965305328369e-01,1.501199156045913696e-01,5.072699785232543945e-01,-1.842695521190762520e-03,-2.196947783231735229e-01,4.931702092289924622e-02,7.871774025261402130e-03,-5.030203610658645630e-02,-3.804650604724884033e-01
2.488536834716796875e-01,-5.095374584197998047e-01,5.430419445037841797e-01,-8.932282216846942902e-03,-1.204316876828670502e-02,-1.700391918420791626e-01,-5.870380997657775879e-02,4.768312275409698486e-01,2.162448763847351074e-01,-1.960240900516510010e-01,8.562908321619033813e-02,3.493095934391021729e-01,-2.691797018051147461e-01,1.075636968016624451e-01,9.250283241271972656e-02,9.823040105402469635e-03,-1.512032747268676758e-01,1.068369857966899872e-02,-2.341652959585189819e-01,-2.526187300682067871e-01,2.430183887481689453e-01,-1.793417781591415405e-01,7.016902416944503784e-02,-1.542372852563858032e-01,6.615047901868820190e-02,-1.233340278267860413e-01,-1.491232812404632568e-01,-4.199784249067306519e-02,-5.494321882724761963e-02,2.781313061714172363e-01,-1.420050263404846191e-01,-3.271256983280181885e-01,7.286023497581481934e-01,8.850271254777908325e-02,-8.335144072771072388e-02,-2.911909222602844238e-01,-3.912241756916046143e-02,4.885162413120269775e-01,6.946956366300582886e-02,1.091467291116714478e-01,-4.909311234951019287e-02,1.352112144231796265e-01,5.838316679000854492e-01,-9.774228557944297791e-03,1.259832829236984253e-01,-7.967414259910583496e-01,2.256484627723693848e-01,3.523488044738769531e-01,-1.995231397449970245e-02,-1.682320982217788696e-01,7.482075691223144531e-02,1.115381419658660889e-01,1.880412846803665161e-01,2.323725223541259766e-01,1.959227323532104492e-01,1.082504019141197205e-01,-3.619951009750366211e-01,-2.518395483493804932e-01,1.566996127367019653e-01,2.772704958915710449e-01,5.929891020059585571e-03,6.202052831649780273e-01,-3.213784471154212952e-02,1.746423691511154175e-01,-4.751384556293487549e-01,1.006778553128242493e-01,-7.153582572937011719e-02,3.377044200897216797e-01,-3.521405756473541260e-01,4.626381769776344299e-02,5.106966197490692139e-02,9.272238612174987793e-02,5.707601085305213928e-02,-8.829580247402191162e-02,-1.591540724039077759e-01,1.140432730317115784e-01,-5.277106165885925293e-01,-2.043081261217594147e-02,1.724494099617004395e-01,5.179054737091064453e-01
-7.383646070957183838e-02,2.423842251300811768e-01,6.769127249717712402e-01,1.035087835043668747e-02,-2.648413740098476410e-02,-1.715505421161651611e-01,4.312651231884956360e-02,2.546819299459457397e-02,-3.147594928741455078e-01,-1.660093665122985840e-01,3.846200704574584961e-01,2.455262988805770874e-01,-3.862987831234931946e-02,1.364021897315979004e-01,3.517160117626190186e-01,1.235547754913568497e-02,-3.440934717655181885e-01,9.550094604492187500e-03,1.311948597431182861e-01,4.726386368274688721e-01,-4.158382415771484375e-01,-2.825425565242767334e-01,1.889779120683670044e-01,7.021646015346050262e-03,-1.071658506989479065e-01,-1.327911019325256348e-01,1.140522211790084839e-01,2.773963510990142822e-01,3.393439948558807373e-01,9.220175445079803467e-03,-8.365834504365921021e-02,-1.041223183274269104e-01,9.947230666875839233e-02,3.065243363380432129e-01,1.522322595119476318e-01,4.607376456260681152e-01,2.690849900245666504e-01,1.089119687676429749e-01,3.242060542106628418e-02,1.533699780702590942e-01,1.892003566026687622e-01,5.213870853185653687e-02,4.286437854170799255e-02,8.030518656596541405e-04,9.822881966829299927e-02,3.318410813808441162e-01,9.209306538105010986e-02,-2.926336228847503662e-01,-4.813766106963157654e-03,-2.608972787857055664e-01,-3.165208175778388977e-02,2.889407239854335785e-02,-2.361680120229721069e-01,4.030937552452087402e-01,-4.220202863216400146e-01,-8.080975711345672607e-02,-3.614517152309417725e-01,5.189486593008041382e-02,-1.017194017767906189e-01,4.203661978244781494e-01,7.570976391434669495e-03,1.293871551752090454e-01,3.347325837239623070e-03,-3.785852491855621338e-01,-2.159856110811233521e-01,3.391309678554534912e-01,-3.442610800266265869e-02,1.255061477422714233e-01,-3.254349827766418457e-01,-1.283978763967752457e-02,-1.842731237411499023e-02,4.404966831207275391e-01,-3.155581057071685791e-01,1.744617521762847900e-01,3.689129054546356201e-01,-2.953990995883941650e-01,-2.250463217496871948e-01,-2.586567215621471405e-02,-8.306974172592163086e-01,-1.038759648799896240e-01
2.896130084991455078e-01,6.081696227192878723e-02,4.959875941276550293e-01,-1.483293995261192322e-02,3.490133881568908691e-01,-3.310694992542266846e-01,1.563461124897003174e-01,-2.166040055453777313e-02,-5.665071010589599609e-01,-2.563351392745971680e-02,-2.974714525043964386e-02,1.048531830310821533e-01,1.593680679798126221e-01,5.554534792900085449e-01,2.170546799898147583e-01,-1.848609931766986847e-02,3.530711829662322998e-01,8.214832097291946411e-02,4.436423629522323608e-02,6.830749511718750000e-01,2.277557365596294403e-02,-3.382060527801513672e-01,-7.900479435920715332e-02,5.707607790827751160e-02,3.683665767312049866e-02,-2.507893741130828857e-01,2.054786682128906250e-01,4.058339297771453857e-01,-1.134649664163589478e-01,-8.414158597588539124e-03,-1.385999172925949097e-01,3.976769372820854187e-02,1.205039620399475098e-01,-1.780405640602111816e-01,1.926601864397525787e-03,1.683724969625473022e-01,-2.829376161098480225e-01,9.588411450386047363e-02,1.613833475857973099e-03,-8.997187018394470215e-02,-4.403840005397796631e-01,-2.040558308362960815e-02,-1.774647682905197144e-01,6.935574579983949661e-03,-1.670303195714950562e-01,-1.398587524890899658e-01,-1.610208004713058472e-01,3.602267503738403320e-01,-2.396347466856241226e-03,1.539582312107086182e-01,3.210707008838653564e-02,-1.286165714263916016e-01,4.445431828498840332e-01,-3.471845686435699463e-01,-4.298597872257232666e-01,-6.182976439595222473e-02,-1.139228940010070801e-01,-3.551627099514007568e-01,-9.348677843809127808e-02,-6.551726907491683960e-02,-1.812863908708095551e-02,-2.165850102901458740e-01,-9.285467676818370819e-03,1.317161023616790771e-01,2.250890433788299561e-01,-3.626889586448669434e-01,-1.883051395416259766e-01,2.572341822087764740e-02,5.437721610069274902e-01,2.558590471744537354e-02,2.447505481541156769e-02,-4.782738536596298218e-02,3.548770844936370850e-01,1.046226844191551208e-01,1.417764425277709961e-01,-1.287194788455963135e-01,4.738088250160217285e-01,-3.180620726197957993e-03,8.968886137008666992e-01,5.036521553993225098e-01
2.119250744581222534e-01,-9.490283131599426270e-01,3.202478587627410889e-01,-1.923608407378196716e-02,-1.013170778751373291e-01,-2.222878187894821167e-01,-1.205228194594383240e-01,-5.144312381744384766e-01,1.733092814683914185e-01,8.494467288255691528e-02,7.666095346212387085e-02,-1.838935166597366333e-02,2.231289893388748169e-01,3.919329941272735596e-01,1.293861120939254761e-02,-2.267644368112087250e-02,-2.267315089702606201e-01,3.310160338878631592e-01,-3.623631224036216736e-02,4.953256845474243164e-01,-7.055267095565795898e-01,1.147649586200714111e-01,2.609797753393650055e-02,7.300167530775070190e-02,3.662560880184173584e-01,4.378379583358764648e-01,3.362139463424682617e-01,-1.847326010465621948e-01,-6.606080383062362671e-02,-4.762122035026550293e-01,4.540150761604309082e-01,-1.875506043434143066e-01,7.570040822029113770e-01,2.292619198560714722e-01,3.686381280422210693e-01,1.603270322084426880e-01,3.606952130794525146e-01,2.785797603428363800e-02,1.624207049608230591e-01,4.094777107238769531e-01,2.497068941593170166e-01,-1.443433016538619995e-01,-7.440075278282165527e-01,-2.024614438414573669e-02,-4.807229042053222656e-01,2.400522679090499878e-01,-5.777295827865600586e-01,-6.455715280026197433e-03,9.010903537273406982e-03,2.989670634269714355e-01,-2.409869618713855743e-02,3.382039368152618408e-01,8.240800350904464722e-03,-1.103688254952430725e-01,-2.964589297771453857e-01,3.037558794021606445e-01,6.413585692644119263e-02,3.589178621768951416e-01,-7.713216543197631836e-02,-1.488935649394989014e-01,-1.650065742433071136e-02,1.570364385843276978e-01,1.791474968194961548e-01,-4.469811916351318359e-02,-8.880358934402465820e-02,1.438264269381761551e-02,9.880823642015457153e-02,3.221163749694824219e-01,2.912019789218902588e-01,3.633709251880645752e-02,3.745158016681671143e-02,1.128515228629112244e-01,9.280331432819366455e-03,2.526058629155158997e-02,4.279999136924743652e-01,1.573897600173950195e-01,-2.593344151973724365e-01,9.667733684182167053e-03,2.572186589241027832e-01,-6.876929663121700287e-03
3.285078704357147217e-01,4.795824363827705383e-02,7.262098044157028198e-02,1.410798449069261551e-02,-1.776064336299896240e-01,-1.482094055972993374e-03,2.551426365971565247e-02,-4.523294866085052490e-01,5.908180400729179382e-02,4.010857939720153809e-01,-2.414218783378601074e-01,-3.719330728054046631e-01,1.512566208839416504e-01,7.384993433952331543e-01,-5.340933799743652344e-01,-1.140343490988016129e-03,2.562088966369628906e-01,-7.306928280740976334e-03,6.570924818515777588e-02,6.681351661682128906e-01,-1.387519091367721558e-01,-1.649824082851409912e-01,-2.042370140552520752e-01,-1.924889832735061646e-01,-7.418733835220336914e-01,-1.102545708417892456e-01,-1.514210253953933716e-01,-4.363663196563720703e-01,-3.792039677500724792e-02,1.648355126380920410e-01,2.367824912071228027e-01,-2.498740851879119873e-01,4.929000139236450195e-01,-3.079972565174102783e-01,3.471920490264892578e-01,6.734657287597656250e-02,-4.289835691452026367e-01,3.719572424888610840e-01,-6.433250755071640015e-02,-3.011634051799774170e-01,-2.856752574443817139e-01,-2.070479393005371094e-01,-2.448721230030059814e-01,-2.223537012469023466e-04,-3.209125399589538574e-01,1.592773050069808960e-01,4.066853970289230347e-02,2.775435447692871094e-01,2.355073578655719757e-02,2.246021628379821777e-01,-1.979090273380279541e-02,2.234625816345214844e-01,8.155665546655654907e-02,-1.374664604663848877e-01,3.927398025989532471e-01,2.967468798160552979e-01,3.515513539314270020e-01,4.607862234115600586e-02,-1.268793344497680664e-01,-3.768600821495056152e-01,-3.552915761247277260e-03,-5.409063026309013367e-02,4.167450126260519028e-03,1.431683357805013657e-02,-1.808134466409683228e-01,1.547873914241790771e-01,4.881995543837547302e-02,6.038047671318054199e-01,1.156811043620109558e-02,-8.977131918072700500e-03,1.121388971805572510e-01,-2.880099117755889893e-01,-7.319355756044387817e-02,-3.796118497848510742e-02,-3.843258321285247803e-01,3.709602653980255127e-01,-7.426147907972335815e-02,5.775124765932559967e-03,2.634614408016204834e-01,2.016593366861343384e-01
-7.835227251052856445e-01,-2.832646965980529785e-01,1.921052932739257812e-01,9.533655829727649689e-03,2.492218315601348877e-01,5.600004922598600388e-03,-1.724515557289123535e-01,-3.234351575374603271e-01,2.097602188587188721e-01,3.943069875240325928e-01,-8.888503536581993103e-03,4.862925037741661072e-02,1.770783513784408569e-01,-2.300419956445693970e-01,2.027029097080230713e-01,-3.362615406513214111e-02,3.599497303366661072e-02,-2.361393719911575317e-02,-1.603128612041473389e-01,1.371404901146888733e-02,2.719838023185729980e-01,7.624199986457824707e-01,4.776338115334510803e-03,-5.942110344767570496e-02,4.926545917987823486e-02,2.166529148817062378e-01,3.180110156536102295e-01,-4.704333841800689697e-01,-1.729178875684738159e-01,3.860975801944732666e-01,4.242334365844726562e-01,-8.954396098852157593e-02,4.123536646366119385e-01,2.266815155744552612e-01,-2.536143362522125244e-01,-1.908544823527336121e-02,-1.685383468866348267e-01,2.132161259651184082e-01,-1.042561605572700500e-01,-2.554702758789062500e-01,1.973281949758529663e-01,-1.875925660133361816e-01,1.778124570846557617e-01,1.342768967151641846e-02,-2.511515319347381592e-01,4.671619236469268799e-01,-6.954649090766906738e-01,6.818780303001403809e-02,-1.974540576338768005e-02,-1.896255314350128174e-01,1.136536803096532822e-02,1.712079644203186035e-01,4.606770351529121399e-02,-2.840229868888854980e-01,-3.170483112335205078e-01,-3.005116581916809082e-01,2.817896381020545959e-02,2.396160960197448730e-01,4.389546811580657959e-02,-4.706606268882751465e-01,-4.234577342867851257e-02,4.256940484046936035e-01,7.981311529874801636e-02,-8.849136531352996826e-03,2.843566536903381348e-01,5.645262598991394043e-01,-6.849113851785659790e-02,4.764205589890480042e-02,1.146904379129409790e-01,1.046291366219520569e-02,2.000711625441908836e-03,1.127620264887809753e-01,-6.478346884250640869e-02,-5.337747335433959961e-01,-1.357269585132598877e-01,-3.988121747970581055e-01,1.170715466141700745e-01,2.988795004785060883e-02,3.716087341308593750e-01,2.956231497228145599e-02
4.825228080153465271e-02,2.031145393848419189e-01,1.566534638404846191e-01,-3.126375144347548485e-03,-1.647285521030426025e-01,-1.279080957174301147e-01,1.179979592561721802e-01,-3.005816340446472168e-01,-6.535925716161727905e-02,5.147984027862548828e-01,-3.387883901596069336e-01,-2.510549500584602356e-02,-2.357148192822933197e-02,1.663304716348648071e-01,5.519530270248651505e-03,-2.629435621201992035e-03,-1.660924032330513000e-02,1.669585853815078735e-01,3.515368700027465820e-02,5.298781394958496094e-02,-1.211856827139854431e-01,-8.689326047897338867e-02,-5.189967900514602661e-02,-8.757986128330230713e-02,-1.149301975965499878e-02,-1.534435302019119263e-01,1.506370455026626587e-01,-4.277543723583221436e-02,5.088315531611442566e-02,1.864197999238967896e-01,1.570316404104232788e-02,2.862922847270965576e-02,1.549604535102844238e-01,-1.843432933092117310e-01,1.171535700559616089e-01,4.468336999416351318e-01,4.816267788410186768e-01,8.014842122793197632e-02,-2.829804271459579468e-02,-3.238791599869728088e-02,1.136516779661178589e-01,-1.363469511270523071e-01,-5.204448103904724121e-01,3.153591416776180267e-03,-3.320894762873649597e-02,1.593944281339645386e-01,1.655475236475467682e-02,1.455084234476089478e-01,6.500066258013248444e-03,-1.461962759494781494e-01,9.482741355895996094e-03,2.100549079477787018e-02,-2.620663940906524658e-01,-5.941987037658691406e-04,-9.855006635189056396e-02,-2.564780414104461670e-01,-2.175873704254627228e-02,-9.192739427089691162e-02,-1.735980436205863953e-02,-3.093198239803314209e-01,-1.241403981111943722e-03,-1.478629559278488159e-01,-2.201436087489128113e-03,7.680902630090713501e-02,2.862790226936340332e-01,2.671988010406494141e-01,2.513487935066223145e-01,2.272031009197235107e-01,1.818219423294067383e-01,-6.707114167511463165e-03,-9.233312308788299561e-02,-1.965837180614471436e-01,-2.136338949203491211e-01,-1.155607551336288452e-01,5.680314302444458008e-01,4.002142846584320068e-01,1.140403188765048981e-02,2.567517338320612907e-03,3.615001589059829712e-02,4.532323684543371201e-03
8.999680280685424805e-01,1.196607708930969238e+00,-4.072492718696594238e-01,6.517318077385425568e-03,-3.653002083301544189e-01,-6.069581583142280579e-02,3.703103959560394287e-01,-9.592699259519577026e-02,-1.296790391206741333e-01,-3.589802682399749756e-01,1.711056828498840332e-01,2.476084828376770020e-01,2.900609374046325684e-01,-7.243159413337707520e-01,7.947189807891845703e-01,-3.922479227185249329e-03,3.091836571693420410e-01,-2.584869861602783203e-01,-1.271264702081680298e-01,8.307689428329467773e-01,7.158205658197402954e-02,-5.332757830619812012e-01,5.612386763095855713e-02,2.714487612247467041e-01,4.826796054840087891e-01,4.399727657437324524e-02,1.379060447216033936e-01,-2.916768789291381836e-01,-6.067252159118652344e-01,8.402711749076843262e-01,-2.573349714279174805e+00,4.724159464240074158e-02,-4.604790806770324707e-01,4.542918130755424500e-02,-4.800171852111816406e-01,7.949728965759277344e-01,-5.433757305145263672e-01,-3.731298744678497314e-01,2.323175519704818726e-01,-5.521231889724731445e-02,2.220094949007034302e-01,-5.304906517267227173e-03,-1.957623064517974854e-01,-2.444091998040676117e-02,5.785774588584899902e-01,9.262468218803405762e-01,8.913363330066204071e-03,2.001038789749145508e-01,-1.029014121741056442e-02,4.050104022026062012e-01,-2.051283139735460281e-03,-8.644917607307434082e-02,-1.109497427940368652e+00,1.386716812849044800e-01,-1.731677353382110596e-02,-5.237012505531311035e-01,-1.941788792610168457e-01,3.084195852279663086e-01,8.114608377218246460e-02,-2.583729624748229980e-01,-2.653250005096197128e-03,5.479346513748168945e-01,-6.107871420681476593e-03,-4.546379670500755310e-02,-1.961169391870498657e-01,4.870330393314361572e-01,-4.472529590129852295e-01,1.060427784919738770e+00,5.257307738065719604e-02,1.948811486363410950e-02,1.712506413459777832e-01,3.441328704357147217e-01,-1.810464411973953247e-01,3.540469110012054443e-01,2.484305620193481445e+00,8.581651747226715088e-02,-2.599631547927856445e-01,-2.794868126511573792e-02,-7.677903175354003906e-01,-3.344936668872833252e-01
5.178813934326171875e-01,-2.088389247655868530e-01,2.043953910470008850e-02,5.472423974424600601e-03,2.426636964082717896e-01,-6.817045807838439941e-01,-1.071801707148551941e-01,-5.993807911872863770e-01,3.799704313278198242e-01,1.733231991529464722e-01,-2.068460285663604736e-01,4.192624390125274658e-01,5.368887782096862793e-01,4.638865217566490173e-02,1.204128488898277283e-01,-7.480439729988574982e-03,-1.684797704219818115e-01,1.628078371286392212e-01,3.216830492019653320e-01,2.315990179777145386e-01,7.080262899398803711e-02,1.533298194408416748e-01,-6.210684310644865036e-03,1.539739072322845459e-01,-1.554502993822097778e-01,1.498417556285858154e-01,-2.466941624879837036e-01,-5.025620386004447937e-02,-1.809327118098735809e-02,-3.780625164508819580e-01,1.785331517457962036e-01,2.567404508590698242e-01,8.177437633275985718e-02,-1.204084455966949463e-01,4.841460287570953369e-02,-4.569978639483451843e-02,-1.649730801582336426e-01,1.869849860668182373e-01,-1.271224860101938248e-02,-6.633321195840835571e-02,-1.590292304754257202e-01,-3.996438086032867432e-01,-3.109652698040008545e-01,-1.082841213792562485e-02,-1.216188073158264160e-01,2.222218662500381470e-01,-3.122339546680450439e-01,2.406383305788040161e-01,-3.661583364009857178e-02,5.036304593086242676e-01,3.071528486907482147e-02,-3.043507784605026245e-02,-3.767427504062652588e-01,2.470496147871017456e-01,-4.375213012099266052e-02,-4.083822369575500488e-01,-2.358183413743972778e-01,3.716975748538970947e-01,-1.677489578723907471e-01,2.990257441997528076e-01,3.367722965776920319e-03,-1.630003750324249268e-01,-2.590150944888591766e-02,-1.305360696278512478e-03,-7.914292812347412109e-02,4.886582195758819580e-01,-2.958170473575592041e-01,8.333214521408081055e-01,-1.181387677788734436e-01,2.608061768114566803e-02,1.494110077619552612e-01,2.733597755432128906e-01,5.483806133270263672e-01,1.825574189424514771e-01,-6.618112325668334961e-02,1.789517551660537720e-01,2.223589867353439331e-01,-2.680672518908977509e-02,1.413402408361434937e-01,-1.536660790443420410e-01
2.432740926742553711e-01,-1.366677135229110718e-01,2.754581347107887268e-02,-3.397359978407621384e-03,-2.351761013269424438e-01,-3.391545414924621582e-01,-4.311432540416717529e-01,-6.232384964823722839e-02,-6.354222297668457031e-01,-4.355949163436889648e-01,5.738077163696289062e-01,2.255268841981887817e-01,1.579933911561965942e-01,2.936799228191375732e-01,-2.222120463848114014e-01,-2.262834645807743073e-02,-7.303735613822937012e-01,-2.478315532207489014e-01,8.773788809776306152e-02,4.923729896545410156e-01,1.699465662240982056e-01,-1.604338735342025757e-01,-4.150493070483207703e-02,3.980960547924041748e-01,1.442397236824035645e-01,9.330016560852527618e-03,-5.899673327803611755e-02,2.323381006717681885e-01,2.802224755287170410e-01,4.451136887073516846e-01,1.375008672475814819e-01,-6.921327710151672363e-01,-8.202266693115234375e-02,2.597541511058807373e-01,2.655889987945556641e-01,3.913955390453338623e-01,3.539961576461791992e-01,3.869666159152984619e-01,1.231694146990776062e-01,4.372780621051788330e-01,8.658737540245056152e-01,-5.469335913658142090e-01,6.211205124855041504e-01,2.465897006914019585e-03,-3.351006805896759033e-01,-4.689340889453887939e-01,1.492580622434616089e-01,-1.016668900847434998e-01,-1.334389322437345982e-03,-8.017309904098510742e-01,-4.318065941333770752e-02,-2.006304115056991577e-01,4.461084306240081787e-01,-1.828003376722335815e-01,-9.362701326608657837e-02,-1.955175306648015976e-03,2.751379907131195068e-01,2.588638067245483398e-01,5.750542506575584412e-03,1.395537257194519043e-01,-8.063931018114089966e-03,5.512805283069610596e-02,-6.125048547983169556e-02,-1.720810830593109131e-01,1.845995662733912468e-03,-3.835678994655609131e-01,5.986150726675987244e-02,1.674071997404098511e-01,1.005714759230613708e-01,-7.342637982219457626e-04,-3.518812358379364014e-01,4.409744143486022949e-01,-2.916161715984344482e-01,1.769719272851943970e-01,-8.881934732198715210e-02,1.715968847274780273e-01,-3.069139420986175537e-01,-2.768377959728240967e-02,2.570270597934722900e-01,7.338826060295104980e-01
-1.408308446407318115e-01,4.882995188236236572e-01,3.898786604404449463e-01,-6.612629164010286331e-03,-9.532457590103149414e-02,4.259062930941581726e-02,-1.119107306003570557e-01,6.431730836629867554e-02,1.911035180091857910e-01,-2.120534181594848633e-01,1.156685650348663330e-01,1.640167385339736938e-01,4.974241554737091064e-01,3.994605839252471924e-01,4.604022800922393799e-01,-1.372934668324887753e-03,-1.891040951013565063e-01,9.098241105675697327e-03,3.271704614162445068e-01,6.980161368846893311e-02,-3.659587353467941284e-02,3.128212178125977516e-03,-1.299056690186262131e-02,-2.035938203334808350e-01,9.780380874872207642e-03,1.341115087270736694e-01,-7.654298096895217896e-02,-3.925749957561492920e-01,4.312315285205841064e-01,1.882119923830032349e-01,3.421199023723602295e-01,-5.540727823972702026e-02,-1.237377226352691650e-01,2.411244511604309082e-01,-7.054522633552551270e-01,6.439037322998046875e-01,-3.032491803169250488e-01,1.787395030260086060e-01,-8.794553577899932861e-02,2.300626486539840698e-01,-1.585958749055862427e-01,-1.847572326660156250e-01,-1.590597182512283325e-01,-6.842862349003553391e-04,-9.253009408712387085e-02,-1.004624143242835999e-01,2.160373479127883911e-01,-1.375944912433624268e-01,-9.057000279426574707e-04,-2.295549809932708740e-01,3.736707940697669983e-02,1.738454252481460571e-01,-1.238701641559600830e-01,4.130036830902099609e-01,8.967979997396469116e-02,4.334524273872375488e-02,2.833355665206909180e-01,1.778940260410308838e-01,4.367930442094802856e-02,2.954153716564178467e-01,5.664276424795389175e-03,5.945567786693572998e-02,5.164486169815063477e-02,1.336527019739151001e-01,-1.013490185141563416e-02,4.475534856319427490e-01,-6.669464707374572754e-02,1.780761182308197021e-01,-3.766585290431976318e-01,2.740633673965930939e-02,-6.881396472454071045e-02,8.972562849521636963e-02,2.059085667133331299e-01,-6.846351176500320435e-02,1.128074154257774353e-01,-1.507352441549301147e-01,-3.018062710762023926e-01,1.144886575639247894e-02,-9.035540223121643066e-01,-2.546483874320983887e-01
-8.162575960159301758e-02,-2.640190422534942627e-01,1.011244282126426697e-01,-3.829947207123041153e-03,3.811486959457397461e-01,-2.021353244781494141e-01,-1.961867697536945343e-02,-8.365911990404129028e-02,2.923964858055114746e-01,6.019772291183471680e-01,-4.539425075054168701e-01,2.756600975990295410e-01,4.198807179927825928e-01,-1.625846512615680695e-02,2.582196891307830811e-01,4.512547980993986130e-03,2.856476306915283203e-01,2.768761813640594482e-01,-5.157807469367980957e-02,4.637867212295532227e-01,3.583520883694291115e-03,-3.081752452999353409e-03,-4.171792790293693542e-02,-4.431836605072021484e-01,1.504389196634292603e-01,4.235863313078880310e-02,2.179187536239624023e-01,5.932922661304473877e-02,1.199352089315652847e-02,3.518361151218414307e-01,7.362093776464462280e-02,-1.476643234491348267e-01,5.944980680942535400e-02,-3.023609817028045654e-01,5.327291414141654968e-02,-1.064852401614189148e-01,-4.213675484061241150e-02,1.969961076974868774e-01,-2.338393963873386383e-02,-5.117829442024230957e-01,-1.926733255386352539e-01,3.288360536098480225e-01,-2.133693099021911621e-01,-2.036818070337176323e-03,1.835393756628036499e-01,3.653239905834197998e-01,8.402847498655319214e-02,3.086956143379211426e-01,-4.716374725103378296e-02,1.122603714466094971e-01,4.484524019062519073e-03,1.314383745193481445e-01,2.515965700149536133e-01,-1.102920025587081909e-01,-1.012030243873596191e-01,-2.374341189861297607e-01,-3.583486378192901611e-01,1.763012707233428955e-01,1.478465199470520020e-01,1.857142895460128784e-01,6.443568505346775055e-03,5.875557065010070801e-01,-4.116017743945121765e-02,1.013145893812179565e-01,-2.122222781181335449e-01,-1.328483372926712036e-01,3.343739360570907593e-02,3.992140889167785645e-01,-9.282841347157955170e-03,2.051002904772758484e-02,-9.118493646383285522e-02,-8.046744018793106079e-02,1.887356489896774292e-01,-1.978294998407363892e-01,-2.589564025402069092e-01,-7.630148530006408691e-02,1.170314475893974304e-02,-1.063692569732666016e-02,6.415038704872131348e-01,1.173309236764907837e-01
3.750317543745040894e-02,9.723403304815292358e-02,1.102818399667739868e-01,-1.959851942956447601e-02,-1.364372521638870239e-01,1.461469829082489014e-01,5.411121994256973267e-02,-1.928249299526214600e-01,-2.225402593612670898e-01,2.700249254703521729e-01,4.864155948162078857e-01,2.325741648674011230e-01,1.155955269932746887e-01,-9.744584560394287109e-02,3.906447887420654297e-01,3.502293676137924194e-02,8.317049592733383179e-03,2.294338643550872803e-01,8.427683264017105103e-02,1.306918859481811523e-01,-9.540543705224990845e-02,2.261045724153518677e-01,-1.283950060606002808e-01,-2.907372713088989258e-01,-5.517149716615676880e-02,2.903027087450027466e-02,2.762513458728790283e-01,-5.488885641098022461e-01,-4.802742004394531250e-01,-9.404166787862777710e-02,-1.353371739387512207e-01,9.305316954851150513e-02,5.337445810437202454e-02,5.916737392544746399e-02,4.668927192687988281e-01,3.011033236980438232e-01,-2.940462529659271240e-01,2.985971979796886444e-02,-1.173226046375930309e-04,1.560277789831161499e-01,-3.553444519639015198e-02,4.430564939975738525e-01,-2.593170106410980225e-01,-1.419712975621223450e-02,1.762649416923522949e-01,1.664807796478271484e-01,6.638905405998229980e-02,1.230009179562330246e-02,1.903606206178665161e-02,1.828038841485977173e-01,-1.903984136879444122e-02,-5.703323334455490112e-02,-1.951870769262313843e-01,3.640301292762160301e-03,7.965341955423355103e-02,7.594244182109832764e-02,4.078904986381530762e-01,1.045616120100021362e-01,5.811377242207527161e-02,-1.903246790170669556e-01,1.311947405338287354e-02,3.912759721279144287e-01,8.060602098703384399e-02,-3.566286265850067139e-01,6.509285420179367065e-02,1.551034599542617798e-01,-2.274994850158691406e-01,-1.529089920222759247e-02,5.738424509763717651e-02,6.108316592872142792e-03,-5.512120127677917480e-01,9.260264039039611816e-02,3.849685490131378174e-01,4.215908944606781006e-01,3.280695974826812744e-01,-1.005075946450233459e-01,7.600509561598300934e-03,-7.296262774616479874e-03,-1.153635084629058838e-01,-2.617732286453247070e-01
-2.644241228699684143e-02,-5.095005780458450317e-02,4.015381336212158203e-01,7.551809307187795639e-03,-4.763703048229217529e-01,-9.706652164459228516e-02,2.877216637134552002e-01,1.852087974548339844e-01,-2.033788710832595825e-01,4.215927720069885254e-01,1.460571885108947754e-01,-3.807770013809204102e-01,-9.284234791994094849e-02,5.690571069717407227e-01,-1.422839760780334473e-01,6.742649246007204056e-03,2.374060899019241333e-01,-7.657876610755920410e-01,-1.226888746023178101e-01,5.976030230522155762e-01,3.960317373275756836e-02,-2.613143026828765869e-01,-8.733171038329601288e-03,1.954515129327774048e-01,4.995546340942382812e-01,1.989838480949401855e-01,-3.179195523262023926e-01,3.850817978382110596e-01,-9.321254491806030273e-02,1.780840456485748291e-01,-1.345654577016830444e-01,4.590322971343994141e-01,1.336261481046676636e-01,2.859224677085876465e-01,9.996199607849121094e-02,1.817059218883514404e-01,3.099852204322814941e-01,-1.662063412368297577e-02,-1.503156870603561401e-01,3.109734654426574707e-01,2.853742837905883789e-01,5.913584306836128235e-02,-2.285117655992507935e-01,-1.543240528553724289e-02,-1.131993308663368225e-01,4.471031129360198975e-01,3.074376881122589111e-01,4.739421233534812927e-02,3.534764749929308891e-03,1.299254447221755981e-01,8.393176831305027008e-03,-5.610417574644088745e-02,4.728175103664398193e-01,-3.049411997199058533e-02,5.472107529640197754e-01,2.578876316547393799e-01,4.643663391470909119e-02,-2.770092487335205078e-01,-6.534373760223388672e-02,-5.544427037239074707e-01,2.354937605559825897e-04,1.043047532439231873e-01,-3.180958330631256104e-02,-2.996944487094879150e-01,-1.410496979951858521e-01,3.317097127437591553e-01,-3.216457366943359375e-01,2.529482543468475342e-01,-9.519525617361068726e-02,1.347656082361936569e-02,-1.589629054069519043e-01,-7.458152715116739273e-03,-1.181391701102256775e-01,3.582062125205993652e-01,-5.254312232136726379e-02,4.883910417556762695e-01,7.609587907791137695e-02,-3.209876304026693106e-04,7.835375145077705383e-04,6.299299597740173340e-01
