-1.336226910352706909e-01
3.142058551311492920e-01
-3.118988871574401855e-01
-1.822472810745239258e-01
-1.456828974187374115e-02
1.222116276621818542e-01
-6.293386220932006836e-02
1.608166284859180450e-02
-1.739248819649219513e-02
2.587594091892242432e-03
-1.018286049365997314e-01
-3.462838530540466309e-01
-1.905056834220886230e-02
-9.791692346334457397e-02
3.347947075963020325e-02
-6.946104019880294800e-02
5.367212579585611820e-04
-2.254628092050552368e-01
-3.806183114647865295e-03
-2.609053552150726318e-01
-4.194611012935638428e-01
7.385263592004776001e-02
-8.753854036331176758e-02
-9.113249182701110840e-02
-2.548243701457977295e-01
-4.710847884416580200e-02
-3.231903910636901855e-02
1.304631680250167847e-01
-1.573851332068443298e-02
3.978072702884674072e-01
2.127690613269805908e-02
1.388659328222274780e-01
1.977541893720626831e-01
1.246328204870223999e-01
7.617676258087158203e-02
-1.370354145765304565e-01
1.414281576871871948e-01
1.090426370501518250e-01
2.666918039321899414e-01
-1.602720916271209717e-01
-1.045472994446754456e-01
-1.173896342515945435e-02
1.520998030900955200e-01
2.861283719539642334e-01
2.650512456893920898e-01
-1.385063584893941879e-02
1.807790845632553101e-01
7.796885818243026733e-02
1.654476742260158062e-03
1.011808067560195923e-01
-2.166950255632400513e-01
4.044954851269721985e-02
-1.056532859802246094e-01
1.747097522020339966e-01
2.397234141826629639e-01
-3.225456178188323975e-01
2.002790272235870361e-01
9.360299445688724518e-03
2.165590375661849976e-01
-8.727485686540603638e-02
3.463073074817657471e-01
-8.424413949251174927e-02
-6.336314231157302856e-02
9.838145971298217773e-02
-9.483277797698974609e-02
5.789485946297645569e-02
1.658651083707809448e-01
-2.014960944652557373e-01
3.056661486625671387e-01
-5.038947612047195435e-02
5.039281770586967468e-02
1.087799519300460815e-01
6.091036200523376465e-01
4.167885482311248779e-01
-1.921121329069137573e-01
-2.589956521987915039e-01
1.199162006378173828e-01
1.720609664916992188e-01
-1.763534247875213623e-01
2.776752114295959473e-01
-1.701074838638305664e-02
1.776132881641387939e-01
1.718381196260452271e-01
7.156937569379806519e-02
-7.635366171598434448e-02
7.588919252157211304e-02
5.297685861587524414e-01
1.444177627563476562e-01
1.736943274736404419e-01
3.865893185138702393e-02
-2.517313063144683838e-01
1.231872364878654480e-01
2.151031196117401123e-01
4.534137248992919922e-01
1.150875613093376160e-01
-5.949406698346138000e-02
2.975089289247989655e-02
1.267086118459701538e-01
-1.499006599187850952e-01
-2.031057476997375488e-01
