1.594877094030380249e-01
4.461517184972763062e-02
-3.325263783335685730e-02
6.993077695369720459e-02
2.633167430758476257e-02
1.092783659696578979e-01
7.222691178321838379e-02
6.678856909275054932e-02
2.122506871819496155e-02
3.234581649303436279e-02
2.669456042349338531e-02
1.685758307576179504e-02
9.747058898210525513e-02
-8.701371401548385620e-02
-1.297899782657623291e-01
-1.396731194108724594e-02
-3.799793869256973267e-02
-2.824746072292327881e-02
-4.619017615914344788e-02
4.533479362726211548e-02
7.777211815118789673e-02
2.622425742447376251e-02
1.070335879921913147e-01
7.484015822410583496e-02
9.491876512765884399e-02
-8.938849717378616333e-02
2.607514150440692902e-02
4.595640674233436584e-02
-3.133148699998855591e-02
9.936344623565673828e-02
6.603217869997024536e-02
-8.719113469123840332e-02
-2.179495245218276978e-02
-3.981380164623260498e-02
6.604802329093217850e-03
3.916050493717193604e-02
6.875683367252349854e-02
1.700757071375846863e-03
3.322302363812923431e-04
-2.398472838103771210e-02
-1.557282172143459320e-03
1.036894917488098145e-01
8.222717046737670898e-02
4.009928554296493530e-02
6.649093329906463623e-02
-3.538008313626050949e-03
7.680518180131912231e-02
2.740664221346378326e-02
6.305242422968149185e-03
-4.655838012695312500e-01
1.536404807120561600e-02
2.183546721935272217e-01
6.427779048681259155e-02
6.087824702262878418e-02
-6.038757972419261932e-03
4.819089546799659729e-03
5.829088762402534485e-02
-1.852663583122193813e-03
-1.192498579621315002e-01
1.185566335916519165e-01
8.599816262722015381e-02
6.301271170377731323e-02
-2.779568778350949287e-03
1.253538876771926880e-01
2.718307450413703918e-02
-1.102000325918197632e-01
-3.675814345479011536e-02
1.261751651763916016e-01
3.760977089405059814e-02
1.025289893150329590e-01
-1.426477283239364624e-01
6.618625950068235397e-03
1.872753165662288666e-02
-4.277926683425903320e-02
-5.159943699836730957e-01
