-3.611325025558471680e-01,2.091483324766159058e-01,-5.876310467720031738e-01,3.129586875438690186e-01,4.887237548828125000e-01,-4.485353529453277588e-01,-3.494395017623901367e-01,-3.966940045356750488e-01,1.418537348508834839e-01,-1.396277366438880563e-05,3.044101595878601074e-01,2.555400729179382324e-01,3.697102963924407959e-01,3.309156596660614014e-01,5.852535963058471680e-01,-4.704521894454956055e-01,-2.463438613631296903e-05,4.747232794761657715e-01,-1.026286721229553223e+00,-1.062303383037033200e-07,-4.568359255790710449e-01,3.820864260196685791e-01,1.695636361837387085e-01,-3.850293457508087158e-01,8.895703554153442383e-01,-4.537459611892700195e-01,3.518667221069335938e-01,-3.677841424942016602e-01,-1.924274073417109321e-07,1.901315599679946899e-01,5.019361972808837891e-01,-8.007554411888122559e-01,-5.214511752128601074e-01,-4.031195938587188721e-01,-4.110763669013977051e-01,3.807126581668853760e-01,-3.334393501281738281e-01,-4.558070003986358643e-01,3.354589343070983887e-01,2.930588722229003906e-01,-3.820035457611083984e-01,5.476950318552553654e-04,-2.189408987760543823e-03,1.678102463483810425e-01,-4.863864779472351074e-01,-3.473032116889953613e-01,2.736372053623199463e-01,3.776308000087738037e-01,3.968331813812255859e-01,-3.935432732105255127e-01,-3.172081112861633301e-01,-4.075186252593994141e-01,3.157961368560791016e-01,-4.302688241004943848e-01,2.895932495594024658e-01,-3.055835664272308350e-01,-4.736641347408294678e-01,-5.143035650253295898e-01,2.244396060705184937e-01,-3.975626230239868164e-01
