4.598688781261444092e-01,2.014547437429428101e-01,2.134601324796676636e-01,-3.610717952251434326e-01,-4.313779175281524658e-01,3.044548630714416504e-01,3.124626874923706055e-01,4.925306439399719238e-01,-5.593717098236083984e-01,-3.553176820278167725e-01,-2.960953712463378906e-01,-5.596741437911987305e-01,4.341959059238433838e-01,2.258452773094177246e-01,-1.338802129030227661e-01,-2.484599500894546509e-01,-2.706396281719207764e-01,-2.875989675521850586e-01,-3.011248409748077393e-01,3.597106933593750000e-01,4.926214814186096191e-01,-3.059871196746826172e-01,5.822088718414306641e-01,-1.579925417900085449e-02,3.843676149845123291e-01,-2.527962625026702881e-01,-3.916513919830322266e-01,1.793037354946136475e-01,-3.467797040939331055e-01,5.269134044647216797e-01,4.680190086364746094e-01,-2.345124781131744385e-01,-3.009020686149597168e-01,-2.766129076480865479e-01,-5.267556905746459961e-01,-4.863679111003875732e-01,5.950022339820861816e-01,-5.244520902633666992e-01,-2.264000475406646729e-01,3.337473571300506592e-01,-8.239549398422241211e-01,3.980234265327453613e-01,3.732090592384338379e-01,3.484697341918945312e-01,2.967486381530761719e-01,-4.111824333667755127e-01,6.537287831306457520e-01,-5.268910527229309082e-01,1.463459134101867676e-01,-1.456587575376033783e-02,-3.576787412166595459e-01,3.725513815879821777e-01,2.649385929107666016e-01,6.833866834640502930e-01,-5.643133521080017090e-01,-4.724790453910827637e-01,8.133828043937683105e-01,-3.302564322948455811e-01,2.003375142812728882e-01,2.956762313842773438e-01,5.079690217971801758e-01,2.348191887140274048e-01,-4.844607412815093994e-01,4.480634331703186035e-01,-4.691561758518218994e-01,-2.131102979183197021e-01,-4.330327510833740234e-01,6.378104090690612793e-01,3.143057227134704590e-01,2.404888421297073364e-01,-1.068450659513473511e-01,-4.622532427310943604e-01,-4.726261496543884277e-01,-2.738097608089447021e-01,-6.304503232240676880e-02
